~o
<STREAMINFO> 1 13
<VECSIZE> 13<NULLD><MFCC_E><DIAGC>
~h "don"
<BEGINHMM>
<NUMSTATES> 5
<STATE> 2
<NUMMIXES> 2
<MIXTURE> 1 6.315681e-001
<MEAN> 13
 3.842410e+000 -5.030757e+000 -5.994882e+000 -2.325466e+001 -5.546127e+000 -6.612299e+000 -1.527132e+001 -6.913641e+000 -3.135061e+000 2.956867e+000 9.528939e-001 -9.192513e-002 9.351573e-001
<VARIANCE> 13
 7.703365e+000 4.240679e+001 6.820713e+001 8.109152e+001 6.051383e+001 1.243591e+002 3.169113e+001 2.929165e+001 6.708824e+001 6.260442e+001 1.197802e+002 6.865080e+001 2.714996e-003
<GCONST> 6.550745e+001
<MIXTURE> 2 3.684316e-001
<MEAN> 13
 2.595390e+000 -6.344428e+000 -1.070438e+001 -2.607541e+001 3.446394e+000 -8.260881e+000 -1.448969e+001 -5.618137e+000 -1.610954e+001 -2.374126e+000 -1.075838e+001 1.321431e+000 8.568970e-001
<VARIANCE> 13
 6.090028e+000 3.545525e+001 1.468007e+001 2.670623e+001 2.935474e+001 5.687413e+001 5.742710e+001 5.930368e+001 5.527650e+001 4.697763e+001 2.936158e+001 6.967289e+001 5.863591e-003
<GCONST> 6.113872e+001
<STATE> 3
<NUMMIXES> 2
<MIXTURE> 1 3.841035e-001
<MEAN> 13
 6.907513e+000 -1.794451e+000 -4.275331e+000 -1.025156e+001 -1.072089e+001 -7.149249e+000 -1.215556e+001 -1.209931e+001 -4.126837e+000 -2.169695e+000 2.291848e+000 -2.010081e+000 8.415779e-001
<VARIANCE> 13
 2.899175e+000 2.251385e+001 2.524131e+001 5.481707e+001 2.489249e+001 4.874011e+001 2.147457e+001 1.761843e+001 3.210963e+001 3.958981e+001 7.073113e+001 2.170291e+001 1.139309e-002
<GCONST> 5.834964e+001
<MIXTURE> 2 6.158965e-001
<MEAN> 13
 5.015900e+000 -2.120800e+000 -1.216673e+001 -1.625802e+001 -4.117686e+000 -1.066553e+001 -1.455511e+001 -1.343726e+001 -8.998648e+000 -6.706464e+000 -6.384346e+000 -3.175093e+000 7.273128e-001
<VARIANCE> 13
 5.415255e+000 1.963222e+001 9.969245e+000 2.294880e+001 1.887294e+001 2.833083e+001 1.937856e+001 2.271553e+001 4.757646e+001 2.643476e+001 2.825230e+001 3.097944e+001 1.896162e-002
<GCONST> 5.630664e+001
<STATE> 4
<NUMMIXES> 2
<MIXTURE> 1 4.887789e-001
<MEAN> 13
 -6.695067e-001 2.961847e+000 -3.866906e+000 -1.037127e+001 -1.025742e+001 -1.078283e+001 -1.006631e+001 -1.004605e+001 -5.788284e+000 -3.177150e+000 1.314361e-001 -1.285647e+000 5.077177e-001
<VARIANCE> 13
 8.202687e+000 8.583827e+000 1.881637e+001 2.384139e+001 1.700853e+001 2.235466e+001 2.219065e+001 1.986830e+001 2.123956e+001 1.486979e+001 2.304683e+001 2.181182e+001 2.047775e-002
<GCONST> 5.436920e+001
<MIXTURE> 2 5.112197e-001
<MEAN> 13
 -4.458266e-001 2.865053e+000 -5.471910e+000 -1.080280e+001 -8.097121e+000 -9.102696e+000 -1.174173e+001 -1.516203e+001 -1.362653e+001 -1.057477e+001 -4.407322e+000 -3.252529e+000 5.167534e-001
<VARIANCE> 13
 7.765190e+000 9.276676e+000 2.511317e+001 2.372192e+001 1.270493e+001 2.181595e+001 1.561767e+001 1.820822e+001 2.344048e+001 1.747368e+001 1.947619e+001 2.353281e+001 2.153733e-002
<GCONST> 5.413904e+001
<TRANSP> 5
 0.000000e+000 1.000000e+000 0.000000e+000 0.000000e+000 0.000000e+000
 0.000000e+000 9.495699e-001 5.043016e-002 0.000000e+000 0.000000e+000
 0.000000e+000 0.000000e+000 9.617451e-001 3.825490e-002 0.000000e+000
 0.000000e+000 0.000000e+000 0.000000e+000 9.645954e-001 3.540455e-002
 0.000000e+000 0.000000e+000 0.000000e+000 0.000000e+000 0.000000e+000
<ENDHMM>
~h "sil"
<BEGINHMM>
<NUMSTATES> 5
<STATE> 2
<NUMMIXES> 2
<MIXTURE> 1 2.972979e-001
<MEAN> 13
 -9.269487e+000 -8.048636e-001 -3.568939e+000 -4.890613e+000 -5.155190e+000 -5.103851e+000 -5.380066e+000 -5.352939e+000 -3.766493e+000 -5.290965e+000 -3.222598e+000 -2.772049e+000 1.677964e-001
<VARIANCE> 13
 2.066125e+001 1.491613e+001 1.982191e+001 2.015093e+001 2.399780e+001 2.293514e+001 2.231400e+001 2.296302e+001 1.945923e+001 2.085825e+001 2.022958e+001 2.087477e+001 3.321387e-002
<GCONST> 5.680984e+001
<MIXTURE> 2 7.026949e-001
<MEAN> 13
 -7.130060e+000 -7.206396e-001 -3.456538e+000 -5.218364e+000 -5.398133e+000 -5.722451e+000 -7.256135e+000 -8.336596e+000 -7.990308e+000 -9.453220e+000 -7.216688e+000 -5.908257e+000 2.633448e-001
<VARIANCE> 13
 4.898240e+000 7.629472e+000 1.144818e+001 1.222683e+001 1.476339e+001 1.604546e+001 1.600232e+001 1.782329e+001 1.910793e+001 1.753281e+001 1.759227e+001 1.606744e+001 1.916252e-002
<GCONST> 5.107921e+001
<STATE> 3
<NUMMIXES> 2
<MIXTURE> 1 5.652599e-001
<MEAN> 13
 -1.598663e+001 3.210070e+000 -4.007399e+000 -3.691375e+000 -7.072314e+000 -8.132365e+000 -1.428219e+000 -6.886064e+000 -2.668897e+000 -8.298193e+000 -4.350605e+000 -3.811823e+000 3.959832e-001
<VARIANCE> 13
 6.856037e+001 4.174394e+001 6.152511e+001 6.048582e+001 6.795118e+001 6.134275e+001 5.241615e+001 4.255485e+001 4.231326e+001 3.771464e+001 3.314462e+001 2.999899e+001 2.592768e-002
<GCONST> 6.674355e+001
<MIXTURE> 2 4.347403e-001
<MEAN> 13
 -2.519345e+000 4.800425e+000 2.274638e+000 -4.025341e+000 -8.560438e+000 -9.965195e+000 -1.005439e+001 -1.025356e+001 -8.607149e+000 -1.094236e+001 -9.039303e+000 -6.902336e+000 5.420004e-001
<VARIANCE> 13
 2.176786e+001 2.747614e+001 2.211353e+001 1.811214e+001 2.542062e+001 2.500582e+001 1.923768e+001 2.073443e+001 2.151883e+001 3.003359e+001 2.947334e+001 2.068993e+001 5.385514e-002
<GCONST> 5.868518e+001
<STATE> 4
<NUMMIXES> 2
<MIXTURE> 1 4.704163e-001
<MEAN> 13
 -3.287632e+000 -5.096960e+000 -3.184903e+000 -1.191157e+001 -1.155393e+001 -1.342835e+001 -5.994420e+000 -5.086170e+000 -4.815549e-002 -9.386793e+000 -1.139212e+001 -2.513152e+000 7.536870e-001
<VARIANCE> 13
 2.075802e+001 5.427422e+001 1.050429e+002 7.278435e+001 1.206020e+002 1.027599e+002 8.057983e+001 6.324667e+001 7.452831e+001 8.329457e+001 6.732480e+001 6.264372e+001 3.556973e-002
<GCONST> 7.156673e+001
<MIXTURE> 2 5.295827e-001
<MEAN> 13
 -6.570593e+000 -3.947772e+000 -6.329040e+000 -6.116134e+000 -3.297150e+000 -4.428743e+000 -6.830714e+000 -7.704910e+000 -7.015901e+000 -8.597241e+000 -5.578237e+000 -3.424193e+000 2.218974e-001
<VARIANCE> 13
 5.465948e+000 1.912767e+001 2.732164e+001 1.887012e+001 3.850727e+001 2.272692e+001 2.107341e+001 1.842026e+001 2.347642e+001 2.330373e+001 2.464544e+001 1.890458e+001 2.541653e-002
<GCONST> 5.629945e+001
<TRANSP> 5
 0.000000e+000 1.000000e+000 0.000000e+000 0.000000e+000 0.000000e+000
 0.000000e+000 8.967568e-001 1.032432e-001 0.000000e+000 0.000000e+000
 0.000000e+000 0.000000e+000 6.967038e-001 3.032962e-001 0.000000e+000
 0.000000e+000 0.000000e+000 0.000000e+000 5.804328e-001 4.195673e-001
 0.000000e+000 0.000000e+000 0.000000e+000 0.000000e+000 0.000000e+000
<ENDHMM>
~h "nav"
<BEGINHMM>
<NUMSTATES> 5
<STATE> 2
<NUMMIXES> 2
<MIXTURE> 1 3.234784e-001
<MEAN> 13
 6.934101e+000 -9.070608e+000 -1.177826e+001 -1.526348e+001 -6.897399e+000 -3.820686e+000 -1.094527e+001 -8.318558e+000 6.553347e-002 -4.963881e+000 -7.122614e+000 -7.447427e+000 9.436665e-001
<VARIANCE> 13
 4.146136e+000 2.025886e+001 3.573566e+001 6.941547e+001 3.001761e+001 3.680175e+001 3.650464e+001 3.221823e+001 3.749054e+001 5.812238e+001 6.316079e+001 2.871704e+001 1.602998e-003
<GCONST> 5.897066e+001
<MIXTURE> 2 6.765220e-001
<MEAN> 13
 2.959960e+000 -1.046048e+001 -1.006934e+001 -2.421827e+001 3.512169e+000 -4.218545e+000 -1.236508e+001 -1.999445e+000 -1.401077e+001 -1.054631e+001 -1.450519e+001 -8.040175e+000 9.276592e-001
<VARIANCE> 13
 8.183780e+000 2.188000e+001 2.060753e+001 2.201455e+001 4.010111e+001 3.524219e+001 3.907481e+001 4.310494e+001 4.388749e+001 3.693182e+001 3.239334e+001 3.897880e+001 2.749529e-003
<GCONST> 5.851560e+001
<STATE> 3
<NUMMIXES> 2
<MIXTURE> 1 3.748095e-001
<MEAN> 13
 6.944022e+000 1.312913e+000 -1.134369e+001 -1.543338e+001 -7.661892e+000 -2.983805e+000 -5.404414e+000 -9.195605e+000 -4.661176e+000 -5.177941e+000 -5.789013e+000 -6.700087e+000 8.530746e-001
<VARIANCE> 13
 5.966143e+000 1.306245e+001 1.333240e+001 1.472316e+001 2.175208e+001 1.655215e+001 1.705134e+001 1.745938e+001 2.248738e+001 3.047032e+001 3.066946e+001 1.553562e+001 8.037337e-003
<GCONST> 5.298265e+001
<MIXTURE> 2 6.251889e-001
<MEAN> 13
 5.038434e+000 -3.466156e+000 -1.450322e+001 -1.954453e+001 -3.874676e+000 -2.685853e+000 -9.209545e+000 -1.301519e+001 -1.382136e+001 -1.321850e+001 -1.088293e+001 -7.632229e+000 7.747434e-001
<VARIANCE> 13
 5.625860e+000 1.489274e+001 9.833437e+000 1.387860e+001 3.006993e+001 1.316878e+001 2.139162e+001 2.348188e+001 1.750292e+001 2.106138e+001 3.551850e+001 2.901560e+001 1.180020e-002
<GCONST> 5.384545e+001
<STATE> 4
<NUMMIXES> 2
<MIXTURE> 1 3.854958e-001
<MEAN> 13
 -1.871456e-001 1.805266e+000 -6.011642e+000 -1.148831e+001 -5.990317e+000 -2.949897e+000 -3.641391e+000 -5.651989e+000 -5.496032e+000 -5.692585e+000 -4.255242e+000 -5.448760e+000 5.730726e-001
<VARIANCE> 13
 6.303835e+000 1.424813e+001 2.334501e+001 1.779335e+001 3.523314e+001 3.107826e+001 2.322750e+001 1.817357e+001 1.999311e+001 1.975935e+001 1.883471e+001 1.404224e+001 8.436956e-003
<GCONST> 5.424485e+001
<MIXTURE> 2 6.145023e-001
<MEAN> 13
 -1.085487e+000 -3.972850e-001 -7.834914e+000 -1.172230e+001 -5.776218e+000 -3.634659e+000 -6.716992e+000 -1.191184e+001 -1.364377e+001 -1.496953e+001 -1.032175e+001 -9.103115e+000 5.478494e-001
<VARIANCE> 13
 8.240638e+000 1.272531e+001 2.500494e+001 2.083832e+001 2.803359e+001 2.695581e+001 2.010705e+001 1.687183e+001 1.773266e+001 1.849701e+001 2.639227e+001 1.970159e+001 2.025683e-002
<GCONST> 5.540278e+001
<TRANSP> 5
 0.000000e+000 1.000000e+000 0.000000e+000 0.000000e+000 0.000000e+000
 0.000000e+000 9.523578e-001 4.764218e-002 0.000000e+000 0.000000e+000
 0.000000e+000 0.000000e+000 9.506336e-001 4.936642e-002 0.000000e+000
 0.000000e+000 0.000000e+000 0.000000e+000 9.562905e-001 4.370945e-002
 0.000000e+000 0.000000e+000 0.000000e+000 0.000000e+000 0.000000e+000
<ENDHMM>
~h "char"
<BEGINHMM>
<NUMSTATES> 5
<STATE> 2
<NUMMIXES> 2
<MIXTURE> 1 3.731811e-001
<MEAN> 13
 9.030285e-001 -1.990482e+001 -9.188931e+000 -1.400137e+001 -6.721903e+000 -6.314530e+000 -5.865774e+000 -8.723309e-001 3.732552e+000 -9.181177e+000 -9.447557e+000 -8.042083e+000 9.378112e-001
<VARIANCE> 13
 1.699784e+001 2.379518e+001 2.541653e+001 1.877507e+001 8.033540e+001 3.085500e+001 7.198053e+001 3.972499e+001 9.248018e+001 2.752029e+001 2.181668e+001 8.407837e+001 2.020379e-003
<GCONST> 6.098866e+001
<MIXTURE> 2 6.268199e-001
<MEAN> 13
 -1.987082e+000 -2.015490e+001 -8.318959e+000 -1.611812e+001 1.880152e+000 -1.022015e+001 -1.596879e-001 -6.489690e+000 -6.535154e+000 -1.360011e+001 -1.426506e+001 2.230218e+000 9.147944e-001
<VARIANCE> 13
 1.402679e+001 3.703832e+001 1.234064e+001 2.250113e+001 3.897179e+001 2.675035e+001 2.963423e+001 3.538193e+001 3.188967e+001 3.995984e+001 3.851627e+001 2.586266e+001 5.494998e-003
<GCONST> 5.852642e+001
<STATE> 3
<NUMMIXES> 2
<MIXTURE> 1 4.054537e-001
<MEAN> 13
 2.696756e+000 -1.072760e+001 -1.251854e+001 -1.029636e+001 -4.876835e+000 -5.367597e+000 -7.326620e+000 -3.044457e+000 4.828103e+000 -6.786351e+000 -1.279047e+001 -9.154752e+000 6.921225e-001
<VARIANCE> 13
 5.707028e+000 1.937762e+001 1.318113e+001 1.097675e+001 3.000619e+001 2.685703e+001 3.050883e+001 2.412676e+001 3.044134e+001 2.886628e+001 2.049795e+001 2.808752e+001 1.161357e-002
<GCONST> 5.554460e+001
<MIXTURE> 2 5.945472e-001
<MEAN> 13
 1.313075e+000 -1.470047e+001 -1.251354e+001 -9.895308e+000 -1.724088e+000 -7.236540e+000 -6.643117e+000 -4.649014e+000 -9.029170e+000 -1.572573e+001 -1.164189e+001 -2.269629e+000 7.341077e-001
<VARIANCE> 13
 5.398066e+000 4.028415e+001 1.450316e+001 1.988897e+001 2.067247e+001 2.190621e+001 1.978918e+001 3.603234e+001 3.015914e+001 3.677940e+001 2.335233e+001 2.674759e+001 1.014036e-002
<GCONST> 5.648139e+001
<STATE> 4
<NUMMIXES> 2
<MIXTURE> 1 3.829595e-001
<MEAN> 13
 -2.178955e+000 -7.021234e+000 -1.323923e+001 -1.048488e+001 -2.714687e+000 -2.791679e+000 -2.916242e+000 -2.449744e+000 -2.066621e+000 -1.074220e+001 -1.122059e+001 -6.672478e+000 4.507975e-001
<VARIANCE> 13
 5.429955e+000 2.420359e+001 1.884819e+001 9.588819e+000 1.438993e+001 1.883759e+001 2.086915e+001 1.916781e+001 3.478746e+001 2.335912e+001 1.645660e+001 2.485272e+001 7.311078e-003
<GCONST> 5.335731e+001
<MIXTURE> 2 6.170409e-001
<MEAN> 13
 -2.696574e+000 -1.114860e+001 -1.287194e+001 -7.414792e+000 9.200098e-002 -2.537425e+000 -5.424150e+000 -8.679381e+000 -9.962557e+000 -1.432314e+001 -8.193102e+000 -1.613950e+000 4.363866e-001
<VARIANCE> 13
 4.089042e+000 4.315632e+001 2.019472e+001 1.207981e+001 1.815084e+001 1.929562e+001 1.834557e+001 2.069753e+001 2.161338e+001 2.808097e+001 2.706610e+001 1.752739e+001 1.398829e-002
<GCONST> 5.466141e+001
<TRANSP> 5
 0.000000e+000 1.000000e+000 0.000000e+000 0.000000e+000 0.000000e+000
 0.000000e+000 9.630117e-001 3.698821e-002 0.000000e+000 0.000000e+000
 0.000000e+000 0.000000e+000 9.504375e-001 4.956248e-002 0.000000e+000
 0.000000e+000 0.000000e+000 0.000000e+000 9.566478e-001 4.335226e-002
 0.000000e+000 0.000000e+000 0.000000e+000 0.000000e+000 0.000000e+000
<ENDHMM>
~h "pach"
<BEGINHMM>
<NUMSTATES> 5
<STATE> 2
<NUMMIXES> 2
<MIXTURE> 1 5.122862e-001
<MEAN> 13
 4.741044e+000 -1.666473e+001 -1.291077e+001 -1.342754e+001 -2.736385e+000 -8.235255e-001 -1.106514e+001 -6.778062e+000 -1.074630e-001 -9.776640e+000 -9.767599e+000 -9.368679e+000 9.210114e-001
<VARIANCE> 13
 8.093904e+000 2.440810e+001 2.894847e+001 3.372478e+001 4.091750e+001 3.059195e+001 5.586596e+001 5.333398e+001 4.391946e+001 4.262761e+001 6.368953e+001 3.010397e+001 2.825897e-003
<GCONST> 6.041861e+001
<MIXTURE> 2 4.877138e-001
<MEAN> 13
 -1.343896e+000 -2.208564e+001 -7.398379e+000 -1.887581e+001 9.705875e+000 -1.017962e+001 -6.259647e+000 -4.677496e+000 -9.400508e+000 -1.045905e+001 -1.434709e+001 -1.349326e+000 8.776174e-001
<VARIANCE> 13
 8.555292e+000 1.830780e+001 1.208112e+001 3.112198e+001 3.983384e+001 3.368099e+001 4.089326e+001 5.083922e+001 4.842209e+001 5.141445e+001 2.897701e+001 3.862923e+001 8.347061e-003
<GCONST> 5.977166e+001
<STATE> 3
<NUMMIXES> 2
<MIXTURE> 1 3.258337e-001
<MEAN> 13
 2.975044e+000 -7.147800e+000 -1.583806e+001 -1.129720e+001 7.058083e-001 8.233525e-001 -9.331299e+000 -1.099148e+001 -2.047679e+000 -8.032110e+000 -1.051848e+001 -9.817690e+000 6.948618e-001
<VARIANCE> 13
 8.306224e+000 9.389504e+000 1.395685e+001 1.386874e+001 1.563266e+001 3.362862e+001 2.740650e+001 2.222322e+001 2.284892e+001 2.609715e+001 2.287269e+001 1.607929e+001 5.698393e-003
<GCONST> 5.332190e+001
<MIXTURE> 2 6.741661e-001
<MEAN> 13
 -1.262318e+000 -1.365862e+001 -1.642974e+001 -7.251832e+000 1.617413e+000 -8.499499e+000 -9.203007e+000 -5.151706e+000 -8.685319e+000 -1.562851e+001 -1.098629e+001 -3.589904e+000 6.552331e-001
<VARIANCE> 13
 2.251772e+001 1.286653e+001 1.337489e+001 1.349035e+001 1.991302e+001 3.727260e+001 2.443271e+001 2.694584e+001 3.382624e+001 3.449491e+001 1.906617e+001 1.722999e+001 2.672936e-002
<GCONST> 5.709069e+001
<STATE> 4
<NUMMIXES> 2
<MIXTURE> 1 3.845273e-001
<MEAN> 13
 -9.530484e+000 2.446357e+000 -1.943270e+001 -4.864621e+000 -3.706887e-001 -4.301865e+000 -1.409373e+000 -1.184037e+001 -2.381476e+000 -1.164554e+001 -6.499016e+000 -9.516355e+000 5.351201e-001
<VARIANCE> 13
 9.402939e+000 2.443910e+001 3.343636e+001 2.054655e+001 2.831258e+001 3.971400e+001 4.065210e+001 3.658847e+001 3.799220e+001 3.693015e+001 2.449943e+001 2.640338e+001 1.065222e-002
<GCONST> 5.936831e+001
<MIXTURE> 2 6.154721e-001
<MEAN> 13
 -4.137574e+000 -6.668300e+000 -1.514189e+001 -4.631634e+000 3.968219e-001 -4.853871e+000 -9.397446e+000 -9.572459e+000 -8.202758e+000 -1.374131e+001 -9.891749e+000 -7.325437e+000 4.534387e-001
<VARIANCE> 13
 5.314910e+000 1.393669e+001 2.606931e+001 1.762009e+001 2.110037e+001 1.892498e+001 2.116649e+001 2.627477e+001 2.453216e+001 4.208063e+001 2.468684e+001 2.493169e+001 3.172205e-002
<GCONST> 5.654928e+001
<TRANSP> 5
 0.000000e+000 1.000000e+000 0.000000e+000 0.000000e+000 0.000000e+000
 0.000000e+000 9.639798e-001 3.602021e-002 0.000000e+000 0.000000e+000
 0.000000e+000 0.000000e+000 9.387207e-001 6.127933e-002 0.000000e+000
 0.000000e+000 0.000000e+000 0.000000e+000 9.589750e-001 4.102503e-002
 0.000000e+000 0.000000e+000 0.000000e+000 0.000000e+000 0.000000e+000
<ENDHMM>
~h "eka"
<BEGINHMM>
<NUMSTATES> 5
<STATE> 2
<NUMMIXES> 2
<MIXTURE> 1 3.223714e-001
<MEAN> 13
 -2.766094e+000 -6.881574e+000 2.172883e+001 -1.341795e+001 -3.061248e+001 -1.080795e+001 -1.049232e+001 -2.486263e+000 -5.653314e+000 -3.291589e+000 2.646776e+000 -4.268259e+000 9.007912e-001
<VARIANCE> 13
 1.013583e+001 2.877697e+001 5.111354e+001 5.101495e+001 3.783509e+001 3.754792e+001 5.841169e+001 5.011250e+001 4.399552e+001 3.146491e+001 9.252190e+001 3.588335e+001 6.307770e-003
<GCONST> 6.294957e+001
<MIXTURE> 2 6.776285e-001
<MEAN> 13
 -5.018518e+000 -1.139143e+000 1.400754e+001 -3.249163e+001 -1.923037e+001 -1.103103e+001 -1.091827e+001 -1.101580e+001 -1.171281e+000 4.389585e+000 -1.144646e+001 2.158627e+000 8.817052e-001
<VARIANCE> 13
 8.168587e+000 2.758173e+001 1.464905e+001 4.156765e+001 2.675237e+001 3.191784e+001 4.902283e+001 5.160351e+001 3.187853e+001 5.108257e+001 4.003069e+001 2.145469e+001 8.610751e-003
<GCONST> 5.970343e+001
<STATE> 3
<NUMMIXES> 2
<MIXTURE> 1 5.543398e-001
<MEAN> 13
 -2.202050e+000 -4.242338e-001 9.901472e+000 -1.469112e+001 -2.362786e+001 -1.181922e+001 -9.374858e+000 -9.266299e+000 -2.021735e+000 -4.246795e+000 -1.844666e+000 -2.749779e+000 6.853833e-001
<VARIANCE> 13
 3.800404e+000 2.013225e+001 3.924302e+001 5.399861e+001 2.596496e+001 3.027025e+001 2.479664e+001 3.326074e+001 4.932387e+001 3.009850e+001 6.001962e+001 3.608350e+001 8.189875e-003
<GCONST> 5.944910e+001
<MIXTURE> 2 4.456596e-001
<MEAN> 13
 -3.284805e+000 -3.405241e+000 3.733758e+000 -7.930691e+000 -1.468825e+001 -2.240625e+001 -8.113167e+000 -7.023428e+000 -2.154289e+000 -7.339805e+000 -6.484238e+000 -1.062825e+000 7.047738e-001
<VARIANCE> 13
 6.373503e+000 4.263422e+001 1.922257e+001 9.154921e+001 4.156961e+001 8.007170e+001 6.581284e+001 3.309829e+001 5.168800e+001 4.071530e+001 3.716599e+001 2.363130e+001 5.319535e-003
<GCONST> 6.196019e+001
<STATE> 4
<NUMMIXES> 2
<MIXTURE> 1 4.889401e-001
<MEAN> 13
 -4.403410e+000 -8.579567e-001 -1.219332e+000 -1.012264e+001 -1.543703e+001 -1.657803e+001 -1.003854e+001 -4.237345e+000 5.542863e-001 -3.824950e+000 -1.899654e+000 -7.219296e-001 4.499862e-001
<VARIANCE> 13
 4.289566e+000 1.046611e+001 1.090981e+001 4.424052e+001 2.299170e+001 2.541703e+001 2.381359e+001 1.634528e+001 2.131272e+001 2.716903e+001 2.346590e+001 1.886456e+001 1.234413e-002
<GCONST> 5.427042e+001
<MIXTURE> 2 5.110588e-001
<MEAN> 13
 -3.300910e+000 1.814313e+000 9.826629e-001 -6.353143e+000 -1.314779e+001 -1.606605e+001 -1.143368e+001 -7.830003e+000 -5.047249e+000 -7.473649e+000 -4.352499e+000 -4.083267e+000 5.108791e-001
<VARIANCE> 13
 4.637439e+000 8.054929e+000 1.088712e+001 2.355018e+001 1.703384e+001 1.715677e+001 1.439859e+001 1.756486e+001 1.459594e+001 2.057867e+001 1.844929e+001 1.586722e+001 1.082931e-002
<GCONST> 5.112897e+001
<TRANSP> 5
 0.000000e+000 1.000000e+000 0.000000e+000 0.000000e+000 0.000000e+000
 0.000000e+000 9.589286e-001 4.107140e-002 0.000000e+000 0.000000e+000
 0.000000e+000 0.000000e+000 9.537727e-001 4.622725e-002 0.000000e+000
 0.000000e+000 0.000000e+000 0.000000e+000 9.605089e-001 3.949112e-002
 0.000000e+000 0.000000e+000 0.000000e+000 0.000000e+000 0.000000e+000
<ENDHMM>
~h "dha"
<BEGINHMM>
<NUMSTATES> 5
<STATE> 2
<NUMMIXES> 2
<MIXTURE> 1 4.558199e-001
<MEAN> 13
 1.162285e+000 -2.055631e+001 -6.369032e+000 -1.329771e+001 -8.686395e-001 9.696261e-001 -7.829324e+000 -3.982964e+000 1.219294e+000 -6.773016e+000 -8.169679e+000 -7.137384e+000 8.444141e-001
<VARIANCE> 13
 1.104705e+001 3.665791e+001 2.821762e+001 3.335279e+001 1.339112e+002 3.823276e+001 3.638350e+001 3.802114e+001 1.244274e+002 3.465596e+001 3.263050e+001 9.750663e+001 1.478637e-002
<GCONST> 6.473672e+001
<MIXTURE> 2 5.441801e-001
<MEAN> 13
 1.183584e+000 -1.538923e+001 -1.170493e+001 -1.074210e+001 2.877184e+000 -7.293262e+000 -3.783640e+000 -9.492987e+000 -6.350891e+000 -1.555490e+001 -1.526783e+001 2.624384e-001 9.251367e-001
<VARIANCE> 13
 1.565951e+001 4.795218e+001 2.955850e+001 4.261210e+001 6.266381e+001 4.269827e+001 6.296571e+001 5.330867e+001 5.459034e+001 6.022238e+001 3.505468e+001 3.788135e+001 3.901883e-003
<GCONST> 6.340580e+001
<STATE> 3
<NUMMIXES> 2
<MIXTURE> 1 4.528166e-001
<MEAN> 13
 3.152453e+000 -1.075113e+001 -1.660993e+001 -9.759142e+000 -5.258065e-001 -2.541200e-001 -4.342737e+000 -5.407775e+000 1.246269e+000 -6.958911e+000 -9.882355e+000 -8.583805e+000 6.713511e-001
<VARIANCE> 13
 4.394701e+000 2.784002e+001 1.457036e+001 1.148249e+001 3.370493e+001 4.249944e+001 2.194654e+001 2.953929e+001 3.339926e+001 3.234172e+001 2.538008e+001 3.088566e+001 1.149911e-002
<GCONST> 5.674422e+001
<MIXTURE> 2 5.471829e-001
<MEAN> 13
 9.140784e-001 -1.435457e+001 -1.637341e+001 -6.573321e+000 7.043589e+000 -7.553234e-001 -9.794784e+000 -9.622272e+000 -6.690363e+000 -1.269351e+001 -1.260482e+001 -4.347443e+000 6.461838e-001
<VARIANCE> 13
 5.278107e+000 5.147818e+001 1.435583e+001 1.912275e+001 3.170284e+001 2.065816e+001 2.115199e+001 2.878375e+001 2.366002e+001 3.567761e+001 1.709463e+001 2.123270e+001 1.212040e-002
<GCONST> 5.622797e+001
<STATE> 4
<NUMMIXES> 2
<MIXTURE> 1 5.191456e-001
<MEAN> 13
 -2.704652e+000 -5.321790e+000 -1.115359e+001 -8.899184e+000 -9.647375e-001 -4.074722e-001 -4.337940e+000 -6.204924e+000 -3.370641e+000 -7.362110e+000 -8.552917e+000 -8.319683e+000 4.065663e-001
<VARIANCE> 13
 4.047620e+000 1.198085e+001 9.913312e+000 7.702803e+000 1.805204e+001 2.793899e+001 2.632769e+001 2.328312e+001 2.790156e+001 2.814377e+001 2.173485e+001 2.755049e+001 1.470725e-002
<GCONST> 5.359247e+001
<MIXTURE> 2 4.808545e-001
<MEAN> 13
 -3.102255e+000 -1.078955e+001 -1.527617e+001 -5.787317e+000 6.684969e+000 4.639951e-002 -1.137831e+001 -1.307511e+001 -7.146469e+000 -9.397340e+000 -7.965176e+000 -5.214052e+000 3.609794e-001
<VARIANCE> 13
 4.327086e+000 1.931071e+001 1.602363e+001 1.517628e+001 2.254096e+001 1.677018e+001 2.068136e+001 1.944835e+001 2.295926e+001 2.754536e+001 2.413218e+001 2.033144e+001 2.670187e-002
<GCONST> 5.476593e+001
<TRANSP> 5
 0.000000e+000 1.000000e+000 0.000000e+000 0.000000e+000 0.000000e+000
 0.000000e+000 9.547125e-001 4.528747e-002 0.000000e+000 0.000000e+000
 0.000000e+000 0.000000e+000 9.506354e-001 4.936457e-002 0.000000e+000
 0.000000e+000 0.000000e+000 0.000000e+000 9.489462e-001 5.105384e-002
 0.000000e+000 0.000000e+000 0.000000e+000 0.000000e+000 0.000000e+000
<ENDHMM>
~h "sa"
<BEGINHMM>
<NUMSTATES> 5
<STATE> 2
<NUMMIXES> 2
<MIXTURE> 1 4.276847e-001
<MEAN> 13
 -2.504594e-001 -5.091120e+000 -1.082317e+001 -1.773983e+001 -6.233694e+000 -1.666527e+001 -1.109102e+001 -5.301523e+000 3.243532e+000 7.648024e-001 -1.246957e+001 -1.063552e+000 9.550287e-001
<VARIANCE> 13
 1.257145e+001 2.025616e+001 2.748898e+001 6.034923e+001 2.017562e+001 3.768795e+001 2.741853e+001 5.002809e+001 4.402350e+001 4.507193e+001 5.667941e+001 4.693103e+001 1.148032e-003
<GCONST> 5.941321e+001
<MIXTURE> 2 5.723149e-001
<MEAN> 13
 3.191307e-001 -1.056278e+001 -1.328014e+001 -2.894819e+001 4.774981e+000 -9.859724e+000 -1.217170e+001 -3.973451e+000 -1.352817e+000 -1.575898e+000 -1.496589e+001 -5.579630e-001 9.029638e-001
<VARIANCE> 13
 8.196057e+000 1.175764e+001 1.657032e+001 1.538717e+001 4.362085e+001 1.552740e+001 4.683134e+001 4.140343e+001 2.823110e+001 4.032048e+001 2.650812e+001 3.440775e+001 5.338964e-003
<GCONST> 5.671006e+001
<STATE> 3
<NUMMIXES> 2
<MIXTURE> 1 5.569069e-001
<MEAN> 13
 5.669265e+000 1.956244e+000 -1.153744e+001 -1.825790e+001 -9.073094e+000 -9.579492e+000 -1.120533e+001 -1.309255e+001 -3.232236e+000 -1.417447e+000 -2.257740e+000 -3.841252e+000 8.432058e-001
<VARIANCE> 13
 4.111586e+000 8.791352e+000 2.255438e+001 3.810007e+001 1.964431e+001 1.515987e+001 2.018927e+001 1.876942e+001 3.600921e+001 2.981447e+001 3.146650e+001 2.154894e+001 1.110362e-002
<GCONST> 5.486748e+001
<MIXTURE> 2 4.430928e-001
<MEAN> 13
 3.477212e+000 -5.093447e+000 -1.831048e+001 -2.110212e+001 -1.174025e+000 -5.690361e+000 -1.247780e+001 -1.003750e+001 -3.847319e+000 -2.403866e+000 -9.536671e+000 -8.457376e+000 7.016734e-001
<VARIANCE> 13
 4.073849e+000 8.932405e+000 9.679376e+000 1.719521e+001 2.901602e+001 1.673341e+001 2.661802e+001 2.788196e+001 2.446420e+001 2.661996e+001 2.380873e+001 2.003399e+001 1.813649e-002
<GCONST> 5.403265e+001
<STATE> 4
<NUMMIXES> 2
<MIXTURE> 1 6.152017e-001
<MEAN> 13
 -1.654537e+000 2.690328e+000 -5.498855e+000 -1.150875e+001 -1.174562e+001 -1.059646e+001 -8.992228e+000 -7.393970e+000 -3.626637e+000 -3.314540e+000 -1.305011e+000 -3.320990e+000 4.785298e-001
<VARIANCE> 13
 8.342414e+000 7.278028e+000 1.268066e+001 1.740606e+001 1.396122e+001 1.348266e+001 1.448542e+001 1.694350e+001 2.444237e+001 1.932589e+001 1.713053e+001 2.462028e+001 1.977681e-002
<GCONST> 5.241518e+001
<MIXTURE> 2 3.847973e-001
<MEAN> 13
 -1.761635e+000 -4.252257e+000 -1.190460e+001 -1.470104e+001 -6.734068e+000 -6.107638e+000 -9.477982e+000 -1.034389e+001 -4.682484e+000 -6.980774e+000 -7.837805e+000 -8.460170e+000 4.763137e-001
<VARIANCE> 13
 5.361355e+000 1.312905e+001 1.636419e+001 2.862854e+001 3.787691e+001 1.656789e+001 2.519563e+001 2.024744e+001 2.767368e+001 3.204587e+001 2.786439e+001 1.618330e+001 2.263330e-002
<GCONST> 5.608310e+001
<TRANSP> 5
 0.000000e+000 1.000000e+000 0.000000e+000 0.000000e+000 0.000000e+000
 0.000000e+000 9.447490e-001 5.525099e-002 0.000000e+000 0.000000e+000
 0.000000e+000 0.000000e+000 9.589093e-001 4.109074e-002 0.000000e+000
 0.000000e+000 0.000000e+000 0.000000e+000 9.636928e-001 3.630716e-002
 0.000000e+000 0.000000e+000 0.000000e+000 0.000000e+000 0.000000e+000
<ENDHMM>
~h "ath"
<BEGINHMM>
<NUMSTATES> 5
<STATE> 2
<NUMMIXES> 2
<MIXTURE> 1 4.639419e-001
<MEAN> 13
 2.701118e+000 -1.854850e+001 -1.298806e+001 -1.357995e+001 -1.258546e+000 -1.767930e-001 -1.015424e+001 -6.611670e+000 1.815435e+000 -9.731932e+000 -8.677312e+000 -6.764353e+000 9.245229e-001
<VARIANCE> 13
 1.818915e+001 3.985235e+001 2.361666e+001 3.152760e+001 8.500274e+001 4.128994e+001 6.921794e+001 4.939274e+001 5.561297e+001 6.084704e+001 3.934586e+001 4.650574e+001 4.483357e-003
<GCONST> 6.362295e+001
<MIXTURE> 2 5.360575e-001
<MEAN> 13
 -8.995445e-001 -2.429864e+001 -7.516675e+000 -1.536041e+001 8.923052e+000 -4.264329e+000 -9.101113e+000 -6.028091e+000 -1.019957e+001 -9.432513e+000 -1.510168e+001 1.426864e-002 8.902868e-001
<VARIANCE> 13
 1.803123e+001 2.191890e+001 1.688018e+001 3.496422e+001 7.216692e+001 2.786055e+001 2.958745e+001 2.714134e+001 2.775100e+001 2.631796e+001 2.733872e+001 3.281761e+001 8.391529e-003
<GCONST> 5.915918e+001
<STATE> 3
<NUMMIXES> 2
<MIXTURE> 1 4.334180e-001
<MEAN> 13
 1.072529e+000 -1.176615e+001 -1.340812e+001 -1.109197e+001 -2.543661e+000 7.845972e-001 -5.202151e+000 -5.362602e+000 2.663219e-001 -7.752138e+000 -9.733193e+000 -7.528056e+000 6.607787e-001
<VARIANCE> 13
 1.138340e+001 3.004231e+001 4.515145e+001 2.930324e+001 2.978804e+001 3.334744e+001 2.433391e+001 2.920215e+001 3.698531e+001 2.742686e+001 2.265691e+001 2.700682e+001 7.504326e-003
<GCONST> 5.882841e+001
<MIXTURE> 2 5.665820e-001
<MEAN> 13
 3.328759e+000 -1.411924e+001 -1.370339e+001 -4.016206e+000 -2.158941e+000 -6.950756e+000 -8.709714e+000 -9.106170e+000 -9.045099e+000 -1.452215e+001 -1.123291e+001 -6.628776e+000 7.459619e-001
<VARIANCE> 13
 6.156251e+000 2.105345e+001 1.508414e+001 1.395720e+001 2.573310e+001 2.297469e+001 2.048930e+001 3.202910e+001 2.210745e+001 2.580408e+001 1.747124e+001 1.540302e+001 7.932546e-003
<GCONST> 5.408008e+001
<STATE> 4
<NUMMIXES> 2
<MIXTURE> 1 4.481246e-001
<MEAN> 13
 -2.076002e+000 -1.461639e+001 -1.424284e+001 -8.793015e+000 8.591501e-001 -1.901009e+000 -5.161579e+000 -5.707551e+000 -5.175682e+000 -8.329389e+000 -7.170750e+000 -3.963420e+000 4.734365e-001
<VARIANCE> 13
 3.430021e+000 6.641624e+001 2.064623e+001 1.146174e+001 1.466740e+001 2.617267e+001 1.779744e+001 1.929095e+001 2.196486e+001 2.224982e+001 2.109221e+001 2.070695e+001 1.528696e-002
<GCONST> 5.466689e+001
<MIXTURE> 2 5.518755e-001
<MEAN> 13
 -3.212331e+000 -1.194971e+001 -1.281721e+001 -5.776526e+000 2.395901e+000 -3.044365e+000 -9.744150e+000 -1.105896e+001 -9.044174e+000 -1.139221e+001 -7.811512e+000 -4.182881e+000 4.051762e-001
<VARIANCE> 13
 6.515295e+000 3.751728e+001 1.602540e+001 1.252744e+001 1.868652e+001 1.810863e+001 1.715437e+001 2.123858e+001 2.324032e+001 1.867945e+001 2.429459e+001 1.717571e+001 3.015472e-002
<GCONST> 5.502137e+001
<TRANSP> 5
 0.000000e+000 1.000000e+000 0.000000e+000 0.000000e+000 0.000000e+000
 0.000000e+000 9.645318e-001 3.546821e-002 0.000000e+000 0.000000e+000
 0.000000e+000 0.000000e+000 9.441652e-001 5.583483e-002 0.000000e+000
 0.000000e+000 0.000000e+000 0.000000e+000 9.569986e-001 4.300134e-002
 0.000000e+000 0.000000e+000 0.000000e+000 0.000000e+000 0.000000e+000
<ENDHMM>
~h "tin"
<BEGINHMM>
<NUMSTATES> 5
<STATE> 2
<NUMMIXES> 2
<MIXTURE> 1 2.283783e-001
<MEAN> 13
 -1.682382e+000 -5.318691e-001 2.267226e+001 -8.356916e+000 -2.778646e+001 -9.379550e+000 -1.262009e+001 -5.724517e+000 -5.149175e+000 -1.207320e+001 4.044036e+000 -5.843831e+000 9.248414e-001
<VARIANCE> 13
 8.614875e+000 1.305742e+001 1.806473e+001 3.638556e+001 4.062546e+001 3.738342e+001 4.639505e+001 3.989422e+001 2.072074e+001 2.893805e+001 9.601244e+001 2.623861e+001 3.318430e-003
<GCONST> 5.847217e+001
<MIXTURE> 2 7.716215e-001
<MEAN> 13
 -6.301405e+000 2.870491e+000 1.444228e+001 -2.870826e+001 -1.963407e+001 -6.608240e+000 -1.566664e+001 -9.454135e+000 -8.784249e+000 -4.951560e+000 -1.762653e+001 -2.405745e+000 8.896359e-001
<VARIANCE> 13
 1.846092e+001 1.769941e+001 1.962356e+001 4.767429e+001 4.159588e+001 2.961839e+001 6.145737e+001 4.483587e+001 3.908394e+001 4.633186e+001 3.082205e+001 1.935690e+001 5.081494e-003
<GCONST> 6.017113e+001
<STATE> 3
<NUMMIXES> 2
<MIXTURE> 1 3.908355e-001
<MEAN> 13
 3.706619e-001 5.855198e+000 9.708314e+000 -2.974273e+000 -1.356817e+001 -1.289993e+001 -1.443866e+001 -1.129172e+001 -5.127270e+000 -8.322093e+000 -5.844398e+000 -5.022807e+000 7.965962e-001
<VARIANCE> 13
 2.600758e+000 1.304068e+001 2.157924e+001 3.159570e+001 2.471659e+001 3.674337e+001 2.248548e+001 4.134696e+001 3.048385e+001 1.906111e+001 1.926735e+001 1.790219e+001 7.273139e-003
<GCONST> 5.487195e+001
<MIXTURE> 2 6.091638e-001
<MEAN> 13
 -1.031447e+000 3.148626e+000 6.536804e+000 -1.659059e+001 -1.699761e+001 -9.327073e+000 -1.712776e+001 -1.356548e+001 -5.336451e+000 -1.166247e+001 -1.300086e+001 -4.525626e+000 7.506424e-001
<VARIANCE> 13
 5.121594e+000 1.667393e+001 1.135856e+001 3.989693e+001 2.308037e+001 2.266175e+001 4.031118e+001 2.015309e+001 2.781698e+001 2.220057e+001 2.261836e+001 1.651786e+001 2.064747e-002
<GCONST> 5.588444e+001
<STATE> 4
<NUMMIXES> 2
<MIXTURE> 1 5.122676e-001
<MEAN> 13
 -5.399005e+000 2.890777e+000 2.492809e+000 -3.261533e+000 -8.622606e+000 -9.906677e+000 -1.032669e+001 -9.665509e+000 -7.148636e+000 -7.547942e+000 -4.636523e+000 -3.593701e+000 4.251524e-001
<VARIANCE> 13
 3.041037e+000 7.104825e+000 1.086229e+001 1.923949e+001 2.018814e+001 1.447708e+001 1.607435e+001 1.599567e+001 1.714066e+001 1.504433e+001 1.606892e+001 1.216158e+001 7.650950e-003
<GCONST> 4.948954e+001
<MIXTURE> 2 4.877324e-001
<MEAN> 13
 -4.550489e+000 4.075305e+000 3.026261e+000 -5.984170e+000 -1.039253e+001 -1.188502e+001 -1.381568e+001 -1.382604e+001 -1.107769e+001 -1.278320e+001 -1.008952e+001 -6.717732e+000 5.453830e-001
<VARIANCE> 13
 4.236733e+000 6.999609e+000 9.445773e+000 2.053148e+001 1.892547e+001 1.449625e+001 1.414955e+001 1.468423e+001 1.640548e+001 1.712413e+001 1.617460e+001 1.336084e+001 1.303148e-002
<GCONST> 5.017392e+001
<TRANSP> 5
 0.000000e+000 1.000000e+000 0.000000e+000 0.000000e+000 0.000000e+000
 0.000000e+000 9.660398e-001 3.396022e-002 0.000000e+000 0.000000e+000
 0.000000e+000 0.000000e+000 9.540085e-001 4.599150e-002 0.000000e+000
 0.000000e+000 0.000000e+000 0.000000e+000 9.625111e-001 3.748896e-002
 0.000000e+000 0.000000e+000 0.000000e+000 0.000000e+000 0.000000e+000
<ENDHMM>
~h "sat"
<BEGINHMM>
<NUMSTATES> 5
<STATE> 2
<NUMMIXES> 2
<MIXTURE> 1 3.657139e-001
<MEAN> 13
 2.669787e+000 -1.445849e+001 -1.479633e+001 -1.213300e+001 -6.153468e+000 -6.011638e+000 -9.148285e+000 -2.184987e+000 5.791812e+000 -9.742222e+000 -1.257932e+001 -7.016179e+000 9.482602e-001
<VARIANCE> 13
 9.989914e+000 2.163895e+001 2.498747e+001 2.077214e+001 3.551517e+001 3.902649e+001 6.892810e+001 6.660200e+001 1.005928e+002 4.996386e+001 3.130293e+001 6.282214e+001 1.361418e-003
<GCONST> 6.069363e+001
<MIXTURE> 2 6.342853e-001
<MEAN> 13
 -2.194666e+000 -2.233741e+001 -9.264716e+000 -1.528385e+001 4.623734e+000 -9.220805e+000 -2.503981e+000 -6.633186e+000 -6.247551e+000 -1.258268e+001 -1.386313e+001 4.490803e+000 9.175900e-001
<VARIANCE> 13
 9.110243e+000 2.970779e+001 1.340950e+001 2.873500e+001 5.753941e+001 2.006706e+001 3.609462e+001 3.306905e+001 3.060884e+001 3.323047e+001 3.880766e+001 2.216197e+001 4.877953e-003
<GCONST> 5.794230e+001
<STATE> 3
<NUMMIXES> 2
<MIXTURE> 1 3.651220e-001
<MEAN> 13
 2.801431e+000 -8.217458e+000 -1.846723e+001 -1.226190e+001 -2.154771e+000 -2.533937e+000 -5.744703e+000 -4.549323e+000 4.695161e+000 -4.752378e+000 -1.223738e+001 -9.373015e+000 6.704646e-001
<VARIANCE> 13
 5.136769e+000 1.320408e+001 8.584010e+000 9.276844e+000 1.704954e+001 3.536016e+001 3.316350e+001 2.862909e+001 2.608632e+001 2.010688e+001 1.415437e+001 1.540061e+001 8.130870e-003
<GCONST> 5.257917e+001
<MIXTURE> 2 6.348758e-001
<MEAN> 13
 1.501112e+000 -1.478554e+001 -1.597693e+001 -7.658420e+000 2.106020e-001 -7.137749e+000 -7.683786e+000 -5.743630e+000 -6.493217e+000 -1.487426e+001 -1.115832e+001 -1.746885e+000 6.994045e-001
<VARIANCE> 13
 5.321046e+000 4.009378e+001 1.213673e+001 1.322752e+001 2.241252e+001 1.602914e+001 1.901500e+001 2.271920e+001 2.202378e+001 3.227891e+001 2.490117e+001 1.949007e+001 5.889080e-003
<GCONST> 5.390300e+001
<STATE> 4
<NUMMIXES> 2
<MIXTURE> 1 4.177600e-001
<MEAN> 13
 -3.167841e+000 -6.143546e+000 -1.329891e+001 -1.051249e+001 -2.403064e+000 -1.052417e+000 -2.909020e+000 -4.571661e+000 -2.912486e+000 -9.067290e+000 -9.356547e+000 -6.518190e+000 4.303611e-001
<VARIANCE> 13
 4.738156e+000 1.492018e+001 1.721027e+001 1.466252e+001 1.366631e+001 2.523605e+001 2.733066e+001 2.073347e+001 3.101927e+001 2.635810e+001 2.276905e+001 2.434894e+001 8.620951e-003
<GCONST> 5.413525e+001
<MIXTURE> 2 5.822390e-001
<MEAN> 13
 -2.851485e+000 -1.295983e+001 -1.494013e+001 -5.691427e+000 2.714837e+000 -3.933865e+000 -8.378266e+000 -9.276026e+000 -9.227945e+000 -1.379133e+001 -7.524240e+000 -1.922602e+000 4.402332e-001
<VARIANCE> 13
 4.543849e+000 3.620360e+001 1.061340e+001 1.371980e+001 1.951452e+001 1.975001e+001 1.643223e+001 1.916485e+001 2.342664e+001 2.381773e+001 2.479132e+001 1.559162e+001 2.081247e-002
<GCONST> 5.409225e+001
<TRANSP> 5
 0.000000e+000 1.000000e+000 0.000000e+000 0.000000e+000 0.000000e+000
 0.000000e+000 9.621821e-001 3.781789e-002 0.000000e+000 0.000000e+000
 0.000000e+000 0.000000e+000 9.480818e-001 5.191824e-002 0.000000e+000
 0.000000e+000 0.000000e+000 0.000000e+000 9.590182e-001 4.098186e-002
 0.000000e+000 0.000000e+000 0.000000e+000 0.000000e+000 0.000000e+000
<ENDHMM>
