~o
<STREAMINFO> 1 13
<VECSIZE> 13<NULLD><MFCC_E><DIAGC>
~h "don"
<BEGINHMM>
<NUMSTATES> 5
<STATE> 2
<NUMMIXES> 2
<MIXTURE> 1 6.857203e-001
<MEAN> 13
 4.217328e+000 -4.781951e+000 -6.121413e+000 -2.221719e+001 -5.846459e+000 -6.565654e+000 -1.486169e+001 -7.295753e+000 -3.739483e+000 1.858160e+000 4.666711e-001 4.246252e-001 9.303660e-001
<VARIANCE> 13
 9.997163e+000 3.667053e+001 6.336051e+001 8.805265e+001 6.592451e+001 1.161376e+002 2.966328e+001 2.977056e+001 7.080934e+001 6.037500e+001 1.153324e+002 6.661779e+001 2.978856e-003
<GCONST> 6.564131e+001
<MIXTURE> 2 3.142803e-001
<MEAN> 13
 3.742297e+000 -5.624769e+000 -1.051530e+001 -2.325216e+001 1.633215e+000 -1.061786e+001 -1.490169e+001 -6.902812e+000 -1.353798e+001 -3.576196e+000 -1.043690e+001 -1.085355e+000 8.576095e-001
<VARIANCE> 13
 8.820103e+000 3.896738e+001 1.344769e+001 3.086985e+001 3.770911e+001 5.157251e+001 5.092392e+001 5.765848e+001 9.266119e+001 3.913383e+001 3.316837e+001 5.561922e+001 6.294525e-003
<GCONST> 6.196650e+001
<STATE> 3
<NUMMIXES> 2
<MIXTURE> 1 4.071467e-001
<MEAN> 13
 6.225485e+000 -1.418730e+000 -5.803189e+000 -1.046514e+001 -9.391077e+000 -7.376606e+000 -1.155087e+001 -1.267881e+001 -5.307917e+000 -1.892553e+000 8.500808e-001 -1.835553e+000 7.875941e-001
<VARIANCE> 13
 4.481099e+000 2.145867e+001 2.887888e+001 6.263737e+001 2.587383e+001 4.240777e+001 2.325167e+001 1.978472e+001 2.736095e+001 4.236327e+001 6.927908e+001 2.355816e+001 1.499980e-002
<GCONST> 5.934402e+001
<MIXTURE> 2 5.928524e-001
<MEAN> 13
 4.892650e+000 -1.902088e+000 -1.192265e+001 -1.584492e+001 -3.951482e+000 -1.073556e+001 -1.493566e+001 -1.383631e+001 -9.713537e+000 -7.507522e+000 -6.616561e+000 -3.512298e+000 7.237846e-001
<VARIANCE> 13
 3.972235e+000 1.997066e+001 1.110238e+001 2.231038e+001 1.960733e+001 2.590720e+001 1.901716e+001 2.233829e+001 4.508413e+001 2.300535e+001 2.539917e+001 2.909580e+001 1.453301e-002
<GCONST> 5.537851e+001
<STATE> 4
<NUMMIXES> 2
<MIXTURE> 1 4.656949e-001
<MEAN> 13
 -5.168019e-001 2.865700e+000 -3.946388e+000 -1.037230e+001 -1.001836e+001 -1.033865e+001 -9.655807e+000 -1.013840e+001 -6.277695e+000 -3.603746e+000 2.209444e-001 -9.909823e-001 5.125515e-001
<VARIANCE> 13
 8.380186e+000 9.627167e+000 2.026186e+001 2.404036e+001 1.633437e+001 2.395441e+001 2.109667e+001 2.049813e+001 2.497421e+001 1.809175e+001 2.384971e+001 2.120963e+001 2.127524e-002
<GCONST> 5.499952e+001
<MIXTURE> 2 5.343063e-001
<MEAN> 13
 -4.325675e-001 2.604253e+000 -5.844404e+000 -1.134465e+001 -8.526902e+000 -9.625896e+000 -1.200571e+001 -1.487822e+001 -1.291028e+001 -9.929582e+000 -4.359889e+000 -3.283916e+000 5.131902e-001
<VARIANCE> 13
 7.492206e+000 1.013168e+001 2.438165e+001 2.295738e+001 1.359562e+001 2.194488e+001 1.521730e+001 1.982178e+001 2.907048e+001 2.139866e+001 1.918168e+001 2.286407e+001 2.114700e-002
<GCONST> 5.461721e+001
<TRANSP> 5
 0.000000e+000 1.000000e+000 0.000000e+000 0.000000e+000 0.000000e+000
 0.000000e+000 9.590400e-001 4.096004e-002 0.000000e+000 0.000000e+000
 0.000000e+000 0.000000e+000 9.536604e-001 4.633961e-002 0.000000e+000
 0.000000e+000 0.000000e+000 0.000000e+000 9.644331e-001 3.556691e-002
 0.000000e+000 0.000000e+000 0.000000e+000 0.000000e+000 0.000000e+000
<ENDHMM>
~h "sil"
<BEGINHMM>
<NUMSTATES> 5
<STATE> 2
<NUMMIXES> 2
<MIXTURE> 1 4.314060e-001
<MEAN> 13
 -1.047773e+001 4.709018e-001 -4.035121e+000 -4.322934e+000 -5.293029e+000 -5.695487e+000 -4.766401e+000 -6.083266e+000 -4.258336e+000 -6.411121e+000 -3.912807e+000 -3.359677e+000 2.322785e-001
<VARIANCE> 13
 4.224506e+001 2.157189e+001 2.146754e+001 2.349094e+001 2.610837e+001 2.852958e+001 2.910669e+001 2.447340e+001 2.272538e+001 2.298243e+001 2.202107e+001 2.239647e+001 3.002701e-002
<GCONST> 5.906565e+001
<MIXTURE> 2 5.685797e-001
<MEAN> 13
 -7.189927e+000 -6.882643e-001 -3.423249e+000 -5.117929e+000 -5.409738e+000 -5.860868e+000 -7.506656e+000 -8.671928e+000 -8.161363e+000 -9.499370e+000 -7.014861e+000 -5.754408e+000 2.639191e-001
<VARIANCE> 13
 7.687390e+000 1.043023e+001 1.468075e+001 1.358132e+001 1.745832e+001 1.783062e+001 1.645666e+001 1.865112e+001 1.935040e+001 1.871707e+001 1.859587e+001 1.721829e+001 2.485174e-002
<GCONST> 5.300553e+001
<STATE> 3
<NUMMIXES> 2
<MIXTURE> 1 4.414882e-001
<MEAN> 13
 -9.015788e+000 1.545692e+000 -1.566425e-001 -6.097249e+000 -9.816967e+000 -1.022445e+001 -3.783141e+000 -6.080925e+000 -1.923946e+000 -7.840598e+000 -6.016346e+000 -4.135244e+000 5.043576e-001
<VARIANCE> 13
 8.096409e+001 4.834927e+001 7.334161e+001 6.901980e+001 8.505495e+001 7.204596e+001 6.623944e+001 4.259283e+001 5.626884e+001 4.826842e+001 5.063767e+001 3.250082e+001 5.817391e-002
<GCONST> 6.982851e+001
<MIXTURE> 2 5.585107e-001
<MEAN> 13
 -3.719769e+000 3.389600e+000 1.042453e+000 -4.915618e+000 -8.413788e+000 -8.850080e+000 -8.837129e+000 -9.932069e+000 -7.983254e+000 -1.134971e+001 -9.371121e+000 -6.492760e+000 4.969716e-001
<VARIANCE> 13
 3.127279e+001 3.725254e+001 4.073379e+001 2.325538e+001 3.707868e+001 3.539106e+001 2.832200e+001 2.703087e+001 2.594009e+001 3.153585e+001 3.514939e+001 2.331143e+001 6.882684e-002
<GCONST> 6.236589e+001
<STATE> 4
<NUMMIXES> 2
<MIXTURE> 1 5.364871e-001
<MEAN> 13
 -4.408799e+000 -5.778752e+000 -4.702760e+000 -1.075988e+001 -9.346522e+000 -1.203424e+001 -5.345366e+000 -4.541556e+000 -4.630944e-001 -8.250437e+000 -9.224661e+000 -2.516274e+000 6.517077e-001
<VARIANCE> 13
 2.239628e+001 4.785841e+001 8.688419e+001 7.057022e+001 1.099352e+002 1.034259e+002 7.573147e+001 5.236908e+001 7.505351e+001 6.960527e+001 6.377268e+001 6.035724e+001 7.032252e-002
<GCONST> 7.137697e+001
<MIXTURE> 2 4.635097e-001
<MEAN> 13
 -6.363273e+000 -2.955938e+000 -5.153666e+000 -6.581258e+000 -4.535540e+000 -5.950179e+000 -7.035254e+000 -7.955525e+000 -6.650369e+000 -1.032349e+001 -7.724077e+000 -4.194300e+000 3.249801e-001
<VARIANCE> 13
 9.212843e+000 2.675673e+001 3.902498e+001 2.342778e+001 4.394131e+001 3.328691e+001 2.790132e+001 2.249200e+001 2.723466e+001 3.148042e+001 3.037133e+001 2.382282e+001 5.149130e-002
<GCONST> 6.031942e+001
<TRANSP> 5
 0.000000e+000 1.000000e+000 0.000000e+000 0.000000e+000 0.000000e+000
 0.000000e+000 9.112267e-001 8.877329e-002 0.000000e+000 0.000000e+000
 0.000000e+000 0.000000e+000 5.710605e-001 4.289395e-001 0.000000e+000
 0.000000e+000 0.000000e+000 0.000000e+000 4.122186e-001 5.877814e-001
 0.000000e+000 0.000000e+000 0.000000e+000 0.000000e+000 0.000000e+000
<ENDHMM>
~h "nav"
<BEGINHMM>
<NUMSTATES> 5
<STATE> 2
<NUMMIXES> 2
<MIXTURE> 1 3.306675e-001
<MEAN> 13
 6.718046e+000 -9.194160e+000 -1.194909e+001 -1.685695e+001 -6.493706e+000 -3.470912e+000 -1.050828e+001 -7.873607e+000 -1.340155e+000 -4.092064e+000 -6.064368e+000 -6.922560e+000 9.399159e-001
<VARIANCE> 13
 5.764431e+000 2.335298e+001 3.146314e+001 6.873610e+001 3.358952e+001 3.048381e+001 3.897346e+001 3.614261e+001 5.025606e+001 4.659018e+001 5.269876e+001 3.017531e+001 1.959297e-003
<GCONST> 5.955066e+001
<MIXTURE> 2 6.693306e-001
<MEAN> 13
 3.198112e+000 -1.001505e+001 -1.019660e+001 -2.347760e+001 3.135652e+000 -4.358030e+000 -1.256279e+001 -2.475604e+000 -1.373878e+001 -1.126984e+001 -1.493425e+001 -8.347394e+000 9.244106e-001
<VARIANCE> 13
 9.186676e+000 2.163772e+001 2.202503e+001 2.861493e+001 4.196429e+001 3.631615e+001 3.762632e+001 4.713604e+001 4.630469e+001 3.568007e+001 2.888763e+001 3.646016e+001 3.192198e-003
<GCONST> 5.906295e+001
<STATE> 3
<NUMMIXES> 2
<MIXTURE> 1 4.067615e-001
<MEAN> 13
 6.853132e+000 1.025644e+000 -1.168414e+001 -1.598054e+001 -7.411777e+000 -2.659409e+000 -5.561736e+000 -9.527534e+000 -5.546632e+000 -5.413107e+000 -5.302731e+000 -6.276022e+000 8.397751e-001
<VARIANCE> 13
 5.596959e+000 1.364977e+001 1.310455e+001 1.636086e+001 2.351971e+001 1.649953e+001 1.686536e+001 1.868423e+001 2.760318e+001 3.109722e+001 2.751581e+001 1.629072e+001 8.321510e-003
<GCONST> 5.338181e+001
<MIXTURE> 2 5.932374e-001
<MEAN> 13
 4.969737e+000 -3.214258e+000 -1.436013e+001 -1.917174e+001 -3.637754e+000 -2.737558e+000 -8.930103e+000 -1.292513e+001 -1.322718e+001 -1.329683e+001 -1.171002e+001 -8.233542e+000 7.811794e-001
<VARIANCE> 13
 5.849019e+000 1.427959e+001 1.153906e+001 1.426538e+001 2.922708e+001 1.406490e+001 1.890044e+001 2.295748e+001 1.751506e+001 2.128771e+001 3.211157e+001 2.880290e+001 1.060180e-002
<GCONST> 5.371684e+001
<STATE> 4
<NUMMIXES> 2
<MIXTURE> 1 3.921476e-001
<MEAN> 13
 -8.232470e-002 1.673426e+000 -6.595633e+000 -1.191589e+001 -6.307581e+000 -3.118901e+000 -4.030519e+000 -6.234044e+000 -6.085697e+000 -6.705458e+000 -4.506779e+000 -5.555723e+000 5.770070e-001
<VARIANCE> 13
 7.200434e+000 1.461013e+001 2.062186e+001 1.555097e+001 3.234322e+001 2.965724e+001 2.423743e+001 1.994739e+001 2.302162e+001 2.363067e+001 2.190156e+001 1.447793e+001 1.124520e-002
<GCONST> 5.493619e+001
<MIXTURE> 2 6.078500e-001
<MEAN> 13
 -1.024874e+000 -2.003553e-001 -7.939855e+000 -1.172601e+001 -5.966084e+000 -3.774625e+000 -6.840689e+000 -1.231299e+001 -1.395169e+001 -1.497042e+001 -1.029335e+001 -8.814823e+000 5.439973e-001
<VARIANCE> 13
 8.543150e+000 1.351885e+001 2.695343e+001 2.177453e+001 2.549223e+001 2.531129e+001 1.963844e+001 1.716060e+001 1.886133e+001 1.901241e+001 2.445371e+001 2.044815e+001 2.042038e-002
<GCONST> 5.551186e+001
<TRANSP> 5
 0.000000e+000 1.000000e+000 0.000000e+000 0.000000e+000 0.000000e+000
 0.000000e+000 9.555148e-001 4.448524e-002 0.000000e+000 0.000000e+000
 0.000000e+000 0.000000e+000 9.451786e-001 5.482139e-002 0.000000e+000
 0.000000e+000 0.000000e+000 0.000000e+000 9.580731e-001 4.192691e-002
 0.000000e+000 0.000000e+000 0.000000e+000 0.000000e+000 0.000000e+000
<ENDHMM>
~h "char"
<BEGINHMM>
<NUMSTATES> 5
<STATE> 2
<NUMMIXES> 2
<MIXTURE> 1 4.987205e-001
<MEAN> 13
 -4.362876e-001 -2.066896e+001 -8.535720e+000 -1.496780e+001 -3.729932e+000 -7.299734e+000 -3.684607e+000 -1.884426e+000 1.018055e+000 -9.613519e+000 -1.038845e+001 -4.472183e+000 9.284779e-001
<VARIANCE> 13
 2.022519e+001 3.104352e+001 2.071001e+001 2.097106e+001 9.606425e+001 3.250500e+001 6.996900e+001 4.009740e+001 9.580888e+001 3.037849e+001 3.063525e+001 9.992123e+001 3.733970e-003
<GCONST> 6.280659e+001
<MIXTURE> 2 5.012778e-001
<MEAN> 13
 -1.473954e+000 -1.894623e+001 -8.490095e+000 -1.590739e+001 9.182222e-001 -1.067290e+001 -7.428076e-001 -6.834984e+000 -6.348318e+000 -1.455257e+001 -1.472414e+001 1.078238e+000 9.156442e-001
<VARIANCE> 13
 1.402220e+001 3.492755e+001 1.398466e+001 2.311004e+001 3.965110e+001 2.706549e+001 3.364243e+001 3.744197e+001 3.706396e+001 3.418137e+001 3.522694e+001 3.051532e+001 5.245302e-003
<GCONST> 5.885545e+001
<STATE> 3
<NUMMIXES> 2
<MIXTURE> 1 4.834822e-001
<MEAN> 13
 2.381516e+000 -1.300849e+001 -1.229192e+001 -1.044431e+001 -4.656566e+000 -5.761271e+000 -6.869667e+000 -3.321457e+000 1.062534e+000 -8.309381e+000 -1.184406e+001 -6.704757e+000 7.229222e-001
<VARIANCE> 13
 6.434651e+000 3.330898e+001 1.158622e+001 1.250355e+001 2.805574e+001 2.508174e+001 2.976347e+001 2.733232e+001 6.432507e+001 4.616224e+001 2.338435e+001 4.363693e+001 1.029595e-002
<GCONST> 5.784152e+001
<MIXTURE> 2 5.165174e-001
<MEAN> 13
 1.601557e+000 -1.478564e+001 -1.235096e+001 -1.020883e+001 -2.419907e+000 -7.431491e+000 -7.239380e+000 -4.846087e+000 -8.223475e+000 -1.498705e+001 -1.208682e+001 -2.989047e+000 7.486480e-001
<VARIANCE> 13
 5.557395e+000 3.802438e+001 1.276077e+001 1.790798e+001 2.115638e+001 2.306045e+001 2.058583e+001 3.664707e+001 4.300316e+001 4.232205e+001 2.383518e+001 2.962221e+001 1.050246e-002
<GCONST> 5.700350e+001
<STATE> 4
<NUMMIXES> 2
<MIXTURE> 1 4.310936e-001
<MEAN> 13
 -1.808816e+000 -8.137377e+000 -1.365545e+001 -9.712966e+000 -1.520692e+000 -2.259249e+000 -3.490652e+000 -3.696072e+000 -2.769692e+000 -1.067215e+001 -1.036413e+001 -5.450690e+000 4.618572e-001
<VARIANCE> 13
 6.511990e+000 2.973500e+001 1.669194e+001 1.153914e+001 1.720915e+001 1.994484e+001 2.002811e+001 2.562503e+001 4.953473e+001 2.736178e+001 2.330422e+001 2.970838e+001 1.097845e-002
<GCONST> 5.573822e+001
<MIXTURE> 2 5.689051e-001
<MEAN> 13
 -2.380068e+000 -1.065881e+001 -1.296466e+001 -7.669044e+000 -5.718732e-001 -3.375672e+000 -5.659642e+000 -7.679011e+000 -9.227767e+000 -1.490341e+001 -9.281561e+000 -2.377191e+000 4.586793e-001
<VARIANCE> 13
 4.859480e+000 4.169750e+001 1.963461e+001 1.375233e+001 1.926597e+001 1.783876e+001 1.745873e+001 2.287752e+001 2.537459e+001 2.587574e+001 2.414653e+001 1.900658e+001 1.519043e-002
<GCONST> 5.506087e+001
<TRANSP> 5
 0.000000e+000 1.000000e+000 0.000000e+000 0.000000e+000 0.000000e+000
 0.000000e+000 9.633290e-001 3.667102e-002 0.000000e+000 0.000000e+000
 0.000000e+000 0.000000e+000 9.431592e-001 5.684077e-002 0.000000e+000
 0.000000e+000 0.000000e+000 0.000000e+000 9.610423e-001 3.895766e-002
 0.000000e+000 0.000000e+000 0.000000e+000 0.000000e+000 0.000000e+000
<ENDHMM>
~h "pach"
<BEGINHMM>
<NUMSTATES> 5
<STATE> 2
<NUMMIXES> 2
<MIXTURE> 1 5.052077e-001
<MEAN> 13
 3.394106e+000 -1.756620e+001 -1.173899e+001 -1.523531e+001 -3.760948e-001 -2.082771e+000 -9.525522e+000 -6.256593e+000 -5.998505e-001 -9.241132e+000 -9.588309e+000 -7.275860e+000 9.130544e-001
<VARIANCE> 13
 1.533682e+001 2.840648e+001 2.918587e+001 4.034845e+001 6.664383e+001 4.521375e+001 6.853522e+001 5.684958e+001 4.651506e+001 4.473156e+001 6.320044e+001 5.174874e+001 4.015002e-003
<GCONST> 6.353448e+001
<MIXTURE> 2 4.947916e-001
<MEAN> 13
 4.671782e-001 -2.033118e+001 -9.161469e+000 -1.624734e+001 6.518900e+000 -9.335779e+000 -8.138987e+000 -5.164658e+000 -8.925625e+000 -1.182428e+001 -1.455241e+001 -3.534576e+000 8.807225e-001
<VARIANCE> 13
 1.466114e+001 2.802184e+001 2.429628e+001 4.054921e+001 6.250917e+001 3.864631e+001 3.739593e+001 4.706148e+001 4.951000e+001 5.091450e+001 2.445058e+001 3.776301e+001 7.141359e-003
<GCONST> 6.178466e+001
<STATE> 3
<NUMMIXES> 2
<MIXTURE> 1 3.590140e-001
<MEAN> 13
 9.663187e-001 -8.453871e+000 -1.667673e+001 -1.015052e+001 1.116219e+000 -6.876745e-001 -8.468732e+000 -9.659871e+000 -2.682323e+000 -8.932360e+000 -9.872556e+000 -8.062010e+000 6.751504e-001
<VARIANCE> 13
 2.048544e+001 1.791545e+001 1.673604e+001 1.595434e+001 1.838453e+001 5.575346e+001 2.858641e+001 2.942884e+001 3.051604e+001 3.597995e+001 2.290539e+001 2.786786e+001 6.186895e-003
<GCONST> 5.742717e+001
<MIXTURE> 2 6.409863e-001
<MEAN> 13
 -1.254462e+000 -1.211452e+001 -1.676673e+001 -6.971775e+000 1.737037e+000 -7.495759e+000 -9.727795e+000 -6.411284e+000 -8.765189e+000 -1.456450e+001 -1.100128e+001 -4.851456e+000 6.617798e-001
<VARIANCE> 13
 2.169805e+001 2.107009e+001 1.244383e+001 1.904758e+001 1.721168e+001 3.520223e+001 2.062784e+001 2.969735e+001 3.456156e+001 3.769456e+001 1.793833e+001 2.262663e+001 1.700504e-002
<GCONST> 5.741412e+001
<STATE> 4
<NUMMIXES> 2
<MIXTURE> 1 3.908549e-001
<MEAN> 13
 -8.521214e+000 5.791389e-001 -1.745754e+001 -5.639172e+000 2.141366e-001 -4.029741e+000 -2.224437e+000 -1.123737e+001 -2.862142e+000 -1.019225e+001 -5.995347e+000 -8.529949e+000 4.822121e-001
<VARIANCE> 13
 1.222121e+001 4.112128e+001 3.783604e+001 1.745586e+001 2.440660e+001 3.439465e+001 4.536867e+001 4.000663e+001 3.803527e+001 3.468818e+001 2.514272e+001 2.998816e+001 1.602406e-002
<GCONST> 6.051828e+001
<MIXTURE> 2 6.091436e-001
<MEAN> 13
 -4.715340e+000 -5.966705e+000 -1.520389e+001 -4.552846e+000 1.760077e-002 -4.810914e+000 -8.853002e+000 -9.562626e+000 -8.005242e+000 -1.439307e+001 -1.011269e+001 -7.467299e+000 4.539898e-001
<VARIANCE> 13
 7.586964e+000 2.086300e+001 3.121524e+001 1.787493e+001 2.227248e+001 1.966720e+001 2.165543e+001 2.443227e+001 2.425610e+001 3.584160e+001 2.245420e+001 2.395419e+001 2.670775e-002
<GCONST> 5.706718e+001
<TRANSP> 5
 0.000000e+000 1.000000e+000 0.000000e+000 0.000000e+000 0.000000e+000
 0.000000e+000 9.662110e-001 3.378906e-002 0.000000e+000 0.000000e+000
 0.000000e+000 0.000000e+000 9.311427e-001 6.885736e-002 0.000000e+000
 0.000000e+000 0.000000e+000 0.000000e+000 9.620218e-001 3.797825e-002
 0.000000e+000 0.000000e+000 0.000000e+000 0.000000e+000 0.000000e+000
<ENDHMM>
~h "eka"
<BEGINHMM>
<NUMSTATES> 5
<STATE> 2
<NUMMIXES> 2
<MIXTURE> 1 5.037538e-001
<MEAN> 13
 -3.414958e+000 -4.590088e+000 1.879071e+001 -2.021170e+001 -2.694197e+001 -1.052997e+001 -1.037492e+001 -5.348686e+000 -3.937132e+000 9.929721e-002 -1.702364e+000 -1.905361e+000 8.849190e-001
<VARIANCE> 13
 1.063755e+001 3.338124e+001 5.115020e+001 1.273133e+002 5.344607e+001 3.515351e+001 5.880711e+001 6.191795e+001 4.775968e+001 6.255249e+001 1.018782e+002 4.193907e+001 8.974341e-003
<GCONST> 6.593347e+001
<MIXTURE> 2 4.962442e-001
<MEAN> 13
 -4.922692e+000 -8.848217e-001 1.335051e+001 -3.088267e+001 -1.936153e+001 -1.085363e+001 -1.022454e+001 -1.177917e+001 -1.254176e+000 2.837903e+000 -1.156837e+001 7.633755e-001 8.616880e-001
<VARIANCE> 13
 7.988709e+000 2.804365e+001 1.634983e+001 5.846392e+001 2.820552e+001 3.098086e+001 4.989056e+001 4.580927e+001 2.937989e+001 4.942597e+001 4.725142e+001 3.414380e+001 1.058033e-002
<GCONST> 6.079212e+001
<STATE> 3
<NUMMIXES> 2
<MIXTURE> 1 5.341054e-001
<MEAN> 13
 -2.566008e+000 -1.853553e+000 8.453472e+000 -1.360947e+001 -2.199697e+001 -1.473251e+001 -8.911613e+000 -7.477889e+000 -1.366044e+000 -4.585362e+000 -2.197234e+000 -1.185488e+000 6.777966e-001
<VARIANCE> 13
 4.872539e+000 2.736991e+001 4.015286e+001 7.106161e+001 4.087404e+001 4.636199e+001 3.113942e+001 3.387371e+001 5.514517e+001 3.349282e+001 5.911438e+001 3.219496e+001 6.487641e-003
<GCONST> 6.128452e+001
<MIXTURE> 2 4.658942e-001
<MEAN> 13
 -2.846710e+000 -1.845638e+000 5.298625e+000 -1.101438e+001 -1.764545e+001 -1.883123e+001 -8.250138e+000 -8.986412e+000 -2.463768e+000 -6.890691e+000 -6.504841e+000 -1.856742e+000 7.075853e-001
<VARIANCE> 13
 6.253068e+000 4.453943e+001 2.298127e+001 7.393443e+001 4.468262e+001 9.921336e+001 6.022493e+001 3.312032e+001 5.236200e+001 3.722431e+001 4.165874e+001 2.586006e+001 6.596260e-003
<GCONST> 6.249090e+001
<STATE> 4
<NUMMIXES> 2
<MIXTURE> 1 5.197838e-001
<MEAN> 13
 -3.929026e+000 -4.582296e-001 -2.076431e-001 -7.919436e+000 -1.437044e+001 -1.713797e+001 -1.049580e+001 -5.090168e+000 -7.311980e-001 -4.563609e+000 -2.052668e+000 -1.168598e+000 4.851012e-001
<VARIANCE> 13
 4.526049e+000 1.457276e+001 1.368040e+001 4.879959e+001 2.319666e+001 2.891566e+001 2.110874e+001 1.999025e+001 2.611041e+001 2.631165e+001 2.415980e+001 1.960391e+001 1.330599e-002
<GCONST> 5.551164e+001
<MIXTURE> 2 4.802157e-001
<MEAN> 13
 -3.576462e+000 9.017866e-001 5.159116e-001 -7.157693e+000 -1.378250e+001 -1.688692e+001 -1.124848e+001 -6.941725e+000 -3.789619e+000 -7.211218e+000 -4.540791e+000 -3.669263e+000 5.094234e-001
<VARIANCE> 13
 4.572545e+000 1.240134e+001 1.146556e+001 3.204512e+001 1.918968e+001 2.425113e+001 1.778885e+001 1.979261e+001 2.244316e+001 2.652339e+001 2.105092e+001 1.690440e+001 1.390244e-002
<GCONST> 5.383133e+001
<TRANSP> 5
 0.000000e+000 1.000000e+000 0.000000e+000 0.000000e+000 0.000000e+000
 0.000000e+000 9.630793e-001 3.692069e-002 0.000000e+000 0.000000e+000
 0.000000e+000 0.000000e+000 9.418021e-001 5.819783e-002 0.000000e+000
 0.000000e+000 0.000000e+000 0.000000e+000 9.634332e-001 3.656679e-002
 0.000000e+000 0.000000e+000 0.000000e+000 0.000000e+000 0.000000e+000
<ENDHMM>
~h "dha"
<BEGINHMM>
<NUMSTATES> 5
<STATE> 2
<NUMMIXES> 2
<MIXTURE> 1 5.334204e-001
<MEAN> 13
 1.563557e+000 -1.935360e+001 -8.156936e+000 -1.259461e+001 -1.168075e+000 -7.987891e-001 -5.511401e+000 -4.945327e+000 9.458957e-001 -7.900492e+000 -9.392302e+000 -5.596739e+000 8.679851e-001
<VARIANCE> 13
 1.122736e+001 4.570017e+001 4.172560e+001 3.367945e+001 1.164560e+002 5.691258e+001 6.178858e+001 4.739918e+001 1.213969e+002 4.186845e+001 3.729033e+001 1.030449e+002 1.252603e-002
<GCONST> 6.656976e+001
<MIXTURE> 2 4.665794e-001
<MEAN> 13
 9.433623e-001 -1.559246e+001 -1.099223e+001 -1.097204e+001 3.675267e+000 -6.639657e+000 -5.607956e+000 -9.371129e+000 -6.719137e+000 -1.548383e+001 -1.528920e+001 -3.002854e-001 9.072853e-001
<VARIANCE> 13
 1.508491e+001 4.710961e+001 2.824747e+001 4.726738e+001 6.925636e+001 4.084714e+001 4.874492e+001 5.123875e+001 4.749304e+001 6.528955e+001 3.561613e+001 3.471619e+001 6.392617e-003
<GCONST> 6.353296e+001
<STATE> 3
<NUMMIXES> 2
<MIXTURE> 1 5.070232e-001
<MEAN> 13
 2.569308e+000 -1.211253e+001 -1.649946e+001 -9.353302e+000 1.354490e+000 1.944220e-001 -5.333581e+000 -5.534012e+000 2.876393e-001 -7.173549e+000 -9.993011e+000 -7.319842e+000 6.597381e-001
<VARIANCE> 13
 5.555807e+000 4.462753e+001 1.415995e+001 1.351538e+001 4.322993e+001 3.962146e+001 2.646528e+001 2.984395e+001 3.610076e+001 3.559626e+001 2.666753e+001 3.581775e+001 8.529874e-003
<GCONST> 5.803382e+001
<MIXTURE> 2 4.929749e-001
<MEAN> 13
 1.226432e+000 -1.353079e+001 -1.665900e+001 -6.507906e+000 6.228658e+000 -1.428862e+000 -9.798215e+000 -9.638062e+000 -6.542236e+000 -1.304885e+001 -1.277945e+001 -4.930787e+000 6.526968e-001
<VARIANCE> 13
 5.582971e+000 4.270344e+001 1.390385e+001 2.022191e+001 3.585141e+001 1.930471e+001 2.169863e+001 3.045118e+001 2.492559e+001 3.257815e+001 1.810963e+001 2.123854e+001 1.249070e-002
<GCONST> 5.630747e+001
<STATE> 4
<NUMMIXES> 2
<MIXTURE> 1 4.671840e-001
<MEAN> 13
 -2.418663e+000 -6.263979e+000 -1.195209e+001 -8.725070e+000 3.002464e-001 3.731855e-001 -4.878363e+000 -6.761032e+000 -3.072150e+000 -6.553833e+000 -7.704450e+000 -7.974952e+000 4.024886e-001
<VARIANCE> 13
 5.286768e+000 1.669629e+001 1.284843e+001 8.550383e+000 2.520472e+001 2.893202e+001 3.164747e+001 2.697204e+001 2.722927e+001 2.744426e+001 2.253184e+001 3.058477e+001 1.565691e-002
<GCONST> 5.540847e+001
<MIXTURE> 2 5.328141e-001
<MEAN> 13
 -3.032757e+000 -9.422626e+000 -1.420315e+001 -6.297965e+000 4.847979e+000 -4.369858e-001 -1.010159e+001 -1.197205e+001 -7.409208e+000 -1.027160e+001 -8.949180e+000 -6.089366e+000 3.816985e-001
<VARIANCE> 13
 4.431621e+000 2.291521e+001 1.892398e+001 1.557087e+001 3.130332e+001 1.648460e+001 2.390966e+001 2.405314e+001 2.158481e+001 2.406543e+001 2.234208e+001 2.022023e+001 2.616381e-002
<GCONST> 5.552204e+001
<TRANSP> 5
 0.000000e+000 1.000000e+000 0.000000e+000 0.000000e+000 0.000000e+000
 0.000000e+000 9.566161e-001 4.338388e-002 0.000000e+000 0.000000e+000
 0.000000e+000 0.000000e+000 9.463553e-001 5.364468e-002 0.000000e+000
 0.000000e+000 0.000000e+000 0.000000e+000 9.511695e-001 4.883052e-002
 0.000000e+000 0.000000e+000 0.000000e+000 0.000000e+000 0.000000e+000
<ENDHMM>
~h "sa"
<BEGINHMM>
<NUMSTATES> 5
<STATE> 2
<NUMMIXES> 2
<MIXTURE> 1 4.820683e-001
<MEAN> 13
 5.588074e-001 -5.666508e+000 -1.130359e+001 -2.030391e+001 -4.683189e+000 -1.468630e+001 -1.059049e+001 -5.854874e+000 2.262139e+000 1.920562e+000 -1.126719e+001 -7.021861e-001 9.498498e-001
<VARIANCE> 13
 1.447220e+001 2.537627e+001 2.647999e+001 6.773258e+001 2.861607e+001 3.719422e+001 2.769591e+001 5.591315e+001 4.251448e+001 3.838878e+001 6.117908e+001 4.575677e+001 1.482525e-003
<GCONST> 6.042635e+001
<MIXTURE> 2 5.179318e-001
<MEAN> 13
 6.549931e-001 -9.561516e+000 -1.359911e+001 -2.764516e+001 4.346533e+000 -1.049575e+001 -1.258502e+001 -4.712869e+000 -1.956014e+000 -2.351568e+000 -1.532933e+001 -1.360364e+000 8.997812e-001
<VARIANCE> 13
 9.675522e+000 1.760585e+001 1.762837e+001 2.497490e+001 4.806851e+001 2.101246e+001 4.660911e+001 4.568475e+001 2.961868e+001 3.893163e+001 2.368832e+001 3.382884e+001 6.008895e-003
<GCONST> 5.832091e+001
<STATE> 3
<NUMMIXES> 2
<MIXTURE> 1 5.244853e-001
<MEAN> 13
 5.718141e+000 1.700778e+000 -1.164761e+001 -1.821634e+001 -9.151022e+000 -9.069282e+000 -1.140852e+001 -1.278039e+001 -2.526344e+000 -1.141419e+000 -1.871943e+000 -3.881612e+000 8.450683e-001
<VARIANCE> 13
 4.420820e+000 1.227846e+001 2.470989e+001 4.176052e+001 1.942089e+001 1.545271e+001 1.927197e+001 2.020966e+001 3.893504e+001 2.423924e+001 2.986289e+001 1.997205e+001 9.437669e-003
<GCONST> 5.507244e+001
<MIXTURE> 2 4.755156e-001
<MEAN> 13
 3.619626e+000 -4.916423e+000 -1.768112e+001 -2.075318e+001 -1.336415e+000 -5.784333e+000 -1.272946e+001 -1.060414e+001 -3.888012e+000 -3.262860e+000 -9.729971e+000 -8.779664e+000 7.131888e-001
<VARIANCE> 13
 4.593421e+000 1.333552e+001 1.388876e+001 2.030862e+001 2.995015e+001 1.768199e+001 2.619002e+001 2.564538e+001 2.395871e+001 2.797118e+001 2.166444e+001 1.917919e+001 1.564887e-002
<GCONST> 5.481105e+001
<STATE> 4
<NUMMIXES> 2
<MIXTURE> 1 6.257831e-001
<MEAN> 13
 -1.133239e+000 2.241594e+000 -6.720950e+000 -1.269462e+001 -1.194468e+001 -1.058968e+001 -8.912997e+000 -7.368133e+000 -3.345711e+000 -3.000488e+000 -1.303872e+000 -3.703056e+000 5.007375e-001
<VARIANCE> 13
 8.987132e+000 9.592186e+000 1.613363e+001 2.005727e+001 1.403782e+001 1.333653e+001 1.441396e+001 1.769595e+001 2.496548e+001 1.941467e+001 1.583639e+001 2.366901e+001 1.963446e-002
<GCONST> 5.308197e+001
<MIXTURE> 2 3.742157e-001
<MEAN> 13
 -1.200336e+000 -3.083827e+000 -1.202986e+001 -1.509497e+001 -7.161166e+000 -6.570110e+000 -9.927601e+000 -1.054365e+001 -5.223658e+000 -6.199523e+000 -7.089665e+000 -8.482308e+000 4.874218e-001
<VARIANCE> 13
 6.626571e+000 1.553994e+001 2.089219e+001 2.623989e+001 3.390709e+001 1.664831e+001 2.357568e+001 1.620570e+001 2.261488e+001 2.793329e+001 2.203759e+001 1.514717e+001 1.852749e-002
<GCONST> 5.538556e+001
<TRANSP> 5
 0.000000e+000 1.000000e+000 0.000000e+000 0.000000e+000 0.000000e+000
 0.000000e+000 9.491326e-001 5.086738e-002 0.000000e+000 0.000000e+000
 0.000000e+000 0.000000e+000 9.521980e-001 4.780196e-002 0.000000e+000
 0.000000e+000 0.000000e+000 0.000000e+000 9.618341e-001 3.816595e-002
 0.000000e+000 0.000000e+000 0.000000e+000 0.000000e+000 0.000000e+000
<ENDHMM>
~h "ath"
<BEGINHMM>
<NUMSTATES> 5
<STATE> 2
<NUMMIXES> 2
<MIXTURE> 1 5.373098e-001
<MEAN> 13
 7.079501e-001 -2.108513e+001 -1.102115e+001 -1.523177e+001 3.178462e+000 -1.296090e+000 -9.466146e+000 -5.485409e+000 -8.975813e-001 -8.233508e+000 -9.473393e+000 -3.959259e+000 9.016601e-001
<VARIANCE> 13
 2.320156e+001 4.638192e+001 2.902662e+001 3.322348e+001 1.250534e+002 4.382571e+001 6.392701e+001 3.814648e+001 7.746934e+001 5.043353e+001 3.741971e+001 6.342295e+001 7.841779e-003
<GCONST> 6.534741e+001
<MIXTURE> 2 4.626901e-001
<MEAN> 13
 9.316595e-001 -2.205831e+001 -9.045047e+000 -1.340942e+001 5.023457e+000 -3.753596e+000 -9.541471e+000 -7.386718e+000 -9.001281e+000 -1.114106e+001 -1.513561e+001 -2.418276e+000 9.053603e-001
<VARIANCE> 13
 1.974723e+001 2.847793e+001 2.316920e+001 3.632353e+001 8.548937e+001 2.946653e+001 3.128968e+001 3.617535e+001 3.852088e+001 2.861907e+001 3.173563e+001 3.450591e+001 7.204181e-003
<GCONST> 6.089390e+001
<STATE> 3
<NUMMIXES> 2
<MIXTURE> 1 4.357136e-001
<MEAN> 13
 1.033579e+000 -1.338633e+001 -1.371147e+001 -1.060558e+001 -1.766536e+000 2.123104e-001 -5.349085e+000 -5.523278e+000 -6.801729e-001 -7.883124e+000 -9.684210e+000 -7.029800e+000 6.689652e-001
<VARIANCE> 13
 1.188692e+001 3.795291e+001 4.333445e+001 2.935240e+001 3.217625e+001 3.541498e+001 2.371773e+001 2.883311e+001 4.452831e+001 3.095718e+001 2.187584e+001 2.965729e+001 6.619939e-003
<GCONST> 5.940477e+001
<MIXTURE> 2 5.642856e-001
<MEAN> 13
 2.765519e+000 -1.425893e+001 -1.379133e+001 -4.642263e+000 -1.298871e+000 -6.678114e+000 -8.828282e+000 -9.127769e+000 -8.935571e+000 -1.418814e+001 -1.111170e+001 -6.388239e+000 7.326794e-001
<VARIANCE> 13
 8.288250e+000 2.337618e+001 1.571831e+001 1.913151e+001 2.508325e+001 2.502809e+001 1.958970e+001 3.341159e+001 2.447666e+001 2.763491e+001 1.911786e+001 1.601092e+001 7.191676e-003
<GCONST> 5.509709e+001
<STATE> 4
<NUMMIXES> 2
<MIXTURE> 1 4.356143e-001
<MEAN> 13
 -2.408330e+000 -1.228520e+001 -1.360111e+001 -8.271649e+000 4.290743e-001 -1.338381e+000 -5.161505e+000 -6.002027e+000 -4.950109e+000 -8.400674e+000 -7.027778e+000 -4.202590e+000 4.410300e-001
<VARIANCE> 13
 4.370321e+000 5.921991e+001 2.297540e+001 1.327135e+001 1.755099e+001 2.523232e+001 2.010393e+001 2.153172e+001 2.472970e+001 2.113395e+001 2.265723e+001 2.239715e+001 1.715309e-002
<GCONST> 5.575493e+001
<MIXTURE> 2 5.643848e-001
<MEAN> 13
 -3.049266e+000 -1.126801e+001 -1.230539e+001 -5.853291e+000 1.420256e+000 -3.259377e+000 -9.197973e+000 -1.040667e+001 -8.712621e+000 -1.159974e+001 -8.397585e+000 -4.856682e+000 4.158201e-001
<VARIANCE> 13
 5.886087e+000 4.447228e+001 1.915299e+001 1.264108e+001 1.983396e+001 1.645328e+001 1.824717e+001 2.173044e+001 2.247850e+001 1.663989e+001 2.196473e+001 1.642209e+001 2.138562e-002
<GCONST> 5.468731e+001
<TRANSP> 5
 0.000000e+000 1.000000e+000 0.000000e+000 0.000000e+000 0.000000e+000
 0.000000e+000 9.654710e-001 3.452897e-002 0.000000e+000 0.000000e+000
 0.000000e+000 0.000000e+000 9.447826e-001 5.521746e-002 0.000000e+000
 0.000000e+000 0.000000e+000 0.000000e+000 9.586766e-001 4.132334e-002
 0.000000e+000 0.000000e+000 0.000000e+000 0.000000e+000 0.000000e+000
<ENDHMM>
~h "tin"
<BEGINHMM>
<NUMSTATES> 5
<STATE> 2
<NUMMIXES> 2
<MIXTURE> 1 2.954804e-001
<MEAN> 13
 -2.216683e+000 -3.000483e-001 2.103646e+001 -1.207005e+001 -2.725667e+001 -9.648151e+000 -1.141684e+001 -6.758842e+000 -5.790210e+000 -9.797140e+000 -1.615693e+000 -4.703885e+000 9.179127e-001
<VARIANCE> 13
 1.031978e+001 1.385641e+001 2.754352e+001 9.033832e+001 4.395026e+001 3.555563e+001 5.111398e+001 4.456432e+001 2.419880e+001 4.699215e+001 1.896272e+002 3.184504e+001 3.569468e-003
<GCONST> 6.186658e+001
<MIXTURE> 2 7.045187e-001
<MEAN> 13
 -6.435589e+000 3.100123e+000 1.414208e+001 -2.873379e+001 -1.924449e+001 -6.205731e+000 -1.617169e+001 -9.766541e+000 -8.790805e+000 -5.182474e+000 -1.727746e+001 -2.633903e+000 8.859584e-001
<VARIANCE> 13
 1.912618e+001 1.701668e+001 1.947387e+001 4.907296e+001 3.768202e+001 2.769693e+001 5.654137e+001 4.652053e+001 3.993152e+001 4.570615e+001 2.954083e+001 1.791677e+001 5.483803e-003
<GCONST> 5.994036e+001
<STATE> 3
<NUMMIXES> 2
<MIXTURE> 1 3.783920e-001
<MEAN> 13
 5.478819e-001 5.202753e+000 9.811802e+000 -4.042402e+000 -1.460069e+001 -1.305843e+001 -1.430929e+001 -1.016998e+001 -3.787887e+000 -7.896649e+000 -6.053777e+000 -4.242164e+000 7.952692e-001
<VARIANCE> 13
 2.650841e+000 1.459206e+001 2.207655e+001 5.152831e+001 2.411173e+001 3.549609e+001 2.518199e+001 3.911946e+001 2.772733e+001 1.891832e+001 2.078078e+001 1.952547e+001 7.681007e-003
<GCONST> 5.562857e+001
<MIXTURE> 2 6.216081e-001
<MEAN> 13
 -8.401265e-001 3.691002e+000 6.986211e+000 -1.630054e+001 -1.655371e+001 -9.465966e+000 -1.771157e+001 -1.378640e+001 -5.648488e+000 -1.204651e+001 -1.290460e+001 -4.766140e+000 7.691334e-001
<VARIANCE> 13
 4.815892e+000 1.760119e+001 1.089433e+001 4.418255e+001 2.223105e+001 2.420187e+001 3.852091e+001 1.915412e+001 2.665025e+001 2.010783e+001 2.064459e+001 1.645461e+001 1.865300e-002
<GCONST> 5.553072e+001
<STATE> 4
<NUMMIXES> 2
<MIXTURE> 1 4.619737e-001
<MEAN> 13
 -4.953285e+000 3.399291e+000 2.913115e+000 -3.318035e+000 -8.725349e+000 -1.011197e+001 -1.081509e+001 -9.936503e+000 -7.071806e+000 -7.540875e+000 -4.586252e+000 -3.737789e+000 4.584358e-001
<VARIANCE> 13
 3.818569e+000 8.245566e+000 1.189901e+001 2.064619e+001 2.201073e+001 1.547022e+001 1.672384e+001 1.785682e+001 1.750491e+001 1.503619e+001 1.688439e+001 1.207294e+001 1.130003e-002
<GCONST> 5.078296e+001
<MIXTURE> 2 5.380261e-001
<MEAN> 13
 -4.507872e+000 3.684213e+000 2.946629e+000 -6.267890e+000 -1.075541e+001 -1.167011e+001 -1.370357e+001 -1.357888e+001 -1.055796e+001 -1.239968e+001 -9.933972e+000 -6.521747e+000 5.403522e-001
<VARIANCE> 13
 4.825010e+000 8.802582e+000 1.000589e+001 2.305220e+001 1.983479e+001 1.556010e+001 1.676642e+001 1.628594e+001 1.983439e+001 1.803521e+001 1.616245e+001 1.311013e+001 1.701992e-002
<GCONST> 5.158647e+001
<TRANSP> 5
 0.000000e+000 1.000000e+000 0.000000e+000 0.000000e+000 0.000000e+000
 0.000000e+000 9.669394e-001 3.306064e-002 0.000000e+000 0.000000e+000
 0.000000e+000 0.000000e+000 9.471365e-001 5.286358e-002 0.000000e+000
 0.000000e+000 0.000000e+000 0.000000e+000 9.648832e-001 3.511682e-002
 0.000000e+000 0.000000e+000 0.000000e+000 0.000000e+000 0.000000e+000
<ENDHMM>
~h "sat"
<BEGINHMM>
<NUMSTATES> 5
<STATE> 2
<NUMMIXES> 2
<MIXTURE> 1 4.525547e-001
<MEAN> 13
 6.933818e-001 -1.755322e+001 -1.250999e+001 -1.385835e+001 -2.525672e+000 -6.374691e+000 -6.328323e+000 -2.765839e+000 3.340157e+000 -9.090154e+000 -1.157644e+001 -3.482551e+000 9.331693e-001
<VARIANCE> 13
 1.794361e+001 4.470733e+001 2.807222e+001 2.756296e+001 8.752410e+001 4.026343e+001 8.000639e+001 5.682115e+001 1.103774e+002 4.640998e+001 3.031181e+001 9.479783e+001 3.213082e-003
<GCONST> 6.458458e+001
<MIXTURE> 2 5.474455e-001
<MEAN> 13
 -1.320270e+000 -2.084942e+001 -1.021059e+001 -1.435158e+001 3.181108e+000 -9.692740e+000 -3.765408e+000 -6.818659e+000 -6.198283e+000 -1.367447e+001 -1.501684e+001 3.509091e+000 9.220909e-001
<VARIANCE> 13
 1.056569e+001 3.467121e+001 1.907281e+001 2.896242e+001 5.474200e+001 1.695992e+001 3.849163e+001 3.670109e+001 3.101859e+001 2.801616e+001 3.670147e+001 2.247031e+001 4.789973e-003
<GCONST> 5.833807e+001
<STATE> 3
<NUMMIXES> 2
<MIXTURE> 1 4.579706e-001
<MEAN> 13
 2.504555e+000 -1.003486e+001 -1.841295e+001 -1.164182e+001 -1.770380e+000 -3.255904e+000 -5.827196e+000 -4.326181e+000 2.908885e+000 -6.365214e+000 -1.137547e+001 -7.425915e+000 6.852137e-001
<VARIANCE> 13
 5.637977e+000 2.771332e+001 9.745326e+000 1.154210e+001 1.930678e+001 3.466551e+001 3.034488e+001 3.048484e+001 4.137486e+001 3.348564e+001 1.850264e+001 3.021992e+001 7.037701e-003
<GCONST> 5.560642e+001
<MIXTURE> 2 5.420287e-001
<MEAN> 13
 1.803704e+000 -1.478612e+001 -1.599300e+001 -7.401235e+000 6.422824e-002 -7.371235e+000 -8.041008e+000 -5.911729e+000 -6.463237e+000 -1.515406e+001 -1.140331e+001 -1.830776e+000 7.085129e-001
<VARIANCE> 13
 5.164126e+000 3.881845e+001 1.130276e+001 1.292599e+001 2.198840e+001 1.492828e+001 1.743835e+001 2.011866e+001 2.208983e+001 3.213387e+001 2.395859e+001 1.926204e+001 5.473190e-003
<GCONST> 5.332301e+001
<STATE> 4
<NUMMIXES> 2
<MIXTURE> 1 3.857388e-001
<MEAN> 13
 -2.825027e+000 -7.028167e+000 -1.424408e+001 -1.073502e+001 -1.824422e+000 -8.782436e-001 -2.827030e+000 -4.546196e+000 -2.737133e+000 -8.772744e+000 -9.104295e+000 -6.218464e+000 4.426283e-001
<VARIANCE> 13
 5.553887e+000 2.008918e+001 1.444483e+001 1.426877e+001 1.736508e+001 2.644314e+001 2.534100e+001 2.042739e+001 3.409986e+001 2.787952e+001 2.328135e+001 2.686525e+001 1.005295e-002
<GCONST> 5.501003e+001
<MIXTURE> 2 6.142605e-001
<MEAN> 13
 -2.792938e+000 -1.222484e+001 -1.466323e+001 -5.985370e+000 2.127816e+000 -4.094949e+000 -8.357529e+000 -9.105042e+000 -9.030170e+000 -1.391532e+001 -8.081701e+000 -2.429115e+000 4.454965e-001
<VARIANCE> 13
 4.782243e+000 3.756966e+001 1.087266e+001 1.429314e+001 2.094639e+001 1.907138e+001 1.699058e+001 1.863980e+001 2.292755e+001 2.311669e+001 2.625621e+001 1.661918e+001 2.065880e-002
<GCONST> 5.434939e+001
<TRANSP> 5
 0.000000e+000 1.000000e+000 0.000000e+000 0.000000e+000 0.000000e+000
 0.000000e+000 9.627562e-001 3.724380e-002 0.000000e+000 0.000000e+000
 0.000000e+000 0.000000e+000 9.435626e-001 5.643746e-002 0.000000e+000
 0.000000e+000 0.000000e+000 0.000000e+000 9.604608e-001 3.953921e-002
 0.000000e+000 0.000000e+000 0.000000e+000 0.000000e+000 0.000000e+000
<ENDHMM>
