~o
<STREAMINFO> 1 13
<VECSIZE> 13<NULLD><MFCC_E><DIAGC>
~h "don"
<BEGINHMM>
<NUMSTATES> 5
<STATE> 2
<NUMMIXES> 2
<MIXTURE> 1 5.000000e-001
<MEAN> 13
 -1.496174e+000 -3.332533e+000 -4.031291e+000 -9.094604e+000 -3.501690e+000 -5.481400e+000 -6.967164e+000 -6.688838e+000 -4.148350e+000 -7.038446e+000 -6.600221e+000 -3.048154e+000 6.414821e-001
<VARIANCE> 13
 3.519144e+001 8.173119e+001 8.957476e+001 7.412053e+001 8.370963e+001 4.673276e+001 4.328095e+001 3.765613e+001 5.029964e+001 4.814628e+001 4.911519e+001 3.559385e+001 8.024461e-002
<GCONST> 6.906133e+001
<MIXTURE> 2 5.000000e-001
<MEAN> 13
 -3.869069e+000 -6.948745e+000 -7.817049e+000 -1.253834e+001 -7.161408e+000 -8.215855e+000 -9.598695e+000 -9.143422e+000 -6.985240e+000 -9.813947e+000 -9.403510e+000 -5.434577e+000 5.281722e-001
<VARIANCE> 13
 3.519144e+001 8.173119e+001 8.957476e+001 7.412053e+001 8.370963e+001 4.673276e+001 4.328095e+001 3.765613e+001 5.029964e+001 4.814628e+001 4.911519e+001 3.559385e+001 8.024461e-002
<GCONST> 6.906133e+001
<STATE> 3
<NUMMIXES> 2
<MIXTURE> 1 5.000000e-001
<MEAN> 13
 -1.496174e+000 -3.332533e+000 -4.031291e+000 -9.094604e+000 -3.501690e+000 -5.481400e+000 -6.967164e+000 -6.688838e+000 -4.148350e+000 -7.038446e+000 -6.600221e+000 -3.048154e+000 6.414821e-001
<VARIANCE> 13
 3.519144e+001 8.173119e+001 8.957476e+001 7.412053e+001 8.370963e+001 4.673276e+001 4.328095e+001 3.765613e+001 5.029964e+001 4.814628e+001 4.911519e+001 3.559385e+001 8.024461e-002
<GCONST> 6.906133e+001
<MIXTURE> 2 5.000000e-001
<MEAN> 13
 -3.869069e+000 -6.948745e+000 -7.817049e+000 -1.253834e+001 -7.161408e+000 -8.215855e+000 -9.598695e+000 -9.143422e+000 -6.985240e+000 -9.813947e+000 -9.403510e+000 -5.434577e+000 5.281722e-001
<VARIANCE> 13
 3.519144e+001 8.173119e+001 8.957476e+001 7.412053e+001 8.370963e+001 4.673276e+001 4.328095e+001 3.765613e+001 5.029964e+001 4.814628e+001 4.911519e+001 3.559385e+001 8.024461e-002
<GCONST> 6.906133e+001
<STATE> 4
<NUMMIXES> 2
<MIXTURE> 1 5.000000e-001
<MEAN> 13
 -1.496174e+000 -3.332533e+000 -4.031291e+000 -9.094604e+000 -3.501690e+000 -5.481400e+000 -6.967164e+000 -6.688838e+000 -4.148350e+000 -7.038446e+000 -6.600221e+000 -3.048154e+000 6.414821e-001
<VARIANCE> 13
 3.519144e+001 8.173119e+001 8.957476e+001 7.412053e+001 8.370963e+001 4.673276e+001 4.328095e+001 3.765613e+001 5.029964e+001 4.814628e+001 4.911519e+001 3.559385e+001 8.024461e-002
<GCONST> 6.906133e+001
<MIXTURE> 2 5.000000e-001
<MEAN> 13
 -3.869069e+000 -6.948745e+000 -7.817049e+000 -1.253834e+001 -7.161408e+000 -8.215855e+000 -9.598695e+000 -9.143422e+000 -6.985240e+000 -9.813947e+000 -9.403510e+000 -5.434577e+000 5.281722e-001
<VARIANCE> 13
 3.519144e+001 8.173119e+001 8.957476e+001 7.412053e+001 8.370963e+001 4.673276e+001 4.328095e+001 3.765613e+001 5.029964e+001 4.814628e+001 4.911519e+001 3.559385e+001 8.024461e-002
<GCONST> 6.906133e+001
<TRANSP> 5
 0.000000e+000 1.000000e+000 0.000000e+000 0.000000e+000 0.000000e+000
 0.000000e+000 6.000000e-001 4.000000e-001 0.000000e+000 0.000000e+000
 0.000000e+000 0.000000e+000 6.000000e-001 4.000000e-001 0.000000e+000
 0.000000e+000 0.000000e+000 0.000000e+000 6.000000e-001 4.000000e-001
 0.000000e+000 0.000000e+000 0.000000e+000 0.000000e+000 0.000000e+000
<ENDHMM>
~h "sil"
<BEGINHMM>
<NUMSTATES> 5
<STATE> 2
<NUMMIXES> 2
<MIXTURE> 1 5.000000e-001
<MEAN> 13
 -1.496174e+000 -3.332533e+000 -4.031291e+000 -9.094604e+000 -3.501690e+000 -5.481400e+000 -6.967164e+000 -6.688838e+000 -4.148350e+000 -7.038446e+000 -6.600221e+000 -3.048154e+000 6.414821e-001
<VARIANCE> 13
 3.519144e+001 8.173119e+001 8.957476e+001 7.412053e+001 8.370963e+001 4.673276e+001 4.328095e+001 3.765613e+001 5.029964e+001 4.814628e+001 4.911519e+001 3.559385e+001 8.024461e-002
<GCONST> 6.906133e+001
<MIXTURE> 2 5.000000e-001
<MEAN> 13
 -3.869069e+000 -6.948745e+000 -7.817049e+000 -1.253834e+001 -7.161408e+000 -8.215855e+000 -9.598695e+000 -9.143422e+000 -6.985240e+000 -9.813947e+000 -9.403510e+000 -5.434577e+000 5.281722e-001
<VARIANCE> 13
 3.519144e+001 8.173119e+001 8.957476e+001 7.412053e+001 8.370963e+001 4.673276e+001 4.328095e+001 3.765613e+001 5.029964e+001 4.814628e+001 4.911519e+001 3.559385e+001 8.024461e-002
<GCONST> 6.906133e+001
<STATE> 3
<NUMMIXES> 2
<MIXTURE> 1 5.000000e-001
<MEAN> 13
 -1.496174e+000 -3.332533e+000 -4.031291e+000 -9.094604e+000 -3.501690e+000 -5.481400e+000 -6.967164e+000 -6.688838e+000 -4.148350e+000 -7.038446e+000 -6.600221e+000 -3.048154e+000 6.414821e-001
<VARIANCE> 13
 3.519144e+001 8.173119e+001 8.957476e+001 7.412053e+001 8.370963e+001 4.673276e+001 4.328095e+001 3.765613e+001 5.029964e+001 4.814628e+001 4.911519e+001 3.559385e+001 8.024461e-002
<GCONST> 6.906133e+001
<MIXTURE> 2 5.000000e-001
<MEAN> 13
 -3.869069e+000 -6.948745e+000 -7.817049e+000 -1.253834e+001 -7.161408e+000 -8.215855e+000 -9.598695e+000 -9.143422e+000 -6.985240e+000 -9.813947e+000 -9.403510e+000 -5.434577e+000 5.281722e-001
<VARIANCE> 13
 3.519144e+001 8.173119e+001 8.957476e+001 7.412053e+001 8.370963e+001 4.673276e+001 4.328095e+001 3.765613e+001 5.029964e+001 4.814628e+001 4.911519e+001 3.559385e+001 8.024461e-002
<GCONST> 6.906133e+001
<STATE> 4
<NUMMIXES> 2
<MIXTURE> 1 5.000000e-001
<MEAN> 13
 -1.496174e+000 -3.332533e+000 -4.031291e+000 -9.094604e+000 -3.501690e+000 -5.481400e+000 -6.967164e+000 -6.688838e+000 -4.148350e+000 -7.038446e+000 -6.600221e+000 -3.048154e+000 6.414821e-001
<VARIANCE> 13
 3.519144e+001 8.173119e+001 8.957476e+001 7.412053e+001 8.370963e+001 4.673276e+001 4.328095e+001 3.765613e+001 5.029964e+001 4.814628e+001 4.911519e+001 3.559385e+001 8.024461e-002
<GCONST> 6.906133e+001
<MIXTURE> 2 5.000000e-001
<MEAN> 13
 -3.869069e+000 -6.948745e+000 -7.817049e+000 -1.253834e+001 -7.161408e+000 -8.215855e+000 -9.598695e+000 -9.143422e+000 -6.985240e+000 -9.813947e+000 -9.403510e+000 -5.434577e+000 5.281722e-001
<VARIANCE> 13
 3.519144e+001 8.173119e+001 8.957476e+001 7.412053e+001 8.370963e+001 4.673276e+001 4.328095e+001 3.765613e+001 5.029964e+001 4.814628e+001 4.911519e+001 3.559385e+001 8.024461e-002
<GCONST> 6.906133e+001
<TRANSP> 5
 0.000000e+000 1.000000e+000 0.000000e+000 0.000000e+000 0.000000e+000
 0.000000e+000 6.000000e-001 4.000000e-001 0.000000e+000 0.000000e+000
 0.000000e+000 0.000000e+000 6.000000e-001 4.000000e-001 0.000000e+000
 0.000000e+000 0.000000e+000 0.000000e+000 6.000000e-001 4.000000e-001
 0.000000e+000 0.000000e+000 0.000000e+000 0.000000e+000 0.000000e+000
<ENDHMM>
~h "nav"
<BEGINHMM>
<NUMSTATES> 5
<STATE> 2
<NUMMIXES> 2
<MIXTURE> 1 5.000000e-001
<MEAN> 13
 -1.496174e+000 -3.332533e+000 -4.031291e+000 -9.094604e+000 -3.501690e+000 -5.481400e+000 -6.967164e+000 -6.688838e+000 -4.148350e+000 -7.038446e+000 -6.600221e+000 -3.048154e+000 6.414821e-001
<VARIANCE> 13
 3.519144e+001 8.173119e+001 8.957476e+001 7.412053e+001 8.370963e+001 4.673276e+001 4.328095e+001 3.765613e+001 5.029964e+001 4.814628e+001 4.911519e+001 3.559385e+001 8.024461e-002
<GCONST> 6.906133e+001
<MIXTURE> 2 5.000000e-001
<MEAN> 13
 -3.869069e+000 -6.948745e+000 -7.817049e+000 -1.253834e+001 -7.161408e+000 -8.215855e+000 -9.598695e+000 -9.143422e+000 -6.985240e+000 -9.813947e+000 -9.403510e+000 -5.434577e+000 5.281722e-001
<VARIANCE> 13
 3.519144e+001 8.173119e+001 8.957476e+001 7.412053e+001 8.370963e+001 4.673276e+001 4.328095e+001 3.765613e+001 5.029964e+001 4.814628e+001 4.911519e+001 3.559385e+001 8.024461e-002
<GCONST> 6.906133e+001
<STATE> 3
<NUMMIXES> 2
<MIXTURE> 1 5.000000e-001
<MEAN> 13
 -1.496174e+000 -3.332533e+000 -4.031291e+000 -9.094604e+000 -3.501690e+000 -5.481400e+000 -6.967164e+000 -6.688838e+000 -4.148350e+000 -7.038446e+000 -6.600221e+000 -3.048154e+000 6.414821e-001
<VARIANCE> 13
 3.519144e+001 8.173119e+001 8.957476e+001 7.412053e+001 8.370963e+001 4.673276e+001 4.328095e+001 3.765613e+001 5.029964e+001 4.814628e+001 4.911519e+001 3.559385e+001 8.024461e-002
<GCONST> 6.906133e+001
<MIXTURE> 2 5.000000e-001
<MEAN> 13
 -3.869069e+000 -6.948745e+000 -7.817049e+000 -1.253834e+001 -7.161408e+000 -8.215855e+000 -9.598695e+000 -9.143422e+000 -6.985240e+000 -9.813947e+000 -9.403510e+000 -5.434577e+000 5.281722e-001
<VARIANCE> 13
 3.519144e+001 8.173119e+001 8.957476e+001 7.412053e+001 8.370963e+001 4.673276e+001 4.328095e+001 3.765613e+001 5.029964e+001 4.814628e+001 4.911519e+001 3.559385e+001 8.024461e-002
<GCONST> 6.906133e+001
<STATE> 4
<NUMMIXES> 2
<MIXTURE> 1 5.000000e-001
<MEAN> 13
 -1.496174e+000 -3.332533e+000 -4.031291e+000 -9.094604e+000 -3.501690e+000 -5.481400e+000 -6.967164e+000 -6.688838e+000 -4.148350e+000 -7.038446e+000 -6.600221e+000 -3.048154e+000 6.414821e-001
<VARIANCE> 13
 3.519144e+001 8.173119e+001 8.957476e+001 7.412053e+001 8.370963e+001 4.673276e+001 4.328095e+001 3.765613e+001 5.029964e+001 4.814628e+001 4.911519e+001 3.559385e+001 8.024461e-002
<GCONST> 6.906133e+001
<MIXTURE> 2 5.000000e-001
<MEAN> 13
 -3.869069e+000 -6.948745e+000 -7.817049e+000 -1.253834e+001 -7.161408e+000 -8.215855e+000 -9.598695e+000 -9.143422e+000 -6.985240e+000 -9.813947e+000 -9.403510e+000 -5.434577e+000 5.281722e-001
<VARIANCE> 13
 3.519144e+001 8.173119e+001 8.957476e+001 7.412053e+001 8.370963e+001 4.673276e+001 4.328095e+001 3.765613e+001 5.029964e+001 4.814628e+001 4.911519e+001 3.559385e+001 8.024461e-002
<GCONST> 6.906133e+001
<TRANSP> 5
 0.000000e+000 1.000000e+000 0.000000e+000 0.000000e+000 0.000000e+000
 0.000000e+000 6.000000e-001 4.000000e-001 0.000000e+000 0.000000e+000
 0.000000e+000 0.000000e+000 6.000000e-001 4.000000e-001 0.000000e+000
 0.000000e+000 0.000000e+000 0.000000e+000 6.000000e-001 4.000000e-001
 0.000000e+000 0.000000e+000 0.000000e+000 0.000000e+000 0.000000e+000
<ENDHMM>
~h "char"
<BEGINHMM>
<NUMSTATES> 5
<STATE> 2
<NUMMIXES> 2
<MIXTURE> 1 5.000000e-001
<MEAN> 13
 -1.496174e+000 -3.332533e+000 -4.031291e+000 -9.094604e+000 -3.501690e+000 -5.481400e+000 -6.967164e+000 -6.688838e+000 -4.148350e+000 -7.038446e+000 -6.600221e+000 -3.048154e+000 6.414821e-001
<VARIANCE> 13
 3.519144e+001 8.173119e+001 8.957476e+001 7.412053e+001 8.370963e+001 4.673276e+001 4.328095e+001 3.765613e+001 5.029964e+001 4.814628e+001 4.911519e+001 3.559385e+001 8.024461e-002
<GCONST> 6.906133e+001
<MIXTURE> 2 5.000000e-001
<MEAN> 13
 -3.869069e+000 -6.948745e+000 -7.817049e+000 -1.253834e+001 -7.161408e+000 -8.215855e+000 -9.598695e+000 -9.143422e+000 -6.985240e+000 -9.813947e+000 -9.403510e+000 -5.434577e+000 5.281722e-001
<VARIANCE> 13
 3.519144e+001 8.173119e+001 8.957476e+001 7.412053e+001 8.370963e+001 4.673276e+001 4.328095e+001 3.765613e+001 5.029964e+001 4.814628e+001 4.911519e+001 3.559385e+001 8.024461e-002
<GCONST> 6.906133e+001
<STATE> 3
<NUMMIXES> 2
<MIXTURE> 1 5.000000e-001
<MEAN> 13
 -1.496174e+000 -3.332533e+000 -4.031291e+000 -9.094604e+000 -3.501690e+000 -5.481400e+000 -6.967164e+000 -6.688838e+000 -4.148350e+000 -7.038446e+000 -6.600221e+000 -3.048154e+000 6.414821e-001
<VARIANCE> 13
 3.519144e+001 8.173119e+001 8.957476e+001 7.412053e+001 8.370963e+001 4.673276e+001 4.328095e+001 3.765613e+001 5.029964e+001 4.814628e+001 4.911519e+001 3.559385e+001 8.024461e-002
<GCONST> 6.906133e+001
<MIXTURE> 2 5.000000e-001
<MEAN> 13
 -3.869069e+000 -6.948745e+000 -7.817049e+000 -1.253834e+001 -7.161408e+000 -8.215855e+000 -9.598695e+000 -9.143422e+000 -6.985240e+000 -9.813947e+000 -9.403510e+000 -5.434577e+000 5.281722e-001
<VARIANCE> 13
 3.519144e+001 8.173119e+001 8.957476e+001 7.412053e+001 8.370963e+001 4.673276e+001 4.328095e+001 3.765613e+001 5.029964e+001 4.814628e+001 4.911519e+001 3.559385e+001 8.024461e-002
<GCONST> 6.906133e+001
<STATE> 4
<NUMMIXES> 2
<MIXTURE> 1 5.000000e-001
<MEAN> 13
 -1.496174e+000 -3.332533e+000 -4.031291e+000 -9.094604e+000 -3.501690e+000 -5.481400e+000 -6.967164e+000 -6.688838e+000 -4.148350e+000 -7.038446e+000 -6.600221e+000 -3.048154e+000 6.414821e-001
<VARIANCE> 13
 3.519144e+001 8.173119e+001 8.957476e+001 7.412053e+001 8.370963e+001 4.673276e+001 4.328095e+001 3.765613e+001 5.029964e+001 4.814628e+001 4.911519e+001 3.559385e+001 8.024461e-002
<GCONST> 6.906133e+001
<MIXTURE> 2 5.000000e-001
<MEAN> 13
 -3.869069e+000 -6.948745e+000 -7.817049e+000 -1.253834e+001 -7.161408e+000 -8.215855e+000 -9.598695e+000 -9.143422e+000 -6.985240e+000 -9.813947e+000 -9.403510e+000 -5.434577e+000 5.281722e-001
<VARIANCE> 13
 3.519144e+001 8.173119e+001 8.957476e+001 7.412053e+001 8.370963e+001 4.673276e+001 4.328095e+001 3.765613e+001 5.029964e+001 4.814628e+001 4.911519e+001 3.559385e+001 8.024461e-002
<GCONST> 6.906133e+001
<TRANSP> 5
 0.000000e+000 1.000000e+000 0.000000e+000 0.000000e+000 0.000000e+000
 0.000000e+000 6.000000e-001 4.000000e-001 0.000000e+000 0.000000e+000
 0.000000e+000 0.000000e+000 6.000000e-001 4.000000e-001 0.000000e+000
 0.000000e+000 0.000000e+000 0.000000e+000 6.000000e-001 4.000000e-001
 0.000000e+000 0.000000e+000 0.000000e+000 0.000000e+000 0.000000e+000
<ENDHMM>
~h "pach"
<BEGINHMM>
<NUMSTATES> 5
<STATE> 2
<NUMMIXES> 2
<MIXTURE> 1 5.000000e-001
<MEAN> 13
 -1.496174e+000 -3.332533e+000 -4.031291e+000 -9.094604e+000 -3.501690e+000 -5.481400e+000 -6.967164e+000 -6.688838e+000 -4.148350e+000 -7.038446e+000 -6.600221e+000 -3.048154e+000 6.414821e-001
<VARIANCE> 13
 3.519144e+001 8.173119e+001 8.957476e+001 7.412053e+001 8.370963e+001 4.673276e+001 4.328095e+001 3.765613e+001 5.029964e+001 4.814628e+001 4.911519e+001 3.559385e+001 8.024461e-002
<GCONST> 6.906133e+001
<MIXTURE> 2 5.000000e-001
<MEAN> 13
 -3.869069e+000 -6.948745e+000 -7.817049e+000 -1.253834e+001 -7.161408e+000 -8.215855e+000 -9.598695e+000 -9.143422e+000 -6.985240e+000 -9.813947e+000 -9.403510e+000 -5.434577e+000 5.281722e-001
<VARIANCE> 13
 3.519144e+001 8.173119e+001 8.957476e+001 7.412053e+001 8.370963e+001 4.673276e+001 4.328095e+001 3.765613e+001 5.029964e+001 4.814628e+001 4.911519e+001 3.559385e+001 8.024461e-002
<GCONST> 6.906133e+001
<STATE> 3
<NUMMIXES> 2
<MIXTURE> 1 5.000000e-001
<MEAN> 13
 -1.496174e+000 -3.332533e+000 -4.031291e+000 -9.094604e+000 -3.501690e+000 -5.481400e+000 -6.967164e+000 -6.688838e+000 -4.148350e+000 -7.038446e+000 -6.600221e+000 -3.048154e+000 6.414821e-001
<VARIANCE> 13
 3.519144e+001 8.173119e+001 8.957476e+001 7.412053e+001 8.370963e+001 4.673276e+001 4.328095e+001 3.765613e+001 5.029964e+001 4.814628e+001 4.911519e+001 3.559385e+001 8.024461e-002
<GCONST> 6.906133e+001
<MIXTURE> 2 5.000000e-001
<MEAN> 13
 -3.869069e+000 -6.948745e+000 -7.817049e+000 -1.253834e+001 -7.161408e+000 -8.215855e+000 -9.598695e+000 -9.143422e+000 -6.985240e+000 -9.813947e+000 -9.403510e+000 -5.434577e+000 5.281722e-001
<VARIANCE> 13
 3.519144e+001 8.173119e+001 8.957476e+001 7.412053e+001 8.370963e+001 4.673276e+001 4.328095e+001 3.765613e+001 5.029964e+001 4.814628e+001 4.911519e+001 3.559385e+001 8.024461e-002
<GCONST> 6.906133e+001
<STATE> 4
<NUMMIXES> 2
<MIXTURE> 1 5.000000e-001
<MEAN> 13
 -1.496174e+000 -3.332533e+000 -4.031291e+000 -9.094604e+000 -3.501690e+000 -5.481400e+000 -6.967164e+000 -6.688838e+000 -4.148350e+000 -7.038446e+000 -6.600221e+000 -3.048154e+000 6.414821e-001
<VARIANCE> 13
 3.519144e+001 8.173119e+001 8.957476e+001 7.412053e+001 8.370963e+001 4.673276e+001 4.328095e+001 3.765613e+001 5.029964e+001 4.814628e+001 4.911519e+001 3.559385e+001 8.024461e-002
<GCONST> 6.906133e+001
<MIXTURE> 2 5.000000e-001
<MEAN> 13
 -3.869069e+000 -6.948745e+000 -7.817049e+000 -1.253834e+001 -7.161408e+000 -8.215855e+000 -9.598695e+000 -9.143422e+000 -6.985240e+000 -9.813947e+000 -9.403510e+000 -5.434577e+000 5.281722e-001
<VARIANCE> 13
 3.519144e+001 8.173119e+001 8.957476e+001 7.412053e+001 8.370963e+001 4.673276e+001 4.328095e+001 3.765613e+001 5.029964e+001 4.814628e+001 4.911519e+001 3.559385e+001 8.024461e-002
<GCONST> 6.906133e+001
<TRANSP> 5
 0.000000e+000 1.000000e+000 0.000000e+000 0.000000e+000 0.000000e+000
 0.000000e+000 6.000000e-001 4.000000e-001 0.000000e+000 0.000000e+000
 0.000000e+000 0.000000e+000 6.000000e-001 4.000000e-001 0.000000e+000
 0.000000e+000 0.000000e+000 0.000000e+000 6.000000e-001 4.000000e-001
 0.000000e+000 0.000000e+000 0.000000e+000 0.000000e+000 0.000000e+000
<ENDHMM>
~h "eka"
<BEGINHMM>
<NUMSTATES> 5
<STATE> 2
<NUMMIXES> 2
<MIXTURE> 1 5.000000e-001
<MEAN> 13
 -1.496174e+000 -3.332533e+000 -4.031291e+000 -9.094604e+000 -3.501690e+000 -5.481400e+000 -6.967164e+000 -6.688838e+000 -4.148350e+000 -7.038446e+000 -6.600221e+000 -3.048154e+000 6.414821e-001
<VARIANCE> 13
 3.519144e+001 8.173119e+001 8.957476e+001 7.412053e+001 8.370963e+001 4.673276e+001 4.328095e+001 3.765613e+001 5.029964e+001 4.814628e+001 4.911519e+001 3.559385e+001 8.024461e-002
<GCONST> 6.906133e+001
<MIXTURE> 2 5.000000e-001
<MEAN> 13
 -3.869069e+000 -6.948745e+000 -7.817049e+000 -1.253834e+001 -7.161408e+000 -8.215855e+000 -9.598695e+000 -9.143422e+000 -6.985240e+000 -9.813947e+000 -9.403510e+000 -5.434577e+000 5.281722e-001
<VARIANCE> 13
 3.519144e+001 8.173119e+001 8.957476e+001 7.412053e+001 8.370963e+001 4.673276e+001 4.328095e+001 3.765613e+001 5.029964e+001 4.814628e+001 4.911519e+001 3.559385e+001 8.024461e-002
<GCONST> 6.906133e+001
<STATE> 3
<NUMMIXES> 2
<MIXTURE> 1 5.000000e-001
<MEAN> 13
 -1.496174e+000 -3.332533e+000 -4.031291e+000 -9.094604e+000 -3.501690e+000 -5.481400e+000 -6.967164e+000 -6.688838e+000 -4.148350e+000 -7.038446e+000 -6.600221e+000 -3.048154e+000 6.414821e-001
<VARIANCE> 13
 3.519144e+001 8.173119e+001 8.957476e+001 7.412053e+001 8.370963e+001 4.673276e+001 4.328095e+001 3.765613e+001 5.029964e+001 4.814628e+001 4.911519e+001 3.559385e+001 8.024461e-002
<GCONST> 6.906133e+001
<MIXTURE> 2 5.000000e-001
<MEAN> 13
 -3.869069e+000 -6.948745e+000 -7.817049e+000 -1.253834e+001 -7.161408e+000 -8.215855e+000 -9.598695e+000 -9.143422e+000 -6.985240e+000 -9.813947e+000 -9.403510e+000 -5.434577e+000 5.281722e-001
<VARIANCE> 13
 3.519144e+001 8.173119e+001 8.957476e+001 7.412053e+001 8.370963e+001 4.673276e+001 4.328095e+001 3.765613e+001 5.029964e+001 4.814628e+001 4.911519e+001 3.559385e+001 8.024461e-002
<GCONST> 6.906133e+001
<STATE> 4
<NUMMIXES> 2
<MIXTURE> 1 5.000000e-001
<MEAN> 13
 -1.496174e+000 -3.332533e+000 -4.031291e+000 -9.094604e+000 -3.501690e+000 -5.481400e+000 -6.967164e+000 -6.688838e+000 -4.148350e+000 -7.038446e+000 -6.600221e+000 -3.048154e+000 6.414821e-001
<VARIANCE> 13
 3.519144e+001 8.173119e+001 8.957476e+001 7.412053e+001 8.370963e+001 4.673276e+001 4.328095e+001 3.765613e+001 5.029964e+001 4.814628e+001 4.911519e+001 3.559385e+001 8.024461e-002
<GCONST> 6.906133e+001
<MIXTURE> 2 5.000000e-001
<MEAN> 13
 -3.869069e+000 -6.948745e+000 -7.817049e+000 -1.253834e+001 -7.161408e+000 -8.215855e+000 -9.598695e+000 -9.143422e+000 -6.985240e+000 -9.813947e+000 -9.403510e+000 -5.434577e+000 5.281722e-001
<VARIANCE> 13
 3.519144e+001 8.173119e+001 8.957476e+001 7.412053e+001 8.370963e+001 4.673276e+001 4.328095e+001 3.765613e+001 5.029964e+001 4.814628e+001 4.911519e+001 3.559385e+001 8.024461e-002
<GCONST> 6.906133e+001
<TRANSP> 5
 0.000000e+000 1.000000e+000 0.000000e+000 0.000000e+000 0.000000e+000
 0.000000e+000 6.000000e-001 4.000000e-001 0.000000e+000 0.000000e+000
 0.000000e+000 0.000000e+000 6.000000e-001 4.000000e-001 0.000000e+000
 0.000000e+000 0.000000e+000 0.000000e+000 6.000000e-001 4.000000e-001
 0.000000e+000 0.000000e+000 0.000000e+000 0.000000e+000 0.000000e+000
<ENDHMM>
~h "dha"
<BEGINHMM>
<NUMSTATES> 5
<STATE> 2
<NUMMIXES> 2
<MIXTURE> 1 5.000000e-001
<MEAN> 13
 -1.496174e+000 -3.332533e+000 -4.031291e+000 -9.094604e+000 -3.501690e+000 -5.481400e+000 -6.967164e+000 -6.688838e+000 -4.148350e+000 -7.038446e+000 -6.600221e+000 -3.048154e+000 6.414821e-001
<VARIANCE> 13
 3.519144e+001 8.173119e+001 8.957476e+001 7.412053e+001 8.370963e+001 4.673276e+001 4.328095e+001 3.765613e+001 5.029964e+001 4.814628e+001 4.911519e+001 3.559385e+001 8.024461e-002
<GCONST> 6.906133e+001
<MIXTURE> 2 5.000000e-001
<MEAN> 13
 -3.869069e+000 -6.948745e+000 -7.817049e+000 -1.253834e+001 -7.161408e+000 -8.215855e+000 -9.598695e+000 -9.143422e+000 -6.985240e+000 -9.813947e+000 -9.403510e+000 -5.434577e+000 5.281722e-001
<VARIANCE> 13
 3.519144e+001 8.173119e+001 8.957476e+001 7.412053e+001 8.370963e+001 4.673276e+001 4.328095e+001 3.765613e+001 5.029964e+001 4.814628e+001 4.911519e+001 3.559385e+001 8.024461e-002
<GCONST> 6.906133e+001
<STATE> 3
<NUMMIXES> 2
<MIXTURE> 1 5.000000e-001
<MEAN> 13
 -1.496174e+000 -3.332533e+000 -4.031291e+000 -9.094604e+000 -3.501690e+000 -5.481400e+000 -6.967164e+000 -6.688838e+000 -4.148350e+000 -7.038446e+000 -6.600221e+000 -3.048154e+000 6.414821e-001
<VARIANCE> 13
 3.519144e+001 8.173119e+001 8.957476e+001 7.412053e+001 8.370963e+001 4.673276e+001 4.328095e+001 3.765613e+001 5.029964e+001 4.814628e+001 4.911519e+001 3.559385e+001 8.024461e-002
<GCONST> 6.906133e+001
<MIXTURE> 2 5.000000e-001
<MEAN> 13
 -3.869069e+000 -6.948745e+000 -7.817049e+000 -1.253834e+001 -7.161408e+000 -8.215855e+000 -9.598695e+000 -9.143422e+000 -6.985240e+000 -9.813947e+000 -9.403510e+000 -5.434577e+000 5.281722e-001
<VARIANCE> 13
 3.519144e+001 8.173119e+001 8.957476e+001 7.412053e+001 8.370963e+001 4.673276e+001 4.328095e+001 3.765613e+001 5.029964e+001 4.814628e+001 4.911519e+001 3.559385e+001 8.024461e-002
<GCONST> 6.906133e+001
<STATE> 4
<NUMMIXES> 2
<MIXTURE> 1 5.000000e-001
<MEAN> 13
 -1.496174e+000 -3.332533e+000 -4.031291e+000 -9.094604e+000 -3.501690e+000 -5.481400e+000 -6.967164e+000 -6.688838e+000 -4.148350e+000 -7.038446e+000 -6.600221e+000 -3.048154e+000 6.414821e-001
<VARIANCE> 13
 3.519144e+001 8.173119e+001 8.957476e+001 7.412053e+001 8.370963e+001 4.673276e+001 4.328095e+001 3.765613e+001 5.029964e+001 4.814628e+001 4.911519e+001 3.559385e+001 8.024461e-002
<GCONST> 6.906133e+001
<MIXTURE> 2 5.000000e-001
<MEAN> 13
 -3.869069e+000 -6.948745e+000 -7.817049e+000 -1.253834e+001 -7.161408e+000 -8.215855e+000 -9.598695e+000 -9.143422e+000 -6.985240e+000 -9.813947e+000 -9.403510e+000 -5.434577e+000 5.281722e-001
<VARIANCE> 13
 3.519144e+001 8.173119e+001 8.957476e+001 7.412053e+001 8.370963e+001 4.673276e+001 4.328095e+001 3.765613e+001 5.029964e+001 4.814628e+001 4.911519e+001 3.559385e+001 8.024461e-002
<GCONST> 6.906133e+001
<TRANSP> 5
 0.000000e+000 1.000000e+000 0.000000e+000 0.000000e+000 0.000000e+000
 0.000000e+000 6.000000e-001 4.000000e-001 0.000000e+000 0.000000e+000
 0.000000e+000 0.000000e+000 6.000000e-001 4.000000e-001 0.000000e+000
 0.000000e+000 0.000000e+000 0.000000e+000 6.000000e-001 4.000000e-001
 0.000000e+000 0.000000e+000 0.000000e+000 0.000000e+000 0.000000e+000
<ENDHMM>
~h "sa"
<BEGINHMM>
<NUMSTATES> 5
<STATE> 2
<NUMMIXES> 2
<MIXTURE> 1 5.000000e-001
<MEAN> 13
 -1.496174e+000 -3.332533e+000 -4.031291e+000 -9.094604e+000 -3.501690e+000 -5.481400e+000 -6.967164e+000 -6.688838e+000 -4.148350e+000 -7.038446e+000 -6.600221e+000 -3.048154e+000 6.414821e-001
<VARIANCE> 13
 3.519144e+001 8.173119e+001 8.957476e+001 7.412053e+001 8.370963e+001 4.673276e+001 4.328095e+001 3.765613e+001 5.029964e+001 4.814628e+001 4.911519e+001 3.559385e+001 8.024461e-002
<GCONST> 6.906133e+001
<MIXTURE> 2 5.000000e-001
<MEAN> 13
 -3.869069e+000 -6.948745e+000 -7.817049e+000 -1.253834e+001 -7.161408e+000 -8.215855e+000 -9.598695e+000 -9.143422e+000 -6.985240e+000 -9.813947e+000 -9.403510e+000 -5.434577e+000 5.281722e-001
<VARIANCE> 13
 3.519144e+001 8.173119e+001 8.957476e+001 7.412053e+001 8.370963e+001 4.673276e+001 4.328095e+001 3.765613e+001 5.029964e+001 4.814628e+001 4.911519e+001 3.559385e+001 8.024461e-002
<GCONST> 6.906133e+001
<STATE> 3
<NUMMIXES> 2
<MIXTURE> 1 5.000000e-001
<MEAN> 13
 -1.496174e+000 -3.332533e+000 -4.031291e+000 -9.094604e+000 -3.501690e+000 -5.481400e+000 -6.967164e+000 -6.688838e+000 -4.148350e+000 -7.038446e+000 -6.600221e+000 -3.048154e+000 6.414821e-001
<VARIANCE> 13
 3.519144e+001 8.173119e+001 8.957476e+001 7.412053e+001 8.370963e+001 4.673276e+001 4.328095e+001 3.765613e+001 5.029964e+001 4.814628e+001 4.911519e+001 3.559385e+001 8.024461e-002
<GCONST> 6.906133e+001
<MIXTURE> 2 5.000000e-001
<MEAN> 13
 -3.869069e+000 -6.948745e+000 -7.817049e+000 -1.253834e+001 -7.161408e+000 -8.215855e+000 -9.598695e+000 -9.143422e+000 -6.985240e+000 -9.813947e+000 -9.403510e+000 -5.434577e+000 5.281722e-001
<VARIANCE> 13
 3.519144e+001 8.173119e+001 8.957476e+001 7.412053e+001 8.370963e+001 4.673276e+001 4.328095e+001 3.765613e+001 5.029964e+001 4.814628e+001 4.911519e+001 3.559385e+001 8.024461e-002
<GCONST> 6.906133e+001
<STATE> 4
<NUMMIXES> 2
<MIXTURE> 1 5.000000e-001
<MEAN> 13
 -1.496174e+000 -3.332533e+000 -4.031291e+000 -9.094604e+000 -3.501690e+000 -5.481400e+000 -6.967164e+000 -6.688838e+000 -4.148350e+000 -7.038446e+000 -6.600221e+000 -3.048154e+000 6.414821e-001
<VARIANCE> 13
 3.519144e+001 8.173119e+001 8.957476e+001 7.412053e+001 8.370963e+001 4.673276e+001 4.328095e+001 3.765613e+001 5.029964e+001 4.814628e+001 4.911519e+001 3.559385e+001 8.024461e-002
<GCONST> 6.906133e+001
<MIXTURE> 2 5.000000e-001
<MEAN> 13
 -3.869069e+000 -6.948745e+000 -7.817049e+000 -1.253834e+001 -7.161408e+000 -8.215855e+000 -9.598695e+000 -9.143422e+000 -6.985240e+000 -9.813947e+000 -9.403510e+000 -5.434577e+000 5.281722e-001
<VARIANCE> 13
 3.519144e+001 8.173119e+001 8.957476e+001 7.412053e+001 8.370963e+001 4.673276e+001 4.328095e+001 3.765613e+001 5.029964e+001 4.814628e+001 4.911519e+001 3.559385e+001 8.024461e-002
<GCONST> 6.906133e+001
<TRANSP> 5
 0.000000e+000 1.000000e+000 0.000000e+000 0.000000e+000 0.000000e+000
 0.000000e+000 6.000000e-001 4.000000e-001 0.000000e+000 0.000000e+000
 0.000000e+000 0.000000e+000 6.000000e-001 4.000000e-001 0.000000e+000
 0.000000e+000 0.000000e+000 0.000000e+000 6.000000e-001 4.000000e-001
 0.000000e+000 0.000000e+000 0.000000e+000 0.000000e+000 0.000000e+000
<ENDHMM>
~h "ath"
<BEGINHMM>
<NUMSTATES> 5
<STATE> 2
<NUMMIXES> 2
<MIXTURE> 1 5.000000e-001
<MEAN> 13
 -1.496174e+000 -3.332533e+000 -4.031291e+000 -9.094604e+000 -3.501690e+000 -5.481400e+000 -6.967164e+000 -6.688838e+000 -4.148350e+000 -7.038446e+000 -6.600221e+000 -3.048154e+000 6.414821e-001
<VARIANCE> 13
 3.519144e+001 8.173119e+001 8.957476e+001 7.412053e+001 8.370963e+001 4.673276e+001 4.328095e+001 3.765613e+001 5.029964e+001 4.814628e+001 4.911519e+001 3.559385e+001 8.024461e-002
<GCONST> 6.906133e+001
<MIXTURE> 2 5.000000e-001
<MEAN> 13
 -3.869069e+000 -6.948745e+000 -7.817049e+000 -1.253834e+001 -7.161408e+000 -8.215855e+000 -9.598695e+000 -9.143422e+000 -6.985240e+000 -9.813947e+000 -9.403510e+000 -5.434577e+000 5.281722e-001
<VARIANCE> 13
 3.519144e+001 8.173119e+001 8.957476e+001 7.412053e+001 8.370963e+001 4.673276e+001 4.328095e+001 3.765613e+001 5.029964e+001 4.814628e+001 4.911519e+001 3.559385e+001 8.024461e-002
<GCONST> 6.906133e+001
<STATE> 3
<NUMMIXES> 2
<MIXTURE> 1 5.000000e-001
<MEAN> 13
 -1.496174e+000 -3.332533e+000 -4.031291e+000 -9.094604e+000 -3.501690e+000 -5.481400e+000 -6.967164e+000 -6.688838e+000 -4.148350e+000 -7.038446e+000 -6.600221e+000 -3.048154e+000 6.414821e-001
<VARIANCE> 13
 3.519144e+001 8.173119e+001 8.957476e+001 7.412053e+001 8.370963e+001 4.673276e+001 4.328095e+001 3.765613e+001 5.029964e+001 4.814628e+001 4.911519e+001 3.559385e+001 8.024461e-002
<GCONST> 6.906133e+001
<MIXTURE> 2 5.000000e-001
<MEAN> 13
 -3.869069e+000 -6.948745e+000 -7.817049e+000 -1.253834e+001 -7.161408e+000 -8.215855e+000 -9.598695e+000 -9.143422e+000 -6.985240e+000 -9.813947e+000 -9.403510e+000 -5.434577e+000 5.281722e-001
<VARIANCE> 13
 3.519144e+001 8.173119e+001 8.957476e+001 7.412053e+001 8.370963e+001 4.673276e+001 4.328095e+001 3.765613e+001 5.029964e+001 4.814628e+001 4.911519e+001 3.559385e+001 8.024461e-002
<GCONST> 6.906133e+001
<STATE> 4
<NUMMIXES> 2
<MIXTURE> 1 5.000000e-001
<MEAN> 13
 -1.496174e+000 -3.332533e+000 -4.031291e+000 -9.094604e+000 -3.501690e+000 -5.481400e+000 -6.967164e+000 -6.688838e+000 -4.148350e+000 -7.038446e+000 -6.600221e+000 -3.048154e+000 6.414821e-001
<VARIANCE> 13
 3.519144e+001 8.173119e+001 8.957476e+001 7.412053e+001 8.370963e+001 4.673276e+001 4.328095e+001 3.765613e+001 5.029964e+001 4.814628e+001 4.911519e+001 3.559385e+001 8.024461e-002
<GCONST> 6.906133e+001
<MIXTURE> 2 5.000000e-001
<MEAN> 13
 -3.869069e+000 -6.948745e+000 -7.817049e+000 -1.253834e+001 -7.161408e+000 -8.215855e+000 -9.598695e+000 -9.143422e+000 -6.985240e+000 -9.813947e+000 -9.403510e+000 -5.434577e+000 5.281722e-001
<VARIANCE> 13
 3.519144e+001 8.173119e+001 8.957476e+001 7.412053e+001 8.370963e+001 4.673276e+001 4.328095e+001 3.765613e+001 5.029964e+001 4.814628e+001 4.911519e+001 3.559385e+001 8.024461e-002
<GCONST> 6.906133e+001
<TRANSP> 5
 0.000000e+000 1.000000e+000 0.000000e+000 0.000000e+000 0.000000e+000
 0.000000e+000 6.000000e-001 4.000000e-001 0.000000e+000 0.000000e+000
 0.000000e+000 0.000000e+000 6.000000e-001 4.000000e-001 0.000000e+000
 0.000000e+000 0.000000e+000 0.000000e+000 6.000000e-001 4.000000e-001
 0.000000e+000 0.000000e+000 0.000000e+000 0.000000e+000 0.000000e+000
<ENDHMM>
~h "tin"
<BEGINHMM>
<NUMSTATES> 5
<STATE> 2
<NUMMIXES> 2
<MIXTURE> 1 5.000000e-001
<MEAN> 13
 -1.496174e+000 -3.332533e+000 -4.031291e+000 -9.094604e+000 -3.501690e+000 -5.481400e+000 -6.967164e+000 -6.688838e+000 -4.148350e+000 -7.038446e+000 -6.600221e+000 -3.048154e+000 6.414821e-001
<VARIANCE> 13
 3.519144e+001 8.173119e+001 8.957476e+001 7.412053e+001 8.370963e+001 4.673276e+001 4.328095e+001 3.765613e+001 5.029964e+001 4.814628e+001 4.911519e+001 3.559385e+001 8.024461e-002
<GCONST> 6.906133e+001
<MIXTURE> 2 5.000000e-001
<MEAN> 13
 -3.869069e+000 -6.948745e+000 -7.817049e+000 -1.253834e+001 -7.161408e+000 -8.215855e+000 -9.598695e+000 -9.143422e+000 -6.985240e+000 -9.813947e+000 -9.403510e+000 -5.434577e+000 5.281722e-001
<VARIANCE> 13
 3.519144e+001 8.173119e+001 8.957476e+001 7.412053e+001 8.370963e+001 4.673276e+001 4.328095e+001 3.765613e+001 5.029964e+001 4.814628e+001 4.911519e+001 3.559385e+001 8.024461e-002
<GCONST> 6.906133e+001
<STATE> 3
<NUMMIXES> 2
<MIXTURE> 1 5.000000e-001
<MEAN> 13
 -1.496174e+000 -3.332533e+000 -4.031291e+000 -9.094604e+000 -3.501690e+000 -5.481400e+000 -6.967164e+000 -6.688838e+000 -4.148350e+000 -7.038446e+000 -6.600221e+000 -3.048154e+000 6.414821e-001
<VARIANCE> 13
 3.519144e+001 8.173119e+001 8.957476e+001 7.412053e+001 8.370963e+001 4.673276e+001 4.328095e+001 3.765613e+001 5.029964e+001 4.814628e+001 4.911519e+001 3.559385e+001 8.024461e-002
<GCONST> 6.906133e+001
<MIXTURE> 2 5.000000e-001
<MEAN> 13
 -3.869069e+000 -6.948745e+000 -7.817049e+000 -1.253834e+001 -7.161408e+000 -8.215855e+000 -9.598695e+000 -9.143422e+000 -6.985240e+000 -9.813947e+000 -9.403510e+000 -5.434577e+000 5.281722e-001
<VARIANCE> 13
 3.519144e+001 8.173119e+001 8.957476e+001 7.412053e+001 8.370963e+001 4.673276e+001 4.328095e+001 3.765613e+001 5.029964e+001 4.814628e+001 4.911519e+001 3.559385e+001 8.024461e-002
<GCONST> 6.906133e+001
<STATE> 4
<NUMMIXES> 2
<MIXTURE> 1 5.000000e-001
<MEAN> 13
 -1.496174e+000 -3.332533e+000 -4.031291e+000 -9.094604e+000 -3.501690e+000 -5.481400e+000 -6.967164e+000 -6.688838e+000 -4.148350e+000 -7.038446e+000 -6.600221e+000 -3.048154e+000 6.414821e-001
<VARIANCE> 13
 3.519144e+001 8.173119e+001 8.957476e+001 7.412053e+001 8.370963e+001 4.673276e+001 4.328095e+001 3.765613e+001 5.029964e+001 4.814628e+001 4.911519e+001 3.559385e+001 8.024461e-002
<GCONST> 6.906133e+001
<MIXTURE> 2 5.000000e-001
<MEAN> 13
 -3.869069e+000 -6.948745e+000 -7.817049e+000 -1.253834e+001 -7.161408e+000 -8.215855e+000 -9.598695e+000 -9.143422e+000 -6.985240e+000 -9.813947e+000 -9.403510e+000 -5.434577e+000 5.281722e-001
<VARIANCE> 13
 3.519144e+001 8.173119e+001 8.957476e+001 7.412053e+001 8.370963e+001 4.673276e+001 4.328095e+001 3.765613e+001 5.029964e+001 4.814628e+001 4.911519e+001 3.559385e+001 8.024461e-002
<GCONST> 6.906133e+001
<TRANSP> 5
 0.000000e+000 1.000000e+000 0.000000e+000 0.000000e+000 0.000000e+000
 0.000000e+000 6.000000e-001 4.000000e-001 0.000000e+000 0.000000e+000
 0.000000e+000 0.000000e+000 6.000000e-001 4.000000e-001 0.000000e+000
 0.000000e+000 0.000000e+000 0.000000e+000 6.000000e-001 4.000000e-001
 0.000000e+000 0.000000e+000 0.000000e+000 0.000000e+000 0.000000e+000
<ENDHMM>
~h "sat"
<BEGINHMM>
<NUMSTATES> 5
<STATE> 2
<NUMMIXES> 2
<MIXTURE> 1 5.000000e-001
<MEAN> 13
 -1.496174e+000 -3.332533e+000 -4.031291e+000 -9.094604e+000 -3.501690e+000 -5.481400e+000 -6.967164e+000 -6.688838e+000 -4.148350e+000 -7.038446e+000 -6.600221e+000 -3.048154e+000 6.414821e-001
<VARIANCE> 13
 3.519144e+001 8.173119e+001 8.957476e+001 7.412053e+001 8.370963e+001 4.673276e+001 4.328095e+001 3.765613e+001 5.029964e+001 4.814628e+001 4.911519e+001 3.559385e+001 8.024461e-002
<GCONST> 6.906133e+001
<MIXTURE> 2 5.000000e-001
<MEAN> 13
 -3.869069e+000 -6.948745e+000 -7.817049e+000 -1.253834e+001 -7.161408e+000 -8.215855e+000 -9.598695e+000 -9.143422e+000 -6.985240e+000 -9.813947e+000 -9.403510e+000 -5.434577e+000 5.281722e-001
<VARIANCE> 13
 3.519144e+001 8.173119e+001 8.957476e+001 7.412053e+001 8.370963e+001 4.673276e+001 4.328095e+001 3.765613e+001 5.029964e+001 4.814628e+001 4.911519e+001 3.559385e+001 8.024461e-002
<GCONST> 6.906133e+001
<STATE> 3
<NUMMIXES> 2
<MIXTURE> 1 5.000000e-001
<MEAN> 13
 -1.496174e+000 -3.332533e+000 -4.031291e+000 -9.094604e+000 -3.501690e+000 -5.481400e+000 -6.967164e+000 -6.688838e+000 -4.148350e+000 -7.038446e+000 -6.600221e+000 -3.048154e+000 6.414821e-001
<VARIANCE> 13
 3.519144e+001 8.173119e+001 8.957476e+001 7.412053e+001 8.370963e+001 4.673276e+001 4.328095e+001 3.765613e+001 5.029964e+001 4.814628e+001 4.911519e+001 3.559385e+001 8.024461e-002
<GCONST> 6.906133e+001
<MIXTURE> 2 5.000000e-001
<MEAN> 13
 -3.869069e+000 -6.948745e+000 -7.817049e+000 -1.253834e+001 -7.161408e+000 -8.215855e+000 -9.598695e+000 -9.143422e+000 -6.985240e+000 -9.813947e+000 -9.403510e+000 -5.434577e+000 5.281722e-001
<VARIANCE> 13
 3.519144e+001 8.173119e+001 8.957476e+001 7.412053e+001 8.370963e+001 4.673276e+001 4.328095e+001 3.765613e+001 5.029964e+001 4.814628e+001 4.911519e+001 3.559385e+001 8.024461e-002
<GCONST> 6.906133e+001
<STATE> 4
<NUMMIXES> 2
<MIXTURE> 1 5.000000e-001
<MEAN> 13
 -1.496174e+000 -3.332533e+000 -4.031291e+000 -9.094604e+000 -3.501690e+000 -5.481400e+000 -6.967164e+000 -6.688838e+000 -4.148350e+000 -7.038446e+000 -6.600221e+000 -3.048154e+000 6.414821e-001
<VARIANCE> 13
 3.519144e+001 8.173119e+001 8.957476e+001 7.412053e+001 8.370963e+001 4.673276e+001 4.328095e+001 3.765613e+001 5.029964e+001 4.814628e+001 4.911519e+001 3.559385e+001 8.024461e-002
<GCONST> 6.906133e+001
<MIXTURE> 2 5.000000e-001
<MEAN> 13
 -3.869069e+000 -6.948745e+000 -7.817049e+000 -1.253834e+001 -7.161408e+000 -8.215855e+000 -9.598695e+000 -9.143422e+000 -6.985240e+000 -9.813947e+000 -9.403510e+000 -5.434577e+000 5.281722e-001
<VARIANCE> 13
 3.519144e+001 8.173119e+001 8.957476e+001 7.412053e+001 8.370963e+001 4.673276e+001 4.328095e+001 3.765613e+001 5.029964e+001 4.814628e+001 4.911519e+001 3.559385e+001 8.024461e-002
<GCONST> 6.906133e+001
<TRANSP> 5
 0.000000e+000 1.000000e+000 0.000000e+000 0.000000e+000 0.000000e+000
 0.000000e+000 6.000000e-001 4.000000e-001 0.000000e+000 0.000000e+000
 0.000000e+000 0.000000e+000 6.000000e-001 4.000000e-001 0.000000e+000
 0.000000e+000 0.000000e+000 0.000000e+000 6.000000e-001 4.000000e-001
 0.000000e+000 0.000000e+000 0.000000e+000 0.000000e+000 0.000000e+000
<ENDHMM>
