~o
<STREAMINFO> 1 13
<VECSIZE> 13<NULLD><MFCC_E><DIAGC>
~h "don"
<BEGINHMM>
<NUMSTATES> 5
<STATE> 2
<NUMMIXES> 2
<MIXTURE> 1 5.798626e-001
<MEAN> 13
 4.191782e+000 -2.321378e+000 -6.355936e+000 -1.663326e+001 -6.013286e+000 -7.272119e+000 -1.275458e+001 -9.489666e+000 -6.491360e+000 -2.060480e+000 -1.200203e+000 -1.149772e+000 8.132413e-001
<VARIANCE> 13
 1.290967e+001 4.025547e+001 5.032202e+001 9.927448e+001 5.261333e+001 6.346350e+001 3.117242e+001 3.558472e+001 5.687649e+001 5.456475e+001 7.894199e+001 4.623239e+001 2.457638e-002
<GCONST> 6.632353e+001
<MIXTURE> 2 4.201373e-001
<MEAN> 13
 3.256164e+000 -2.129955e+000 -8.381663e+000 -1.656621e+001 -4.511150e+000 -1.067965e+001 -1.412733e+001 -1.138488e+001 -1.020723e+001 -6.125968e+000 -6.967466e+000 -3.334524e+000 7.524483e-001
<VARIANCE> 13
 1.347579e+001 4.029071e+001 3.435902e+001 6.399926e+001 4.660505e+001 4.287000e+001 3.350200e+001 4.088179e+001 6.295717e+001 4.584303e+001 4.874517e+001 4.064148e+001 2.640497e-002
<GCONST> 6.463219e+001
<STATE> 3
<NUMMIXES> 2
<MIXTURE> 1 5.347115e-001
<MEAN> 13
 3.692251e+000 -1.332544e+000 -6.066922e+000 -1.428317e+001 -6.764974e+000 -7.588016e+000 -1.208109e+001 -1.051722e+001 -7.301136e+000 -2.923722e+000 -1.073065e+000 -1.562875e+000 7.370789e-001
<VARIANCE> 13
 1.297443e+001 3.460299e+001 4.126803e+001 7.857850e+001 4.044869e+001 4.759021e+001 2.923060e+001 3.254327e+001 4.832645e+001 4.641729e+001 6.341869e+001 3.640178e+001 3.021359e-002
<GCONST> 6.446452e+001
<MIXTURE> 2 4.652920e-001
<MEAN> 13
 2.693244e+000 -1.335291e+000 -8.464165e+000 -1.543894e+001 -5.558025e+000 -1.040552e+001 -1.386205e+001 -1.250412e+001 -1.087126e+001 -6.747520e+000 -5.936121e+000 -3.413708e+000 6.853411e-001
<VARIANCE> 13
 1.286342e+001 3.377696e+001 2.967907e+001 5.124345e+001 4.009790e+001 3.115090e+001 3.013752e+001 3.515678e+001 5.257388e+001 3.812776e+001 3.939321e+001 3.365309e+001 3.024422e-002
<GCONST> 6.268377e+001
<STATE> 4
<NUMMIXES> 2
<MIXTURE> 1 5.013340e-001
<MEAN> 13
 2.069089e+000 1.816038e-001 -5.373355e+000 -1.199949e+001 -7.532393e+000 -8.154997e+000 -1.108313e+001 -1.105282e+001 -7.698892e+000 -3.820200e+000 -9.308251e-001 -1.655491e+000 6.306610e-001
<VARIANCE> 13
 1.696585e+001 2.643578e+001 3.409774e+001 5.484752e+001 2.890988e+001 3.461456e+001 2.651823e+001 2.854899e+001 4.035674e+001 3.967017e+001 4.918514e+001 2.925251e+001 3.711343e-002
<GCONST> 6.242616e+001
<MIXTURE> 2 4.986652e-001
<MEAN> 13
 1.146425e+000 -1.441570e-001 -7.657066e+000 -1.374270e+001 -6.796675e+000 -1.003274e+001 -1.296527e+001 -1.311994e+001 -1.110639e+001 -7.417253e+000 -4.946943e+000 -3.422899e+000 5.898180e-001
<VARIANCE> 13
 1.613636e+001 2.511270e+001 2.999237e+001 4.348746e+001 3.161708e+001 2.475304e+001 2.618381e+001 2.929739e+001 4.420141e+001 3.314499e+001 3.194416e+001 2.837831e+001 3.641858e-002
<GCONST> 6.116214e+001
<TRANSP> 5
 0.000000e+000 1.000000e+000 0.000000e+000 0.000000e+000 0.000000e+000
 0.000000e+000 9.191284e-001 8.087157e-002 0.000000e+000 0.000000e+000
 0.000000e+000 0.000000e+000 9.191285e-001 8.087149e-002 0.000000e+000
 0.000000e+000 0.000000e+000 0.000000e+000 9.191287e-001 8.087140e-002
 0.000000e+000 0.000000e+000 0.000000e+000 0.000000e+000 0.000000e+000
<ENDHMM>
~h "sil"
<BEGINHMM>
<NUMSTATES> 5
<STATE> 2
<NUMMIXES> 2
<MIXTURE> 1 4.971341e-001
<MEAN> 13
 -4.670967e+000 -2.817703e+000 -4.518583e+000 -8.293111e+000 -5.748770e+000 -6.431660e+000 -6.513101e+000 -6.660521e+000 -4.217601e+000 -7.078531e+000 -6.103986e+000 -3.566577e+000 4.994735e-001
<VARIANCE> 13
 4.630610e+001 7.351598e+001 7.861750e+001 6.810809e+001 7.450137e+001 4.810316e+001 4.421131e+001 3.507396e+001 4.456669e+001 4.221004e+001 4.455724e+001 3.400113e+001 8.533709e-002
<GCONST> 6.854314e+001
<MIXTURE> 2 5.028585e-001
<MEAN> 13
 -5.019664e+000 -3.366538e+000 -5.660561e+000 -9.268482e+000 -5.914968e+000 -7.398306e+000 -8.479992e+000 -8.828841e+000 -6.930733e+000 -9.716003e+000 -8.547710e+000 -5.022737e+000 4.797778e-001
<VARIANCE> 13
 4.182536e+001 6.767998e+001 7.423849e+001 6.363478e+001 7.098401e+001 4.229398e+001 3.965960e+001 3.510979e+001 4.218718e+001 4.035499e+001 3.976445e+001 3.000393e+001 7.962269e-002
<GCONST> 6.754073e+001
<STATE> 3
<NUMMIXES> 2
<MIXTURE> 1 5.018735e-001
<MEAN> 13
 -3.410281e+000 -4.543487e+000 -4.510596e+000 -1.014444e+001 -5.626966e+000 -6.457353e+000 -6.985018e+000 -6.632553e+000 -3.965424e+000 -6.829154e+000 -6.508521e+000 -3.333496e+000 5.759293e-001
<VARIANCE> 13
 3.863494e+001 8.545094e+001 8.903622e+001 7.888772e+001 8.971995e+001 5.052073e+001 4.701463e+001 3.781413e+001 5.126656e+001 4.830410e+001 5.272990e+001 3.927098e+001 9.238654e-002
<GCONST> 6.982224e+001
<MIXTURE> 2 4.981295e-001
<MEAN> 13
 -4.130027e+000 -4.632723e+000 -5.441295e+000 -1.073926e+001 -5.560121e+000 -7.400010e+000 -8.723323e+000 -8.700510e+000 -6.997273e+000 -9.670368e+000 -9.241141e+000 -4.812665e+000 5.361145e-001
<VARIANCE> 13
 3.402036e+001 7.615081e+001 7.832294e+001 7.382906e+001 7.870708e+001 4.318378e+001 4.101307e+001 3.596485e+001 4.650360e+001 4.368794e+001 4.440570e+001 3.304193e+001 8.831261e-002
<GCONST> 6.832317e+001
<STATE> 4
<NUMMIXES> 2
<MIXTURE> 1 4.996682e-001
<MEAN> 13
 -2.822424e+000 -5.217765e+000 -4.711422e+000 -1.052136e+001 -5.279477e+000 -6.072933e+000 -7.297805e+000 -6.681698e+000 -4.173902e+000 -6.776809e+000 -6.484811e+000 -3.362360e+000 5.720055e-001
<VARIANCE> 13
 3.233694e+001 8.130583e+001 8.703965e+001 7.815896e+001 8.602950e+001 4.634682e+001 4.288775e+001 3.588329e+001 4.962436e+001 4.698458e+001 5.239449e+001 3.817833e+001 1.013296e-001
<GCONST> 6.928764e+001
<MIXTURE> 2 5.003237e-001
<MEAN> 13
 -3.674783e+000 -5.228183e+000 -5.505030e+000 -1.097593e+001 -5.224516e+000 -7.210689e+000 -8.899466e+000 -8.608394e+000 -7.110133e+000 -9.648517e+000 -9.351463e+000 -4.781687e+000 5.318698e-001
<VARIANCE> 13
 2.898778e+001 7.387731e+001 7.443694e+001 7.450809e+001 7.449738e+001 3.964214e+001 3.834505e+001 3.361539e+001 4.460995e+001 4.210633e+001 4.387901e+001 3.233021e+001 9.972768e-002
<GCONST> 6.782509e+001
<TRANSP> 5
 0.000000e+000 1.000000e+000 0.000000e+000 0.000000e+000 0.000000e+000
 0.000000e+000 9.104409e-001 8.955912e-002 0.000000e+000 0.000000e+000
 0.000000e+000 0.000000e+000 9.104406e-001 8.955946e-002 0.000000e+000
 0.000000e+000 0.000000e+000 0.000000e+000 9.104390e-001 8.956098e-002
 0.000000e+000 0.000000e+000 0.000000e+000 0.000000e+000 0.000000e+000
<ENDHMM>
~h "nav"
<BEGINHMM>
<NUMSTATES> 5
<STATE> 2
<NUMMIXES> 2
<MIXTURE> 1 4.538295e-001
<MEAN> 13
 4.591043e+000 -3.216892e+000 -1.035228e+001 -1.688896e+001 -4.195896e+000 -3.163032e+000 -7.942482e+000 -7.283018e+000 -6.957827e+000 -7.457341e+000 -8.228363e+000 -6.615051e+000 8.336954e-001
<VARIANCE> 13
 1.732535e+001 4.059361e+001 3.615565e+001 5.241100e+001 5.524226e+001 3.181981e+001 3.528160e+001 4.221091e+001 5.438522e+001 4.737757e+001 4.896207e+001 2.691588e+001 2.634727e-002
<GCONST> 6.417461e+001
<MIXTURE> 2 5.461731e-001
<MEAN> 13
 3.683440e+000 -4.970448e+000 -1.119128e+001 -1.910164e+001 -2.485819e+000 -4.102874e+000 -1.024419e+001 -8.977019e+000 -1.175122e+001 -1.199962e+001 -1.252886e+001 -8.329033e+000 8.237635e-001
<VARIANCE> 13
 1.394372e+001 3.373055e+001 3.712873e+001 4.594621e+001 5.456811e+001 3.260692e+001 3.311295e+001 4.976356e+001 4.409153e+001 3.419127e+001 3.811315e+001 2.944628e+001 2.488405e-002
<GCONST> 6.302671e+001
<STATE> 3
<NUMMIXES> 2
<MIXTURE> 1 4.467417e-001
<MEAN> 13
 3.765685e+000 -1.301345e+000 -1.039849e+001 -1.615162e+001 -4.489554e+000 -2.802161e+000 -6.790439e+000 -7.816620e+000 -7.639205e+000 -7.668679e+000 -7.150813e+000 -6.468345e+000 7.673219e-001
<VARIANCE> 13
 1.601997e+001 3.059255e+001 3.085923e+001 4.130900e+001 4.354630e+001 2.572511e+001 3.185966e+001 3.438563e+001 4.352031e+001 4.532950e+001 4.329551e+001 2.439752e+001 2.786062e-002
<GCONST> 6.222696e+001
<MIXTURE> 2 5.532568e-001
<MEAN> 13
 2.999922e+000 -3.138097e+000 -1.155884e+001 -1.774800e+001 -3.697949e+000 -3.849610e+000 -9.130019e+000 -1.041363e+001 -1.214832e+001 -1.233805e+001 -1.130962e+001 -8.443961e+000 7.506566e-001
<VARIANCE> 13
 1.522494e+001 2.582629e+001 2.887263e+001 3.886924e+001 4.501852e+001 2.555929e+001 2.899480e+001 3.809790e+001 3.602091e+001 3.256691e+001 3.611831e+001 2.671257e+001 3.100285e-002
<GCONST> 6.141083e+001
<STATE> 4
<NUMMIXES> 2
<MIXTURE> 1 4.411731e-001
<MEAN> 13
 2.009077e+000 6.369241e-002 -8.958591e+000 -1.417492e+001 -5.104112e+000 -2.881720e+000 -5.817248e+000 -7.871624e+000 -7.940235e+000 -8.168267e+000 -6.376837e+000 -6.173052e+000 6.773620e-001
<VARIANCE> 13
 1.813429e+001 2.235932e+001 3.317879e+001 3.761886e+001 3.611514e+001 2.550756e+001 2.826927e+001 2.916640e+001 3.711444e+001 4.175611e+001 3.593230e+001 2.179430e+001 3.013596e-002
<GCONST> 6.107445e+001
<MIXTURE> 2 5.588290e-001
<MEAN> 13
 1.313486e+000 -1.663562e+000 -1.035260e+001 -1.539793e+001 -5.268542e+000 -4.151486e+000 -8.197505e+000 -1.104481e+001 -1.224153e+001 -1.276362e+001 -1.013444e+001 -8.223749e+000 6.542554e-001
<VARIANCE> 13
 1.884717e+001 1.929249e+001 3.063234e+001 3.720834e+001 3.695685e+001 2.332778e+001 2.470384e+001 2.863822e+001 3.176808e+001 3.126046e+001 3.239089e+001 2.423323e+001 3.628442e-002
<GCONST> 6.039822e+001
<TRANSP> 5
 0.000000e+000 1.000000e+000 0.000000e+000 0.000000e+000 0.000000e+000
 0.000000e+000 9.071690e-001 9.283099e-002 0.000000e+000 0.000000e+000
 0.000000e+000 0.000000e+000 9.071689e-001 9.283110e-002 0.000000e+000
 0.000000e+000 0.000000e+000 0.000000e+000 9.071690e-001 9.283104e-002
 0.000000e+000 0.000000e+000 0.000000e+000 0.000000e+000 0.000000e+000
<ENDHMM>
~h "char"
<BEGINHMM>
<NUMSTATES> 5
<STATE> 2
<NUMMIXES> 2
<MIXTURE> 1 4.979319e-001
<MEAN> 13
 -8.094634e-002 -1.668627e+001 -9.888832e+000 -1.261699e+001 -1.941214e+000 -6.714524e+000 -3.515687e+000 -3.944742e+000 -2.037445e+000 -1.076270e+001 -1.129751e+001 -2.325605e+000 8.050604e-001
<VARIANCE> 13
 2.219367e+001 5.407721e+001 2.776401e+001 2.925261e+001 6.221917e+001 3.213523e+001 4.309500e+001 3.607114e+001 7.461840e+001 4.164926e+001 3.396474e+001 6.228355e+001 2.806385e-002
<GCONST> 6.475726e+001
<MIXTURE> 2 5.020669e-001
<MEAN> 13
 -3.253342e-001 -1.647853e+001 -1.011300e+001 -1.285205e+001 -2.256963e+000 -8.186737e+000 -5.203638e+000 -6.109391e+000 -5.396771e+000 -1.316440e+001 -1.241189e+001 -3.474547e+000 7.899001e-001
<VARIANCE> 13
 2.173151e+001 5.163047e+001 2.465306e+001 3.121473e+001 5.079023e+001 3.084213e+001 3.976629e+001 3.632917e+001 7.039880e+001 4.027480e+001 3.167778e+001 5.138783e+001 3.023148e-002
<GCONST> 6.403934e+001
<STATE> 3
<NUMMIXES> 2
<MIXTURE> 1 4.829515e-001
<MEAN> 13
 2.186238e-001 -1.444798e+001 -1.115029e+001 -1.100871e+001 -1.868500e+000 -5.569462e+000 -4.409262e+000 -4.187621e+000 -2.804598e+000 -1.114642e+001 -1.078532e+001 -2.998091e+000 7.079443e-001
<VARIANCE> 13
 1.370279e+001 5.286258e+001 2.194147e+001 2.637548e+001 4.419938e+001 2.821749e+001 3.383984e+001 3.271073e+001 7.015953e+001 4.156450e+001 2.993634e+001 5.130016e+001 3.414078e-002
<GCONST> 6.291403e+001
<MIXTURE> 2 5.170490e-001
<MEAN> 13
 -1.863117e-001 -1.481801e+001 -1.126282e+001 -1.122354e+001 -2.116030e+000 -6.995691e+000 -5.993684e+000 -6.145010e+000 -6.194527e+000 -1.345025e+001 -1.174230e+001 -3.763468e+000 6.945255e-001
<VARIANCE> 13
 1.262088e+001 4.988388e+001 2.124831e+001 2.839287e+001 3.761792e+001 2.743284e+001 3.076272e+001 3.351427e+001 6.262008e+001 4.029943e+001 2.815750e+001 4.266541e+001 3.604528e-002
<GCONST> 6.221901e+001
<STATE> 4
<NUMMIXES> 2
<MIXTURE> 1 4.748784e-001
<MEAN> 13
 -5.855693e-001 -1.133013e+001 -1.162832e+001 -9.527968e+000 -1.808788e+000 -4.397607e+000 -4.745951e+000 -4.493143e+000 -3.568852e+000 -1.123065e+001 -9.982815e+000 -3.658643e+000 5.934631e-001
<VARIANCE> 13
 1.268392e+001 5.068620e+001 2.129672e+001 2.110799e+001 3.105638e+001 2.548620e+001 2.684744e+001 3.151182e+001 6.323843e+001 3.855018e+001 2.785847e+001 4.030060e+001 3.575312e-002
<GCONST> 6.137233e+001
<MIXTURE> 2 5.251209e-001
<MEAN> 13
 -1.042045e+000 -1.213829e+001 -1.179403e+001 -9.794273e+000 -2.128412e+000 -5.711819e+000 -6.271462e+000 -6.358451e+000 -6.741212e+000 -1.346968e+001 -1.094753e+001 -4.105094e+000 5.823501e-001
<VARIANCE> 13
 1.121539e+001 5.048442e+001 2.143693e+001 2.263142e+001 2.855490e+001 2.457773e+001 2.446459e+001 3.084593e+001 5.297904e+001 3.841146e+001 2.629388e+001 3.467298e+001 3.756223e-002
<GCONST> 6.074750e+001
<TRANSP> 5
 0.000000e+000 1.000000e+000 0.000000e+000 0.000000e+000 0.000000e+000
 0.000000e+000 9.125137e-001 8.748635e-002 0.000000e+000 0.000000e+000
 0.000000e+000 0.000000e+000 9.125139e-001 8.748617e-002 0.000000e+000
 0.000000e+000 0.000000e+000 0.000000e+000 9.125137e-001 8.748636e-002
 0.000000e+000 0.000000e+000 0.000000e+000 0.000000e+000 0.000000e+000
<ENDHMM>
~h "pach"
<BEGINHMM>
<NUMSTATES> 5
<STATE> 2
<NUMMIXES> 2
<MIXTURE> 1 4.181179e-001
<MEAN> 13
 2.165675e-002 -1.321076e+001 -1.277151e+001 -1.100615e+001 1.823391e+000 -4.350987e+000 -8.165530e+000 -6.541552e+000 -3.502691e+000 -1.051794e+001 -9.663205e+000 -5.841216e+000 7.675331e-001
<VARIANCE> 13
 2.866688e+001 7.464318e+001 4.001612e+001 4.436152e+001 5.244526e+001 5.502279e+001 4.845522e+001 4.917380e+001 5.498375e+001 4.489805e+001 3.697369e+001 3.915042e+001 3.143286e-002
<GCONST> 6.641518e+001
<MIXTURE> 2 5.818807e-001
<MEAN> 13
 -9.252722e-001 -1.324565e+001 -1.382552e+001 -1.024239e+001 1.929579e+000 -7.143542e+000 -9.310682e+000 -7.599859e+000 -7.060947e+000 -1.309786e+001 -1.163998e+001 -6.492733e+000 7.467695e-001
<VARIANCE> 13
 2.667972e+001 6.698247e+001 4.066443e+001 5.128239e+001 4.779564e+001 4.617719e+001 3.633007e+001 4.377448e+001 5.198471e+001 4.626719e+001 3.006431e+001 3.443341e+001 3.063444e-002
<GCONST> 6.533667e+001
<STATE> 3
<NUMMIXES> 2
<MIXTURE> 1 3.888938e-001
<MEAN> 13
 -2.003042e+000 -9.459795e+000 -1.459711e+001 -8.722587e+000 1.475687e+000 -4.337186e+000 -7.281383e+000 -7.574243e+000 -3.985066e+000 -1.091357e+001 -9.038613e+000 -6.235077e+000 6.716248e-001
<VARIANCE> 13
 3.216362e+001 7.972158e+001 3.931289e+001 3.740912e+001 3.702423e+001 5.021012e+001 4.429314e+001 4.346553e+001 4.832956e+001 4.251863e+001 3.046752e+001 3.387568e+001 3.453284e-002
<GCONST> 6.532733e+001
<MIXTURE> 2 6.111050e-001
<MEAN> 13
 -2.513979e+000 -1.002445e+001 -1.551489e+001 -8.002668e+000 1.078321e+000 -6.702693e+000 -8.768044e+000 -8.420862e+000 -7.079284e+000 -1.350486e+001 -1.072674e+001 -6.892148e+000 6.550976e-001
<VARIANCE> 13
 2.650207e+001 6.604688e+001 3.686055e+001 4.111668e+001 3.499024e+001 4.048643e+001 3.411788e+001 3.917437e+001 4.435122e+001 4.392782e+001 2.653370e+001 3.062415e+001 3.356899e-002
<GCONST> 6.401817e+001
<STATE> 4
<NUMMIXES> 2
<MIXTURE> 1 3.801600e-001
<MEAN> 13
 -4.173220e+000 -6.096951e+000 -1.481233e+001 -6.977409e+000 9.605981e-001 -4.128906e+000 -6.077052e+000 -8.484557e+000 -4.498530e+000 -1.087420e+001 -8.042754e+000 -6.311242e+000 5.528409e-001
<VARIANCE> 13
 2.735765e+001 6.463012e+001 3.839460e+001 2.696890e+001 2.732083e+001 3.929156e+001 4.083521e+001 3.681057e+001 4.053992e+001 3.835342e+001 2.850800e+001 3.036844e+001 3.722512e-002
<GCONST> 6.342862e+001
<MIXTURE> 2 6.198378e-001
<MEAN> 13
 -3.968235e+000 -7.363634e+000 -1.557935e+001 -6.617076e+000 4.499757e-001 -5.843407e+000 -8.071312e+000 -9.218385e+000 -7.076578e+000 -1.336698e+001 -9.936934e+000 -7.150424e+000 5.521312e-001
<VARIANCE> 13
 2.160518e+001 5.442266e+001 3.532291e+001 2.849336e+001 2.770140e+001 3.295579e+001 3.321024e+001 3.419632e+001 3.745629e+001 3.970973e+001 2.552331e+001 2.803658e+001 3.573659e-002
<GCONST> 6.227424e+001
<TRANSP> 5
 0.000000e+000 1.000000e+000 0.000000e+000 0.000000e+000 0.000000e+000
 0.000000e+000 9.083326e-001 9.166741e-002 0.000000e+000 0.000000e+000
 0.000000e+000 0.000000e+000 9.083327e-001 9.166732e-002 0.000000e+000
 0.000000e+000 0.000000e+000 0.000000e+000 9.083327e-001 9.166732e-002
 0.000000e+000 0.000000e+000 0.000000e+000 0.000000e+000 0.000000e+000
<ENDHMM>
~h "eka"
<BEGINHMM>
<NUMSTATES> 5
<STATE> 2
<NUMMIXES> 2
<MIXTURE> 1 5.800897e-001
<MEAN> 13
 -3.291440e+000 -2.315961e+000 1.122089e+001 -1.673545e+001 -2.064156e+001 -1.331962e+001 -9.824825e+000 -7.097962e+000 -1.944524e+000 -2.255575e+000 -3.283638e+000 -7.447416e-001 7.592131e-001
<VARIANCE> 13
 8.453865e+000 3.144105e+001 7.841150e+001 1.556467e+002 6.697858e+001 5.843219e+001 4.184241e+001 4.744104e+001 4.392088e+001 5.778766e+001 6.710195e+001 3.096891e+001 2.832517e-002
<GCONST> 6.666470e+001
<MIXTURE> 2 4.199091e-001
<MEAN> 13
 -3.686127e+000 -1.959873e+000 9.013146e+000 -1.813016e+001 -1.930196e+001 -1.481211e+001 -1.039639e+001 -9.159250e+000 -3.093416e+000 -4.122882e+000 -7.251303e+000 -1.877090e+000 7.421082e-001
<VARIANCE> 13
 7.642914e+000 3.173933e+001 5.984469e+001 1.562330e+002 5.197273e+001 6.574960e+001 4.046696e+001 4.178109e+001 3.949641e+001 5.641057e+001 6.493609e+001 3.052248e+001 2.661450e-002
<GCONST> 6.577077e+001
<STATE> 3
<NUMMIXES> 2
<MIXTURE> 1 5.571540e-001
<MEAN> 13
 -3.112959e+000 -1.862948e+000 7.812969e+000 -1.316916e+001 -1.857733e+001 -1.473229e+001 -9.792362e+000 -6.789567e+000 -1.799601e+000 -3.522951e+000 -3.121852e+000 -1.219677e+000 6.819048e-001
<VARIANCE> 13
 6.151118e+000 2.755298e+001 7.198965e+001 1.332367e+002 6.154881e+001 5.551786e+001 3.625064e+001 3.713171e+001 4.137191e+001 4.820648e+001 5.765424e+001 2.858924e+001 2.539153e-002
<GCONST> 6.486751e+001
<MIXTURE> 2 4.428438e-001
<MEAN> 13
 -3.479668e+000 -1.792383e+000 6.264870e+000 -1.450648e+001 -1.813235e+001 -1.594368e+001 -1.049205e+001 -8.420204e+000 -3.111925e+000 -5.377524e+000 -6.399251e+000 -2.606268e+000 6.742043e-001
<VARIANCE> 13
 5.677169e+000 2.916085e+001 5.425483e+001 1.287014e+002 4.870689e+001 5.847524e+001 3.762180e+001 3.440878e+001 3.877388e+001 4.928130e+001 5.688881e+001 2.796281e+001 2.459855e-002
<GCONST> 6.419539e+001
<STATE> 4
<NUMMIXES> 2
<MIXTURE> 1 5.445992e-001
<MEAN> 13
 -3.371301e+000 -1.255646e+000 4.455801e+000 -1.009450e+001 -1.622995e+001 -1.525755e+001 -9.726797e+000 -6.490373e+000 -1.787328e+000 -4.027025e+000 -2.920280e+000 -1.718648e+000 5.924985e-001
<VARIANCE> 13
 5.952863e+000 2.308986e+001 5.498349e+001 9.592118e+001 5.745110e+001 4.796200e+001 3.235237e+001 2.959649e+001 3.630238e+001 3.882244e+001 4.656746e+001 2.539929e+001 2.480297e-002
<GCONST> 6.280163e+001
<MIXTURE> 2 4.553999e-001
<MEAN> 13
 -3.733949e+000 -1.297696e+000 3.549833e+000 -1.160719e+001 -1.653768e+001 -1.622317e+001 -1.053731e+001 -7.783862e+000 -3.137445e+000 -5.873421e+000 -5.694778e+000 -3.192157e+000 5.904363e-001
<VARIANCE> 13
 5.634421e+000 2.490738e+001 4.295669e+001 9.028994e+001 4.775402e+001 4.775099e+001 3.504838e+001 2.824959e+001 3.566110e+001 4.148700e+001 4.657787e+001 2.440210e+001 2.562777e-002
<GCONST> 6.240071e+001
<TRANSP> 5
 0.000000e+000 1.000000e+000 0.000000e+000 0.000000e+000 0.000000e+000
 0.000000e+000 9.065524e-001 9.344763e-002 0.000000e+000 0.000000e+000
 0.000000e+000 0.000000e+000 9.065524e-001 9.344754e-002 0.000000e+000
 0.000000e+000 0.000000e+000 0.000000e+000 9.065525e-001 9.344753e-002
 0.000000e+000 0.000000e+000 0.000000e+000 0.000000e+000 0.000000e+000
<ENDHMM>
~h "dha"
<BEGINHMM>
<NUMSTATES> 5
<STATE> 2
<NUMMIXES> 2
<MIXTURE> 1 5.643361e-001
<MEAN> 13
 1.419866e+000 -1.439011e+001 -1.194154e+001 -9.757056e+000 2.223890e+000 -8.464146e-001 -6.150746e+000 -6.650439e+000 -1.903782e+000 -9.002253e+000 -1.011748e+001 -4.750318e+000 7.401143e-001
<VARIANCE> 13
 1.194536e+001 7.118276e+001 4.558996e+001 3.343915e+001 7.632942e+001 4.771527e+001 3.947636e+001 4.229554e+001 6.960476e+001 4.968829e+001 3.465945e+001 5.659972e+001 3.123416e-002
<GCONST> 6.585204e+001
<MIXTURE> 2 4.356638e-001
<MEAN> 13
 7.101786e-001 -1.383076e+001 -1.252082e+001 -9.528338e+000 2.262341e+000 -3.250021e+000 -8.136889e+000 -9.117158e+000 -4.846647e+000 -1.192426e+001 -1.235475e+001 -5.546817e+000 7.290319e-001
<VARIANCE> 13
 1.213702e+001 5.935198e+001 4.060489e+001 3.474267e+001 7.417198e+001 3.983291e+001 3.477702e+001 4.032079e+001 6.148431e+001 5.166180e+001 3.587534e+001 4.433518e+001 3.738030e-002
<GCONST> 6.510963e+001
<STATE> 3
<NUMMIXES> 2
<MIXTURE> 1 5.367095e-001
<MEAN> 13
 8.426526e-001 -1.251833e+001 -1.313459e+001 -8.850892e+000 3.016365e+000 -1.850751e-001 -6.653152e+000 -7.077719e+000 -2.650716e+000 -8.601282e+000 -9.693757e+000 -5.597795e+000 6.489324e-001
<VARIANCE> 13
 1.168716e+001 6.159274e+001 3.413759e+001 2.547570e+001 6.203681e+001 3.852228e+001 3.383242e+001 3.715720e+001 5.279866e+001 4.358685e+001 2.980694e+001 4.344976e+001 3.645084e-002
<GCONST> 6.375090e+001
<MIXTURE> 2 4.632898e-001
<MEAN> 13
 5.000598e-003 -1.235929e+001 -1.371975e+001 -8.587787e+000 2.970811e+000 -2.141529e+000 -8.765924e+000 -9.479057e+000 -5.430478e+000 -1.106311e+001 -1.159432e+001 -6.341819e+000 6.246434e-001
<VARIANCE> 13
 1.126421e+001 5.069876e+001 3.238533e+001 2.681545e+001 6.006945e+001 2.951575e+001 2.881444e+001 3.486700e+001 4.446600e+001 4.226143e+001 3.084354e+001 3.403921e+001 4.237922e-002
<GCONST> 6.273340e+001
<STATE> 4
<NUMMIXES> 2
<MIXTURE> 1 5.071017e-001
<MEAN> 13
 -5.471104e-001 -9.845755e+000 -1.295148e+001 -7.956157e+000 2.682065e+000 -2.110928e-001 -6.655713e+000 -7.490916e+000 -3.458663e+000 -8.150571e+000 -8.943470e+000 -6.175489e+000 5.415944e-001
<VARIANCE> 13
 1.301787e+001 5.222341e+001 2.964568e+001 1.888337e+001 5.173732e+001 3.256851e+001 3.275065e+001 3.338603e+001 4.132265e+001 3.818768e+001 2.744072e+001 3.375799e+001 4.114494e-002
<GCONST> 6.217295e+001
<MIXTURE> 2 4.928987e-001
<MEAN> 13
 -1.378937e+000 -1.014081e+001 -1.356122e+001 -7.850471e+000 2.572592e+000 -1.817985e+000 -8.882769e+000 -9.927803e+000 -6.042438e+000 -1.035730e+001 -1.060556e+001 -6.862093e+000 5.158950e-001
<VARIANCE> 13
 1.208230e+001 4.466627e+001 3.037589e+001 2.013473e+001 5.051151e+001 2.395368e+001 2.692020e+001 3.140732e+001 3.420439e+001 3.509179e+001 2.843473e+001 2.734846e+001 4.318891e-002
<GCONST> 6.104212e+001
<TRANSP> 5
 0.000000e+000 1.000000e+000 0.000000e+000 0.000000e+000 0.000000e+000
 0.000000e+000 9.037693e-001 9.623077e-002 0.000000e+000 0.000000e+000
 0.000000e+000 0.000000e+000 9.037694e-001 9.623054e-002 0.000000e+000
 0.000000e+000 0.000000e+000 0.000000e+000 9.037692e-001 9.623083e-002
 0.000000e+000 0.000000e+000 0.000000e+000 0.000000e+000 0.000000e+000
<ENDHMM>
~h "sa"
<BEGINHMM>
<NUMSTATES> 5
<STATE> 2
<NUMMIXES> 2
<MIXTURE> 1 5.384265e-001
<MEAN> 13
 2.038693e+000 -2.270254e+000 -1.170608e+001 -1.898837e+001 -4.835749e+000 -9.543733e+000 -1.039912e+001 -8.619086e+000 -1.278897e+000 -1.446888e+000 -6.354327e+000 -2.947994e+000 8.143314e-001
<VARIANCE> 13
 3.166861e+001 4.198763e+001 3.080060e+001 7.621571e+001 6.170923e+001 2.795221e+001 3.075197e+001 4.065256e+001 4.056189e+001 3.897756e+001 5.837056e+001 3.408373e+001 2.608132e-002
<GCONST> 6.474506e+001
<MIXTURE> 2 4.615748e-001
<MEAN> 13
 1.515042e+000 -4.166430e+000 -1.314331e+001 -2.044236e+001 -2.940508e+000 -9.667024e+000 -1.193965e+001 -9.699991e+000 -3.403200e+000 -4.316002e+000 -1.015154e+001 -4.907543e+000 7.891529e-001
<VARIANCE> 13
 2.922366e+001 3.866597e+001 2.818043e+001 7.033271e+001 6.942897e+001 3.081078e+001 3.470216e+001 3.674536e+001 3.355164e+001 4.259826e+001 5.195280e+001 3.309904e+001 2.700788e-002
<GCONST> 6.443630e+001
<STATE> 3
<NUMMIXES> 2
<MIXTURE> 1 5.146283e-001
<MEAN> 13
 2.282872e+000 -1.169854e+000 -1.144754e+001 -1.779361e+001 -6.114408e+000 -8.702180e+000 -1.027333e+001 -8.929883e+000 -2.339331e+000 -2.080129e+000 -4.946228e+000 -3.787555e+000 7.313447e-001
<VARIANCE> 13
 1.590594e+001 3.508292e+001 3.362360e+001 6.124861e+001 5.754334e+001 2.306393e+001 2.582562e+001 3.101856e+001 3.593937e+001 3.233739e+001 4.689185e+001 3.074481e+001 3.098450e-002
<GCONST> 6.258109e+001
<MIXTURE> 2 4.853703e-001
<MEAN> 13
 1.755092e+000 -3.375252e+000 -1.313526e+001 -1.915572e+001 -4.161478e+000 -8.528306e+000 -1.188315e+001 -1.035555e+001 -4.371031e+000 -4.642117e+000 -8.646524e+000 -6.208871e+000 7.078730e-001
<VARIANCE> 13
 1.483442e+001 3.227798e+001 3.044449e+001 5.753135e+001 6.613824e+001 2.416338e+001 2.972199e+001 2.815562e+001 2.921554e+001 3.644662e+001 4.451665e+001 2.865731e+001 3.028353e-002
<GCONST> 6.226286e+001
<STATE> 4
<NUMMIXES> 2
<MIXTURE> 1 4.990426e-001
<MEAN> 13
 8.589506e-001 -1.583652e-001 -1.004449e+001 -1.542234e+001 -7.551425e+000 -8.380751e+000 -9.641318e+000 -8.507877e+000 -2.988849e+000 -2.716805e+000 -3.758850e+000 -4.258364e+000 6.184605e-001
<VARIANCE> 13
 1.494613e+001 2.682851e+001 3.856195e+001 5.178593e+001 4.617035e+001 2.099310e+001 2.228948e+001 2.490718e+001 3.069307e+001 2.812834e+001 3.566729e+001 2.918801e+001 3.432943e-002
<GCONST> 6.101856e+001
<MIXTURE> 2 5.009581e-001
<MEAN> 13
 5.071587e-001 -2.378121e+000 -1.204872e+001 -1.684631e+001 -5.927480e+000 -7.973147e+000 -1.114210e+001 -1.030133e+001 -4.923242e+000 -5.084193e+000 -7.268310e+000 -6.943995e+000 6.025038e-001
<VARIANCE> 13
 1.474868e+001 2.565716e+001 3.521882e+001 4.916504e+001 5.604063e+001 2.108740e+001 2.573129e+001 2.326056e+001 2.577233e+001 3.159981e+001 3.618389e+001 2.488960e+001 3.314034e-002
<GCONST> 6.085287e+001
<TRANSP> 5
 0.000000e+000 1.000000e+000 0.000000e+000 0.000000e+000 0.000000e+000
 0.000000e+000 9.114767e-001 8.852323e-002 0.000000e+000 0.000000e+000
 0.000000e+000 0.000000e+000 9.114770e-001 8.852304e-002 0.000000e+000
 0.000000e+000 0.000000e+000 0.000000e+000 9.114769e-001 8.852308e-002
 0.000000e+000 0.000000e+000 0.000000e+000 0.000000e+000 0.000000e+000
<ENDHMM>
~h "ath"
<BEGINHMM>
<NUMSTATES> 5
<STATE> 2
<NUMMIXES> 2
<MIXTURE> 1 4.859105e-001
<MEAN> 13
 1.182920e+000 -1.742900e+001 -1.150321e+001 -1.059722e+001 4.109514e-001 -1.936401e+000 -7.477212e+000 -5.841298e+000 -3.610576e+000 -9.325706e+000 -9.940700e+000 -4.463619e+000 7.740906e-001
<VARIANCE> 13
 1.823612e+001 6.138549e+001 3.328836e+001 3.800306e+001 6.923487e+001 3.684885e+001 3.721806e+001 3.206491e+001 6.314864e+001 4.046397e+001 3.358936e+001 3.945850e+001 3.331174e-002
<GCONST> 6.461826e+001
<MIXTURE> 2 5.140897e-001
<MEAN> 13
 8.669724e-001 -1.782954e+001 -1.146554e+001 -9.942160e+000 4.944175e-001 -4.417703e+000 -9.046829e+000 -7.863436e+000 -7.277376e+000 -1.170668e+001 -1.166933e+001 -5.497306e+000 7.627577e-001
<VARIANCE> 13
 1.782980e+001 5.412914e+001 3.046784e+001 3.979049e+001 5.988425e+001 3.260042e+001 3.121508e+001 3.380345e+001 4.893129e+001 3.650654e+001 3.223623e+001 3.024412e+001 3.491210e-002
<GCONST> 6.341853e+001
<STATE> 3
<NUMMIXES> 2
<MIXTURE> 1 4.700234e-001
<MEAN> 13
 4.655254e-001 -1.521241e+001 -1.199050e+001 -9.103492e+000 -2.128367e-001 -1.889130e+000 -6.785368e+000 -5.995352e+000 -4.377735e+000 -9.594232e+000 -9.317167e+000 -4.859326e+000 6.813371e-001
<VARIANCE> 13
 1.491927e+001 6.466777e+001 3.476766e+001 3.206877e+001 4.777595e+001 3.432914e+001 2.996500e+001 3.113592e+001 5.196426e+001 3.680569e+001 2.789428e+001 2.996251e+001 3.478977e-002
<GCONST> 6.294794e+001
<MIXTURE> 2 5.299750e-001
<MEAN> 13
 2.005686e-001 -1.589485e+001 -1.209211e+001 -8.512376e+000 -1.015177e-001 -4.305977e+000 -8.642445e+000 -8.149193e+000 -7.584653e+000 -1.176868e+001 -1.075924e+001 -5.808386e+000 6.733780e-001
<VARIANCE> 13
 1.531664e+001 5.832099e+001 2.965134e+001 3.290448e+001 4.361885e+001 3.040881e+001 2.531422e+001 3.253709e+001 4.145402e+001 3.244722e+001 2.733352e+001 2.423955e+001 3.742294e-002
<GCONST> 6.188922e+001
<STATE> 4
<NUMMIXES> 2
<MIXTURE> 1 4.596961e-001
<MEAN> 13
 -8.589705e-001 -1.239219e+001 -1.183681e+001 -7.912814e+000 -3.072278e-001 -1.792967e+000 -6.386273e+000 -6.347845e+000 -5.049896e+000 -9.663341e+000 -8.585227e+000 -5.007954e+000 5.782631e-001
<VARIANCE> 13
 1.304538e+001 6.598109e+001 3.654335e+001 2.582219e+001 3.482445e+001 2.975527e+001 2.540387e+001 2.931788e+001 4.211755e+001 3.068682e+001 2.470176e+001 2.410779e+001 3.508869e-002
<GCONST> 6.126019e+001
<MIXTURE> 2 5.403028e-001
<MEAN> 13
 -1.089578e+000 -1.318069e+001 -1.208152e+001 -7.499743e+000 -3.044837e-001 -3.866742e+000 -8.442014e+000 -8.583414e+000 -7.759029e+000 -1.161111e+001 -9.870640e+000 -5.949711e+000 5.678073e-001
<VARIANCE> 13
 1.385461e+001 6.039679e+001 3.023378e+001 2.522841e+001 3.417805e+001 2.647030e+001 2.216949e+001 3.005139e+001 3.496919e+001 2.674702e+001 2.450472e+001 2.078001e+001 3.924173e-002
<GCONST> 6.040385e+001
<TRANSP> 5
 0.000000e+000 1.000000e+000 0.000000e+000 0.000000e+000 0.000000e+000
 0.000000e+000 9.076815e-001 9.231846e-002 0.000000e+000 0.000000e+000
 0.000000e+000 0.000000e+000 9.076816e-001 9.231839e-002 0.000000e+000
 0.000000e+000 0.000000e+000 0.000000e+000 9.076816e-001 9.231836e-002
 0.000000e+000 0.000000e+000 0.000000e+000 0.000000e+000 0.000000e+000
<ENDHMM>
~h "tin"
<BEGINHMM>
<NUMSTATES> 5
<STATE> 2
<NUMMIXES> 2
<MIXTURE> 1 4.134319e-001
<MEAN> 13
 -2.127280e+000 2.871382e+000 1.204202e+001 -1.282256e+001 -1.737443e+001 -9.050714e+000 -1.371619e+001 -9.229152e+000 -5.461379e+000 -7.881734e+000 -7.687690e+000 -3.902961e+000 7.981363e-001
<VARIANCE> 13
 1.480810e+001 1.937419e+001 5.991681e+001 1.469310e+002 6.220869e+001 3.547579e+001 4.171581e+001 4.314018e+001 2.917189e+001 3.498838e+001 9.356630e+001 2.186603e+001 2.986028e-002
<GCONST> 6.486972e+001
<MIXTURE> 2 5.865676e-001
<MEAN> 13
 -3.553579e+000 2.781036e+000 1.010947e+001 -1.968086e+001 -1.719470e+001 -8.548507e+000 -1.600168e+001 -1.164172e+001 -7.698071e+000 -9.133691e+000 -1.360736e+001 -4.351103e+000 8.006917e-001
<VARIANCE> 13
 1.788737e+001 1.854325e+001 4.236396e+001 1.186683e+002 4.409896e+001 3.271293e+001 4.661864e+001 3.786423e+001 3.128749e+001 3.822480e+001 5.618797e+001 1.851895e+001 3.028145e-002
<GCONST> 6.350643e+001
<STATE> 3
<NUMMIXES> 2
<MIXTURE> 1 4.067063e-001
<MEAN> 13
 -1.942558e+000 3.347813e+000 9.240611e+000 -9.683077e+000 -1.474141e+001 -9.964349e+000 -1.368231e+001 -9.806596e+000 -5.596750e+000 -8.404016e+000 -7.391118e+000 -3.983891e+000 7.264333e-001
<VARIANCE> 13
 1.062491e+001 1.677744e+001 5.021519e+001 1.166352e+002 5.147451e+001 3.149083e+001 3.460386e+001 3.654118e+001 2.800770e+001 2.773436e+001 6.181810e+001 1.949704e+001 3.362039e-002
<GCONST> 6.264118e+001
<MIXTURE> 2 5.932940e-001
<MEAN> 13
 -2.927852e+000 2.928517e+000 7.677268e+000 -1.559387e+001 -1.559073e+001 -9.763062e+000 -1.577404e+001 -1.242228e+001 -7.646428e+000 -1.022690e+001 -1.215447e+001 -4.839700e+000 7.276567e-001
<VARIANCE> 13
 1.190334e+001 1.713692e+001 3.541201e+001 1.071859e+002 3.878392e+001 2.955559e+001 4.109453e+001 3.085993e+001 2.926250e+001 2.980974e+001 4.464333e+001 1.758341e+001 3.543202e-002
<GCONST> 6.173835e+001
<STATE> 4
<NUMMIXES> 2
<MIXTURE> 1 3.995612e-001
<MEAN> 13
 -2.717886e+000 3.467372e+000 6.243429e+000 -7.105659e+000 -1.209257e+001 -1.012457e+001 -1.287019e+001 -1.017700e+001 -6.195570e+000 -8.599155e+000 -6.733190e+000 -4.077442e+000 6.238207e-001
<VARIANCE> 13
 9.111343e+000 1.501877e+001 3.950902e+001 7.691112e+001 4.165990e+001 2.675061e+001 3.096901e+001 2.890382e+001 2.628367e+001 2.416387e+001 4.066703e+001 1.913465e+001 3.864617e-002
<GCONST> 6.050088e+001
<MIXTURE> 2 6.004379e-001
<MEAN> 13
 -3.330708e+000 2.888038e+000 5.114655e+000 -1.153209e+001 -1.352088e+001 -1.044721e+001 -1.488212e+001 -1.267542e+001 -8.095699e+000 -1.079418e+001 -1.054609e+001 -5.288138e+000 6.257915e-001
<VARIANCE> 13
 9.008056e+000 1.583286e+001 2.854737e+001 8.056722e+001 3.632246e+001 2.516975e+001 3.634245e+001 2.470726e+001 2.753647e+001 2.499949e+001 3.461853e+001 1.756462e+001 4.096996e-002
<GCONST> 5.996115e+001
<TRANSP> 5
 0.000000e+000 1.000000e+000 0.000000e+000 0.000000e+000 0.000000e+000
 0.000000e+000 9.140209e-001 8.597916e-002 0.000000e+000 0.000000e+000
 0.000000e+000 0.000000e+000 9.140210e-001 8.597903e-002 0.000000e+000
 0.000000e+000 0.000000e+000 0.000000e+000 9.140210e-001 8.597898e-002
 0.000000e+000 0.000000e+000 0.000000e+000 0.000000e+000 0.000000e+000
<ENDHMM>
~h "sat"
<BEGINHMM>
<NUMSTATES> 5
<STATE> 2
<NUMMIXES> 2
<MIXTURE> 1 5.222657e-001
<MEAN> 13
 1.278278e-001 -1.521722e+001 -1.367290e+001 -1.147462e+001 6.592184e-002 -5.782299e+000 -5.019895e+000 -4.867615e+000 -1.012114e+000 -1.004030e+001 -1.103306e+001 -2.091587e+000 7.828522e-001
<VARIANCE> 13
 2.123694e+001 6.726785e+001 2.888977e+001 3.218718e+001 5.639015e+001 3.152967e+001 4.593312e+001 3.775270e+001 7.222179e+001 4.395429e+001 3.199063e+001 6.097995e+001 2.971014e-002
<GCONST> 6.505596e+001
<MIXTURE> 2 4.777340e-001
<MEAN> 13
 -1.797435e-001 -1.573469e+001 -1.373621e+001 -1.096025e+001 -1.753191e-001 -7.376600e+000 -6.841309e+000 -6.698936e+000 -4.188639e+000 -1.274002e+001 -1.257777e+001 -2.193412e+000 7.700863e-001
<VARIANCE> 13
 2.055509e+001 6.243458e+001 2.701340e+001 3.226551e+001 4.727309e+001 2.606495e+001 3.823232e+001 3.370833e+001 5.669626e+001 3.950392e+001 3.244205e+001 4.323971e+001 3.113881e-002
<GCONST> 6.358894e+001
<STATE> 3
<NUMMIXES> 2
<MIXTURE> 1 5.069411e-001
<MEAN> 13
 6.378996e-002 -1.343276e+001 -1.436011e+001 -1.042422e+001 3.130973e-001 -4.828313e+000 -5.101445e+000 -5.016586e+000 -2.104077e+000 -9.867324e+000 -1.028058e+001 -2.880522e+000 6.884363e-001
<VARIANCE> 13
 1.338379e+001 6.182016e+001 2.550295e+001 2.797416e+001 4.062393e+001 2.895249e+001 3.589039e+001 3.173262e+001 6.012801e+001 4.298141e+001 2.823447e+001 4.929776e+001 3.327809e-002
<GCONST> 6.298139e+001
<MIXTURE> 2 4.930583e-001
<MEAN> 13
 -2.506645e-001 -1.422072e+001 -1.441215e+001 -9.591261e+000 1.082459e-001 -6.425376e+000 -7.170023e+000 -6.909965e+000 -5.241320e+000 -1.283313e+001 -1.159878e+001 -3.017160e+000 6.730896e-001
<VARIANCE> 13
 1.263367e+001 5.628573e+001 2.331237e+001 2.790276e+001 3.558469e+001 2.425576e+001 3.031946e+001 2.862568e+001 4.692627e+001 3.807498e+001 2.894520e+001 3.552652e+001 3.408252e-002
<GCONST> 6.150843e+001
<STATE> 4
<NUMMIXES> 2
<MIXTURE> 1 4.890364e-001
<MEAN> 13
 -1.018125e+000 -1.088927e+001 -1.395304e+001 -9.073011e+000 1.680713e-001 -3.824221e+000 -5.010167e+000 -5.162979e+000 -3.028476e+000 -9.749847e+000 -9.422429e+000 -3.783149e+000 5.775702e-001
<VARIANCE> 13
 1.203155e+001 5.664249e+001 2.738696e+001 2.519931e+001 3.075641e+001 2.667978e+001 3.004293e+001 2.796604e+001 5.017560e+001 3.897814e+001 2.608145e+001 3.808822e+001 3.371149e-002
<GCONST> 6.148694e+001
<MIXTURE> 2 5.109648e-001
<MEAN> 13
 -1.311281e+000 -1.206743e+001 -1.419911e+001 -8.260174e+000 2.545515e-002 -5.372828e+000 -7.379818e+000 -7.308014e+000 -6.105774e+000 -1.274590e+001 -1.061660e+001 -3.857331e+000 5.634373e-001
<VARIANCE> 13
 1.108664e+001 5.099759e+001 2.345953e+001 2.362280e+001 2.951275e+001 2.319434e+001 2.543783e+001 2.524860e+001 3.903488e+001 3.473938e+001 2.691115e+001 2.927188e+001 3.372772e-002
<GCONST> 6.003321e+001
<TRANSP> 5
 0.000000e+000 1.000000e+000 0.000000e+000 0.000000e+000 0.000000e+000
 0.000000e+000 9.117438e-001 8.825628e-002 0.000000e+000 0.000000e+000
 0.000000e+000 0.000000e+000 9.117441e-001 8.825596e-002 0.000000e+000
 0.000000e+000 0.000000e+000 0.000000e+000 9.117439e-001 8.825616e-002
 0.000000e+000 0.000000e+000 0.000000e+000 0.000000e+000 0.000000e+000
<ENDHMM>
