~o
<STREAMINFO> 1 13
<VECSIZE> 13<NULLD><MFCC_E><DIAGC>
~h "don"
<BEGINHMM>
<NUMSTATES> 5
<STATE> 2
<NUMMIXES> 2
<MIXTURE> 1 6.597153e-001
<MEAN> 13
 3.982810e+000 -4.904272e+000 -6.055686e+000 -2.285243e+001 -5.635902e+000 -6.591168e+000 -1.511740e+001 -6.996657e+000 -3.299627e+000 2.662784e+000 7.236462e-001 1.817348e-001 9.346715e-001
<VARIANCE> 13
 8.672924e+000 3.892761e+001 6.737610e+001 8.605906e+001 6.227959e+001 1.217270e+002 3.043646e+001 2.887714e+001 6.913927e+001 6.082967e+001 1.199180e+002 6.951486e+001 2.665331e-003
<GCONST> 6.553687e+001
<MIXTURE> 2 3.402852e-001
<MEAN> 13
 2.890062e+000 -6.312993e+000 -1.048625e+001 -2.521374e+001 2.928251e+000 -9.150521e+000 -1.461162e+001 -6.023853e+000 -1.545615e+001 -2.935103e+000 -1.076814e+001 2.741171e-001 8.539950e-001
<VARIANCE> 13
 6.711255e+000 3.765301e+001 1.418080e+001 2.524931e+001 3.224990e+001 5.661277e+001 5.756535e+001 6.060362e+001 6.850473e+001 4.272029e+001 3.056892e+001 6.397059e+001 5.804490e-003
<GCONST> 6.138317e+001
<STATE> 3
<NUMMIXES> 2
<MIXTURE> 1 4.023326e-001
<MEAN> 13
 6.682711e+000 -1.508634e+000 -4.982885e+000 -1.051479e+001 -1.026242e+001 -7.203587e+000 -1.189572e+001 -1.235282e+001 -4.576879e+000 -2.149235e+000 1.731164e+000 -1.795218e+000 8.222688e-001
<VARIANCE> 13
 3.770817e+000 2.253064e+001 2.584851e+001 5.700956e+001 2.571897e+001 4.479707e+001 2.173892e+001 1.781940e+001 2.937045e+001 4.087960e+001 6.696365e+001 2.283013e+001 1.380902e-002
<GCONST> 5.877922e+001
<MIXTURE> 2 5.976660e-001
<MEAN> 13
 5.013550e+000 -2.024113e+000 -1.208928e+001 -1.605860e+001 -3.969518e+000 -1.073376e+001 -1.472452e+001 -1.356921e+001 -9.307343e+000 -7.078715e+000 -6.559257e+000 -3.360522e+000 7.286518e-001
<VARIANCE> 13
 4.796137e+000 1.992551e+001 1.031775e+001 2.237395e+001 1.880928e+001 2.717198e+001 1.887153e+001 2.262740e+001 4.631921e+001 2.440893e+001 2.703882e+001 2.991327e+001 1.670547e-002
<GCONST> 5.582139e+001
<STATE> 4
<NUMMIXES> 2
<MIXTURE> 1 4.780845e-001
<MEAN> 13
 -6.441661e-001 2.882790e+000 -3.958930e+000 -1.041332e+001 -1.025037e+001 -1.065155e+001 -9.880693e+000 -9.990856e+000 -5.867066e+000 -3.234816e+000 2.136697e-001 -1.136392e+000 5.067093e-001
<VARIANCE> 13
 8.030011e+000 9.130847e+000 1.922983e+001 2.356997e+001 1.645243e+001 2.292730e+001 2.190225e+001 1.994631e+001 2.245455e+001 1.549797e+001 2.271116e+001 2.133709e+001 2.071839e-002
<GCONST> 5.447489e+001
<MIXTURE> 2 5.219141e-001
<MEAN> 13
 -4.162416e-001 2.743774e+000 -5.693635e+000 -1.107378e+001 -8.290574e+000 -9.323884e+000 -1.187288e+001 -1.511589e+001 -1.340332e+001 -1.034873e+001 -4.427023e+000 -3.289374e+000 5.146232e-001
<VARIANCE> 13
 7.361107e+000 9.849594e+000 2.508150e+001 2.362844e+001 1.275212e+001 2.191197e+001 1.541120e+001 1.862794e+001 2.537775e+001 1.878888e+001 1.932756e+001 2.338365e+001 2.091325e-002
<GCONST> 5.426645e+001
<TRANSP> 5
 0.000000e+000 1.000000e+000 0.000000e+000 0.000000e+000 0.000000e+000
 0.000000e+000 9.530723e-001 4.692768e-002 0.000000e+000 0.000000e+000
 0.000000e+000 0.000000e+000 9.596682e-001 4.033187e-002 0.000000e+000
 0.000000e+000 0.000000e+000 0.000000e+000 9.641700e-001 3.583001e-002
 0.000000e+000 0.000000e+000 0.000000e+000 0.000000e+000 0.000000e+000
<ENDHMM>
~h "sil"
<BEGINHMM>
<NUMSTATES> 5
<STATE> 2
<NUMMIXES> 2
<MIXTURE> 1 3.361689e-001
<MEAN> 13
 -9.981748e+000 -2.026807e-001 -3.891049e+000 -4.500243e+000 -5.342754e+000 -5.188841e+000 -4.949147e+000 -5.574984e+000 -3.805676e+000 -5.844891e+000 -3.412395e+000 -2.897004e+000 1.966740e-001
<VARIANCE> 13
 3.087043e+001 1.806806e+001 2.110970e+001 2.250701e+001 2.536894e+001 2.547023e+001 2.496539e+001 2.448981e+001 2.111534e+001 2.278687e+001 2.103705e+001 2.271774e+001 3.084499e-002
<GCONST> 5.813353e+001
<MIXTURE> 2 6.638244e-001
<MEAN> 13
 -7.148485e+000 -7.863054e-001 -3.488480e+000 -5.211348e+000 -5.347070e+000 -5.722884e+000 -7.351810e+000 -8.449877e+000 -8.097673e+000 -9.433261e+000 -7.116015e+000 -5.795219e+000 2.578925e-001
<VARIANCE> 13
 5.211488e+000 8.198469e+000 1.231933e+001 1.236316e+001 1.534668e+001 1.620326e+001 1.562922e+001 1.771403e+001 1.888468e+001 1.770262e+001 1.781565e+001 1.655425e+001 2.111528e-002
<GCONST> 5.145374e+001
<STATE> 3
<NUMMIXES> 2
<MIXTURE> 1 5.059720e-001
<MEAN> 13
 -1.465275e+001 3.161651e+000 -2.876593e+000 -4.497200e+000 -7.653424e+000 -9.464106e+000 -1.622521e+000 -6.634066e+000 -2.168441e+000 -7.924973e+000 -4.715544e+000 -4.041465e+000 4.452834e-001
<VARIANCE> 13
 8.528675e+001 4.584650e+001 7.012693e+001 6.886439e+001 8.108669e+001 6.720570e+001 6.213397e+001 4.458070e+001 4.715612e+001 4.166221e+001 3.793876e+001 2.887936e+001 3.553305e-002
<GCONST> 6.842091e+001
<MIXTURE> 2 4.940288e-001
<MEAN> 13
 -3.037061e+000 4.257052e+000 1.772467e+000 -4.235283e+000 -8.408969e+000 -9.423678e+000 -9.559115e+000 -1.018165e+001 -8.359739e+000 -1.107203e+001 -9.130725e+000 -6.765800e+000 5.261539e-001
<VARIANCE> 13
 2.601139e+001 3.091598e+001 2.912054e+001 1.882836e+001 2.926822e+001 2.857059e+001 2.294147e+001 2.298547e+001 2.258285e+001 2.979438e+001 3.143412e+001 2.119666e+001 6.066716e-002
<GCONST> 6.009660e+001
<STATE> 4
<NUMMIXES> 2
<MIXTURE> 1 5.128139e-001
<MEAN> 13
 -3.582884e+000 -5.847870e+000 -4.038682e+000 -1.174840e+001 -1.079593e+001 -1.321265e+001 -5.722410e+000 -4.890087e+000 -1.281967e-001 -9.143269e+000 -1.088461e+001 -2.373700e+000 7.294138e-001
<VARIANCE> 13
 2.008683e+001 5.013413e+001 1.029636e+002 6.894193e+001 1.232655e+002 1.078878e+002 7.931741e+001 6.080116e+001 7.564249e+001 8.063859e+001 6.827622e+001 6.523222e+001 4.354810e-002
<GCONST> 7.163493e+001
<MIXTURE> 2 4.871859e-001
<MEAN> 13
 -6.424470e+000 -3.649689e+000 -5.808151e+000 -6.145542e+000 -3.863030e+000 -4.772116e+000 -6.978985e+000 -7.659730e+000 -6.668621e+000 -8.984688e+000 -6.230372e+000 -3.918520e+000 2.624370e-001
<VARIANCE> 13
 6.415942e+000 2.136135e+001 3.058528e+001 2.042827e+001 4.122849e+001 2.483111e+001 2.294684e+001 1.844328e+001 2.365817e+001 2.612875e+001 2.595979e+001 1.955869e+001 2.704326e-002
<GCONST> 5.727571e+001
<TRANSP> 5
 0.000000e+000 1.000000e+000 0.000000e+000 0.000000e+000 0.000000e+000
 0.000000e+000 9.041179e-001 9.588209e-002 0.000000e+000 0.000000e+000
 0.000000e+000 0.000000e+000 6.619388e-001 3.380612e-001 0.000000e+000
 0.000000e+000 0.000000e+000 0.000000e+000 4.919546e-001 5.080455e-001
 0.000000e+000 0.000000e+000 0.000000e+000 0.000000e+000 0.000000e+000
<ENDHMM>
~h "nav"
<BEGINHMM>
<NUMSTATES> 5
<STATE> 2
<NUMMIXES> 2
<MIXTURE> 1 3.237845e-001
<MEAN> 13
 6.870498e+000 -9.219751e+000 -1.188052e+001 -1.582826e+001 -6.831508e+000 -3.619989e+000 -1.081968e+001 -8.297851e+000 -3.156043e-001 -4.520306e+000 -6.627629e+000 -7.238416e+000 9.424977e-001
<VARIANCE> 13
 4.562130e+000 2.138180e+001 3.473638e+001 7.132928e+001 3.088884e+001 3.433762e+001 3.758693e+001 3.281248e+001 4.180054e+001 5.305334e+001 5.873249e+001 2.943655e+001 1.681369e-003
<GCONST> 5.914322e+001
<MIXTURE> 2 6.762137e-001
<MEAN> 13
 2.980926e+000 -1.032783e+001 -1.000844e+001 -2.392449e+001 3.376443e+000 -4.344820e+000 -1.241193e+001 -2.068145e+000 -1.390922e+001 -1.087173e+001 -1.473833e+001 -8.125595e+000 9.269646e-001
<VARIANCE> 13
 8.552420e+000 2.151073e+001 2.156890e+001 2.485889e+001 4.069907e+001 3.647121e+001 3.922791e+001 4.482595e+001 4.520642e+001 3.731878e+001 3.079027e+001 3.801184e+001 2.848653e-003
<GCONST> 5.880146e+001
<STATE> 3
<NUMMIXES> 2
<MIXTURE> 1 3.830837e-001
<MEAN> 13
 6.926055e+000 1.251140e+000 -1.143041e+001 -1.560358e+001 -7.654075e+000 -2.891653e+000 -5.422083e+000 -9.260850e+000 -4.912705e+000 -5.235465e+000 -5.560716e+000 -6.541055e+000 8.485980e-001
<VARIANCE> 13
 5.846247e+000 1.318318e+001 1.315273e+001 1.522021e+001 2.176292e+001 1.654479e+001 1.682271e+001 1.775977e+001 2.429912e+001 3.023287e+001 2.909346e+001 1.551982e+001 8.189493e-003
<GCONST> 5.302944e+001
<MIXTURE> 2 6.169156e-001
<MEAN> 13
 5.015250e+000 -3.385871e+000 -1.446970e+001 -1.941009e+001 -3.769441e+000 -2.719150e+000 -9.160076e+000 -1.299838e+001 -1.371814e+001 -1.331056e+001 -1.116362e+001 -7.787179e+000 7.760780e-001
<VARIANCE> 13
 5.698121e+000 1.469083e+001 1.025055e+001 1.382056e+001 2.970234e+001 1.321925e+001 2.010255e+001 2.346680e+001 1.777884e+001 2.091567e+001 3.486203e+001 2.940595e+001 1.168449e-002
<GCONST> 5.380419e+001
<STATE> 4
<NUMMIXES> 2
<MIXTURE> 1 3.943460e-001
<MEAN> 13
 -1.883606e-001 1.723466e+000 -6.260833e+000 -1.164413e+001 -6.105016e+000 -3.097276e+000 -3.888673e+000 -5.854258e+000 -5.653195e+000 -5.974085e+000 -4.279190e+000 -5.485270e+000 5.727499e-001
<VARIANCE> 13
 6.619236e+000 1.442071e+001 2.227952e+001 1.708619e+001 3.489680e+001 3.077681e+001 2.400386e+001 1.868362e+001 2.052867e+001 2.107713e+001 2.032047e+001 1.441117e+001 9.309927e-003
<GCONST> 5.455097e+001
<MIXTURE> 2 6.056523e-001
<MEAN> 13
 -1.071342e+000 -2.269656e-001 -7.711687e+000 -1.163176e+001 -5.844144e+000 -3.732133e+000 -6.777871e+000 -1.204704e+001 -1.372559e+001 -1.503809e+001 -1.038857e+001 -9.065295e+000 5.487069e-001
<VARIANCE> 13
 8.172037e+000 1.392235e+001 2.634487e+001 2.111685e+001 2.694431e+001 2.662430e+001 1.991757e+001 1.651960e+001 1.745083e+001 1.843950e+001 2.568113e+001 1.959244e+001 2.055305e-002
<GCONST> 5.542974e+001
<TRANSP> 5
 0.000000e+000 1.000000e+000 0.000000e+000 0.000000e+000 0.000000e+000
 0.000000e+000 9.533578e-001 4.664223e-002 0.000000e+000 0.000000e+000
 0.000000e+000 0.000000e+000 9.496545e-001 5.034545e-002 0.000000e+000
 0.000000e+000 0.000000e+000 0.000000e+000 9.571168e-001 4.288315e-002
 0.000000e+000 0.000000e+000 0.000000e+000 0.000000e+000 0.000000e+000
<ENDHMM>
~h "char"
<BEGINHMM>
<NUMSTATES> 5
<STATE> 2
<NUMMIXES> 2
<MIXTURE> 1 4.250829e-001
<MEAN> 13
 1.238705e-001 -2.036817e+001 -8.834456e+000 -1.463436e+001 -5.169907e+000 -6.723177e+000 -4.800884e+000 -1.028250e+000 2.591769e+000 -9.126896e+000 -9.656251e+000 -6.500909e+000 9.356263e-001
<VARIANCE> 13
 1.999620e+001 2.920493e+001 2.347501e+001 2.067494e+001 9.340108e+001 3.152352e+001 7.409323e+001 3.862788e+001 9.720060e+001 2.690784e+001 2.475789e+001 9.752193e+001 2.629237e-003
<GCONST> 6.211143e+001
<MIXTURE> 2 5.749145e-001
<MEAN> 13
 -1.766539e+000 -1.959012e+001 -8.330227e+000 -1.600863e+001 1.547676e+000 -1.058486e+001 -2.705233e-001 -6.838303e+000 -6.566267e+000 -1.424806e+001 -1.467514e+001 1.927533e+000 9.142246e-001
<VARIANCE> 13
 1.384246e+001 3.561393e+001 1.288127e+001 2.274077e+001 3.825160e+001 2.608222e+001 2.996326e+001 3.505960e+001 3.188512e+001 3.585754e+001 3.645671e+001 2.523903e+001 5.481230e-003
<GCONST> 5.829506e+001
<STATE> 3
<NUMMIXES> 2
<MIXTURE> 1 4.464036e-001
<MEAN> 13
 2.523904e+000 -1.176894e+001 -1.246443e+001 -1.034851e+001 -4.944153e+000 -5.567469e+000 -7.163604e+000 -3.184704e+000 3.172893e+000 -7.306693e+000 -1.227630e+001 -8.083309e+000 7.080117e-001
<VARIANCE> 13
 5.936085e+000 2.845444e+001 1.207716e+001 1.123693e+001 2.783856e+001 2.578376e+001 3.021537e+001 2.552947e+001 4.620504e+001 3.594738e+001 2.232974e+001 3.555492e+001 1.140796e-002
<GCONST> 5.677533e+001
<MIXTURE> 2 5.535953e-001
<MEAN> 13
 1.434883e+000 -1.489339e+001 -1.239400e+001 -1.008650e+001 -1.991738e+000 -7.248262e+000 -6.858929e+000 -4.722867e+000 -8.903931e+000 -1.555051e+001 -1.180709e+001 -2.374577e+000 7.440988e-001
<VARIANCE> 13
 5.363367e+000 3.992535e+001 1.386820e+001 1.930181e+001 2.063482e+001 2.195374e+001 1.936446e+001 3.641150e+001 3.312500e+001 3.865841e+001 2.384160e+001 2.670130e+001 1.030587e-002
<GCONST> 5.655920e+001
<STATE> 4
<NUMMIXES> 2
<MIXTURE> 1 3.969384e-001
<MEAN> 13
 -1.929710e+000 -7.536694e+000 -1.363848e+001 -1.030913e+001 -2.136543e+000 -2.383022e+000 -3.140247e+000 -2.953367e+000 -2.055779e+000 -1.044631e+001 -1.089191e+001 -6.153839e+000 4.557450e-001
<VARIANCE> 13
 5.910887e+000 2.556994e+001 1.678357e+001 9.997229e+000 1.569436e+001 1.975006e+001 2.025579e+001 2.111574e+001 3.963716e+001 2.463888e+001 1.976158e+001 2.675062e+001 8.308930e-003
<GCONST> 5.419221e+001
<MIXTURE> 2 6.030604e-001
<MEAN> 13
 -2.563608e+000 -1.112328e+001 -1.295911e+001 -7.475931e+000 -1.665359e-001 -2.974163e+000 -5.582180e+000 -8.253250e+000 -9.824078e+000 -1.477046e+001 -8.713314e+000 -1.813441e+000 4.463629e-001
<VARIANCE> 13
 4.283822e+000 4.291970e+001 1.962812e+001 1.277491e+001 1.917093e+001 1.845087e+001 1.753765e+001 2.121140e+001 2.161732e+001 2.657421e+001 2.531396e+001 1.767110e+001 1.458915e-002
<GCONST> 5.464767e+001
<TRANSP> 5
 0.000000e+000 1.000000e+000 0.000000e+000 0.000000e+000 0.000000e+000
 0.000000e+000 9.627561e-001 3.724391e-002 0.000000e+000 0.000000e+000
 0.000000e+000 0.000000e+000 9.485004e-001 5.149963e-002 0.000000e+000
 0.000000e+000 0.000000e+000 0.000000e+000 9.581143e-001 4.188569e-002
 0.000000e+000 0.000000e+000 0.000000e+000 0.000000e+000 0.000000e+000
<ENDHMM>
~h "pach"
<BEGINHMM>
<NUMSTATES> 5
<STATE> 2
<NUMMIXES> 2
<MIXTURE> 1 4.949937e-001
<MEAN> 13
 4.461093e+000 -1.662393e+001 -1.273491e+001 -1.389941e+001 -2.327492e+000 -9.261003e-001 -1.087663e+001 -6.745265e+000 4.738729e-002 -9.685967e+000 -9.479980e+000 -9.068865e+000 9.190748e-001
<VARIANCE> 13
 9.980312e+000 2.399755e+001 2.911190e+001 3.555777e+001 4.584650e+001 3.362867e+001 6.060830e+001 5.558739e+001 4.230741e+001 4.401189e+001 6.360564e+001 3.586655e+001 3.079694e-003
<GCONST> 6.125534e+001
<MIXTURE> 2 5.050054e-001
<MEAN> 13
 -7.347577e-001 -2.177989e+001 -7.815416e+000 -1.793730e+001 8.589503e+000 -1.023393e+001 -6.663986e+000 -4.720140e+000 -9.456301e+000 -1.102629e+001 -1.448139e+001 -1.830238e+000 8.787872e-001
<VARIANCE> 13
 1.125543e+001 1.997400e+001 1.413135e+001 3.677372e+001 5.075998e+001 3.383070e+001 3.932946e+001 4.871935e+001 4.593250e+001 5.320657e+001 2.672028e+001 3.665396e+001 7.729406e-003
<GCONST> 6.039297e+001
<STATE> 3
<NUMMIXES> 2
<MIXTURE> 1 3.542477e-001
<MEAN> 13
 2.205074e+000 -7.550052e+000 -1.636141e+001 -1.100884e+001 6.347228e-001 3.617409e-001 -8.837496e+000 -1.061075e+001 -1.911891e+000 -8.324968e+000 -1.035993e+001 -9.219305e+000 6.903207e-001
<VARIANCE> 13
 1.408948e+001 1.193915e+001 1.621013e+001 1.423759e+001 1.668552e+001 4.274916e+001 2.873328e+001 2.471503e+001 2.306172e+001 2.862617e+001 2.309200e+001 2.090657e+001 5.503098e-003
<GCONST> 5.506414e+001
<MIXTURE> 2 6.457524e-001
<MEAN> 13
 -1.296961e+000 -1.309522e+001 -1.664468e+001 -7.073717e+000 1.940232e+000 -8.065182e+000 -9.535862e+000 -5.475435e+000 -8.934061e+000 -1.529386e+001 -1.099589e+001 -3.891306e+000 6.561170e-001
<VARIANCE> 13
 2.195780e+001 1.522775e+001 1.189242e+001 1.462332e+001 1.749269e+001 3.304051e+001 2.188599e+001 2.686714e+001 3.314589e+001 3.528091e+001 1.815068e+001 1.892857e+001 2.340877e-002
<GCONST> 5.674842e+001
<STATE> 4
<NUMMIXES> 2
<MIXTURE> 1 3.808244e-001
<MEAN> 13
 -9.273744e+000 1.939520e+000 -1.877803e+001 -5.287538e+000 -1.097860e-001 -4.157912e+000 -1.465055e+000 -1.170909e+001 -2.362349e+000 -1.087926e+001 -6.166244e+000 -9.188745e+000 5.156471e-001
<VARIANCE> 13
 1.029979e+001 3.102090e+001 3.477559e+001 1.941121e+001 2.720011e+001 3.819719e+001 4.215635e+001 3.902507e+001 3.698582e+001 3.666719e+001 2.517478e+001 2.762729e+001 1.221345e-002
<GCONST> 5.987737e+001
<MIXTURE> 2 6.191756e-001
<MEAN> 13
 -4.380957e+000 -6.475349e+000 -1.521729e+001 -4.474384e+000 2.498235e-001 -4.847968e+000 -9.259083e+000 -9.523729e+000 -8.164037e+000 -1.406581e+001 -1.003541e+001 -7.396283e+000 4.516867e-001
<VARIANCE> 13
 6.044340e+000 1.612346e+001 2.827919e+001 1.781423e+001 2.175882e+001 1.911444e+001 2.037161e+001 2.502040e+001 2.410494e+001 3.846208e+001 2.346301e+001 2.484576e+001 3.065001e-002
<GCONST> 5.667330e+001
<TRANSP> 5
 0.000000e+000 1.000000e+000 0.000000e+000 0.000000e+000 0.000000e+000
 0.000000e+000 9.648902e-001 3.510974e-002 0.000000e+000 0.000000e+000
 0.000000e+000 0.000000e+000 9.359899e-001 6.401010e-002 0.000000e+000
 0.000000e+000 0.000000e+000 0.000000e+000 9.599144e-001 4.008559e-002
 0.000000e+000 0.000000e+000 0.000000e+000 0.000000e+000 0.000000e+000
<ENDHMM>
~h "eka"
<BEGINHMM>
<NUMSTATES> 5
<STATE> 2
<NUMMIXES> 2
<MIXTURE> 1 3.721215e-001
<MEAN> 13
 -2.897763e+000 -5.964041e+000 2.063542e+001 -1.567486e+001 -2.955287e+001 -1.062956e+001 -9.995672e+000 -3.395821e+000 -5.086973e+000 -2.199353e+000 1.143756e+000 -3.714874e+000 8.973124e-001
<VARIANCE> 13
 9.918650e+000 3.301225e+001 5.251173e+001 7.955569e+001 4.129684e+001 3.891260e+001 6.351036e+001 5.618069e+001 4.537114e+001 4.289007e+001 1.006653e+002 3.728603e+001 6.998873e-003
<GCONST> 6.442500e+001
<MIXTURE> 2 6.278771e-001
<MEAN> 13
 -5.031180e+000 -1.026694e+000 1.380820e+001 -3.225944e+001 -1.906692e+001 -1.094360e+001 -1.097968e+001 -1.140832e+001 -1.065673e+000 4.102064e+000 -1.150298e+001 1.999447e+000 8.737658e-001
<VARIANCE> 13
 8.078175e+000 2.690438e+001 1.471185e+001 4.510045e+001 2.551831e+001 3.008135e+001 4.634619e+001 4.882408e+001 3.072800e+001 5.161829e+001 3.995384e+001 2.327346e+001 9.309028e-003
<GCONST> 5.966639e+001
<STATE> 3
<NUMMIXES> 2
<MIXTURE> 1 5.422620e-001
<MEAN> 13
 -2.389534e+000 -1.258439e+000 9.471155e+000 -1.421299e+001 -2.316247e+001 -1.296115e+001 -9.273489e+000 -8.191329e+000 -1.819388e+000 -4.558295e+000 -1.677380e+000 -2.183173e+000 6.766435e-001
<VARIANCE> 13
 4.137900e+000 2.208525e+001 4.344457e+001 6.185960e+001 3.127786e+001 3.537613e+001 2.460282e+001 3.279147e+001 5.326296e+001 3.173523e+001 5.940525e+001 3.708352e+001 7.162646e-003
<GCONST> 6.019718e+001
<MIXTURE> 2 4.577388e-001
<MEAN> 13
 -2.946790e+000 -2.264694e+000 4.341728e+000 -9.208534e+000 -1.596920e+001 -2.084629e+001 -8.249006e+000 -8.167066e+000 -2.357993e+000 -7.172677e+000 -6.793127e+000 -1.539439e+000 7.138926e-001
<VARIANCE> 13
 6.435626e+000 4.497794e+001 1.956046e+001 8.212560e+001 4.579060e+001 9.688042e+001 6.293942e+001 3.513742e+001 4.989922e+001 4.002277e+001 3.633831e+001 2.445778e+001 5.569452e-003
<GCONST> 6.223999e+001
<STATE> 4
<NUMMIXES> 2
<MIXTURE> 1 5.029492e-001
<MEAN> 13
 -4.183990e+000 -7.172245e-001 -7.179796e-001 -9.018616e+000 -1.486372e+001 -1.677305e+001 -1.034368e+001 -4.661713e+000 5.025853e-002 -3.971644e+000 -1.782545e+000 -7.664953e-001 4.636064e-001
<VARIANCE> 13
 4.279964e+000 1.233369e+001 1.229249e+001 5.097879e+001 2.360405e+001 2.637584e+001 2.292605e+001 1.814924e+001 2.415744e+001 2.526480e+001 2.265533e+001 1.856255e+001 1.236029e-002
<GCONST> 5.482613e+001
<MIXTURE> 2 4.970491e-001
<MEAN> 13
 -3.404956e+000 1.519655e+000 7.776213e-001 -6.759972e+000 -1.342430e+001 -1.630999e+001 -1.135619e+001 -7.489273e+000 -4.636456e+000 -7.474502e+000 -4.546262e+000 -4.059396e+000 5.089027e-001
<VARIANCE> 13
 4.616397e+000 9.129035e+000 1.086529e+001 2.631676e+001 1.775241e+001 1.866279e+001 1.534357e+001 1.828762e+001 1.705903e+001 2.254892e+001 1.858630e+001 1.578125e+001 1.208887e-002
<GCONST> 5.194737e+001
<TRANSP> 5
 0.000000e+000 1.000000e+000 0.000000e+000 0.000000e+000 0.000000e+000
 0.000000e+000 9.605392e-001 3.946087e-002 0.000000e+000 0.000000e+000
 0.000000e+000 0.000000e+000 9.498191e-001 5.018092e-002 0.000000e+000
 0.000000e+000 0.000000e+000 0.000000e+000 9.613128e-001 3.868716e-002
 0.000000e+000 0.000000e+000 0.000000e+000 0.000000e+000 0.000000e+000
<ENDHMM>
~h "dha"
<BEGINHMM>
<NUMSTATES> 5
<STATE> 2
<NUMMIXES> 2
<MIXTURE> 1 4.780313e-001
<MEAN> 13
 1.332991e+000 -1.998895e+001 -7.105340e+000 -1.296547e+001 -1.107937e+000 3.471386e-001 -6.729611e+000 -4.478246e+000 1.414438e+000 -7.137112e+000 -8.599611e+000 -6.697966e+000 8.566459e-001
<VARIANCE> 13
 1.108971e+001 4.118792e+001 3.665137e+001 3.355355e+001 1.253450e+002 4.446456e+001 5.166641e+001 4.436568e+001 1.246055e+002 3.653199e+001 3.318013e+001 9.929844e+001 1.353458e-002
<GCONST> 6.571511e+001
<MIXTURE> 2 5.219677e-001
<MEAN> 13
 1.039009e+000 -1.554569e+001 -1.131350e+001 -1.087790e+001 3.240874e+000 -7.163985e+000 -4.538411e+000 -9.386175e+000 -6.773489e+000 -1.562463e+001 -1.532577e+001 2.433751e-001 9.183434e-001
<VARIANCE> 13
 1.578845e+001 4.820695e+001 2.775350e+001 4.470030e+001 6.607732e+001 4.201944e+001 5.666208e+001 5.176928e+001 4.804435e+001 6.222601e+001 3.524872e+001 3.558043e+001 4.877601e-003
<GCONST> 6.337741e+001
<STATE> 3
<NUMMIXES> 2
<MIXTURE> 1 4.745811e-001
<MEAN> 13
 2.890807e+000 -1.151048e+001 -1.649934e+001 -9.733648e+000 2.316627e-002 -6.663734e-002 -4.680099e+000 -5.292187e+000 9.710217e-001 -6.877208e+000 -9.867775e+000 -8.088068e+000 6.683099e-001
<VARIANCE> 13
 4.933392e+000 3.739663e+001 1.496620e+001 1.230978e+001 3.760189e+001 4.193581e+001 2.333944e+001 2.877160e+001 3.381857e+001 3.278490e+001 2.673454e+001 3.355701e+001 9.421391e-003
<GCONST> 5.734433e+001
<MIXTURE> 2 5.254164e-001
<MEAN> 13
 1.040984e+000 -1.396157e+001 -1.656965e+001 -6.460952e+000 6.852138e+000 -1.027724e+000 -9.886626e+000 -9.725572e+000 -6.725245e+000 -1.303058e+001 -1.268460e+001 -4.530947e+000 6.486873e-001
<VARIANCE> 13
 5.440195e+000 4.759389e+001 1.398384e+001 1.906546e+001 3.298174e+001 2.011817e+001 2.129293e+001 2.923029e+001 2.291414e+001 3.287308e+001 1.732383e+001 2.094122e+001 1.252986e-002
<GCONST> 5.610443e+001
<STATE> 4
<NUMMIXES> 2
<MIXTURE> 1 4.982089e-001
<MEAN> 13
 -2.510285e+000 -5.662893e+000 -1.143427e+001 -8.945364e+000 -6.511057e-001 -7.603005e-002 -4.424526e+000 -6.253757e+000 -2.990440e+000 -6.786342e+000 -8.151690e+000 -8.357496e+000 4.030072e-001
<VARIANCE> 13
 4.905438e+000 1.353049e+001 1.047229e+001 7.567782e+000 1.995193e+001 2.884894e+001 2.753233e+001 2.348607e+001 2.613281e+001 2.746604e+001 2.268847e+001 2.873979e+001 1.463615e-002
<GCONST> 5.411951e+001
<MIXTURE> 2 5.017906e-001
<MEAN> 13
 -3.092577e+000 -1.029254e+001 -1.490316e+001 -5.942256e+000 6.113060e+000 -7.887010e-002 -1.093501e+001 -1.274469e+001 -7.427740e+000 -9.867050e+000 -8.358742e+000 -5.469079e+000 3.685949e-001
<VARIANCE> 13
 4.333730e+000 2.075535e+001 1.722522e+001 1.524869e+001 2.556108e+001 1.648223e+001 2.223555e+001 2.088982e+001 2.203491e+001 2.560126e+001 2.288361e+001 1.988363e+001 2.684536e-002
<GCONST> 5.498474e+001
<TRANSP> 5
 0.000000e+000 1.000000e+000 0.000000e+000 0.000000e+000 0.000000e+000
 0.000000e+000 9.553919e-001 4.460801e-002 0.000000e+000 0.000000e+000
 0.000000e+000 0.000000e+000 9.491072e-001 5.089274e-002 0.000000e+000
 0.000000e+000 0.000000e+000 0.000000e+000 9.498315e-001 5.016852e-002
 0.000000e+000 0.000000e+000 0.000000e+000 0.000000e+000 0.000000e+000
<ENDHMM>
~h "sa"
<BEGINHMM>
<NUMSTATES> 5
<STATE> 2
<NUMMIXES> 2
<MIXTURE> 1 4.486484e-001
<MEAN> 13
 -1.292779e-001 -5.389496e+000 -1.100039e+001 -1.873569e+001 -5.779161e+000 -1.610546e+001 -1.080663e+001 -5.256483e+000 2.913948e+000 1.208269e+000 -1.215900e+001 -7.369365e-001 9.545055e-001
<VARIANCE> 13
 1.281129e+001 2.211438e+001 2.679907e+001 6.309992e+001 2.142097e+001 3.878082e+001 2.767781e+001 4.988978e+001 4.295324e+001 4.275186e+001 5.675659e+001 4.736100e+001 1.169084e-003
<GCONST> 5.958535e+001
<MIXTURE> 2 5.513505e-001
<MEAN> 13
 4.032162e-001 -1.037683e+001 -1.337948e+001 -2.862497e+001 4.951182e+000 -1.000550e+001 -1.236042e+001 -4.271332e+000 -1.618229e+000 -1.974586e+000 -1.524604e+001 -8.586963e-001 8.993074e-001
<VARIANCE> 13
 8.431105e+000 1.287661e+001 1.680067e+001 1.895911e+001 4.290427e+001 1.620370e+001 4.766512e+001 4.400791e+001 2.903931e+001 3.989616e+001 2.453548e+001 3.313470e+001 5.734937e-003
<GCONST> 5.713068e+001
<STATE> 3
<NUMMIXES> 2
<MIXTURE> 1 5.452310e-001
<MEAN> 13
 5.749243e+000 1.929124e+000 -1.152493e+001 -1.822844e+001 -9.125602e+000 -9.515041e+000 -1.127652e+001 -1.309602e+001 -2.985728e+000 -1.274591e+000 -2.072899e+000 -3.774596e+000 8.478205e-001
<VARIANCE> 13
 4.063119e+000 9.292968e+000 2.318496e+001 3.966231e+001 1.917467e+001 1.467926e+001 1.976976e+001 1.923329e+001 3.696497e+001 2.929072e+001 3.084914e+001 2.094649e+001 1.039353e-002
<GCONST> 5.482009e+001
<MIXTURE> 2 4.547687e-001
<MEAN> 13
 3.487942e+000 -5.162251e+000 -1.811320e+001 -2.101121e+001 -1.183067e+000 -5.657877e+000 -1.248173e+001 -1.011149e+001 -3.751664e+000 -2.683840e+000 -9.685258e+000 -8.555016e+000 7.054085e-001
<VARIANCE> 13
 4.129859e+000 1.036842e+001 1.092543e+001 1.827802e+001 2.814846e+001 1.688562e+001 2.682885e+001 2.722796e+001 2.516605e+001 2.733275e+001 2.287219e+001 1.999596e+001 1.706538e-002
<GCONST> 5.429221e+001
<STATE> 4
<NUMMIXES> 2
<MIXTURE> 1 6.262254e-001
<MEAN> 13
 -1.516296e+000 2.561544e+000 -5.827282e+000 -1.187941e+001 -1.186046e+001 -1.058953e+001 -8.945480e+000 -7.359303e+000 -3.552652e+000 -3.217417e+000 -1.247842e+000 -3.388811e+000 4.834089e-001
<VARIANCE> 13
 8.541641e+000 7.993572e+000 1.406750e+001 1.841912e+001 1.380124e+001 1.348775e+001 1.453379e+001 1.710903e+001 2.490546e+001 1.928676e+001 1.647983e+001 2.416985e+001 1.989596e-002
<GCONST> 5.266038e+001
<MIXTURE> 2 3.737737e-001
<MEAN> 13
 -1.550993e+000 -3.793425e+000 -1.190443e+001 -1.482259e+001 -7.021710e+000 -6.115598e+000 -9.614168e+000 -1.041102e+001 -4.853685e+000 -6.657950e+000 -7.578910e+000 -8.570572e+000 4.773206e-001
<VARIANCE> 13
 5.633823e+000 1.323270e+001 1.848706e+001 2.725285e+001 3.511088e+001 1.625194e+001 2.445916e+001 1.854739e+001 2.551219e+001 3.019614e+001 2.562648e+001 1.557933e+001 2.000336e-002
<GCONST> 5.561475e+001
<TRANSP> 5
 0.000000e+000 1.000000e+000 0.000000e+000 0.000000e+000 0.000000e+000
 0.000000e+000 9.456432e-001 5.435674e-002 0.000000e+000 0.000000e+000
 0.000000e+000 0.000000e+000 9.574633e-001 4.253668e-002 0.000000e+000
 0.000000e+000 0.000000e+000 0.000000e+000 9.632150e-001 3.678499e-002
 0.000000e+000 0.000000e+000 0.000000e+000 0.000000e+000 0.000000e+000
<ENDHMM>
~h "ath"
<BEGINHMM>
<NUMSTATES> 5
<STATE> 2
<NUMMIXES> 2
<MIXTURE> 1 5.011541e-001
<MEAN> 13
 1.360247e+000 -2.011655e+001 -1.192743e+001 -1.479251e+001 1.500826e+000 -8.879381e-001 -9.796146e+000 -5.733366e+000 5.244446e-001 -8.696548e+000 -8.730796e+000 -5.144274e+000 9.103205e-001
<VARIANCE> 13
 2.274896e+001 4.642287e+001 2.757628e+001 3.358081e+001 1.173083e+002 4.396295e+001 6.791843e+001 4.274113e+001 6.778208e+001 5.801789e+001 3.513148e+001 5.994225e+001 6.455166e-003
<GCONST> 6.509390e+001
<MIXTURE> 2 4.988460e-001
<MEAN> 13
 2.152160e-001 -2.313947e+001 -8.184208e+000 -1.419527e+001 6.801930e+000 -3.903043e+000 -9.304306e+000 -6.919770e+000 -9.860164e+000 -1.046902e+001 -1.551822e+001 -1.175604e+000 9.016306e-001
<VARIANCE> 13
 1.955681e+001 2.541920e+001 1.972302e+001 3.552593e+001 8.009437e+001 2.811242e+001 2.864152e+001 3.199470e+001 3.070911e+001 2.537014e+001 2.778077e+001 3.331195e+001 7.375151e-003
<GCONST> 5.977188e+001
<STATE> 3
<NUMMIXES> 2
<MIXTURE> 1 4.365512e-001
<MEAN> 13
 1.030532e+000 -1.236253e+001 -1.355802e+001 -1.102310e+001 -2.260857e+000 6.675031e-001 -5.316029e+000 -5.357530e+000 2.027972e-002 -7.725173e+000 -9.642300e+000 -7.297721e+000 6.634179e-001
<VARIANCE> 13
 1.155950e+001 3.276585e+001 4.555849e+001 2.926521e+001 3.149534e+001 3.294493e+001 2.433175e+001 2.940028e+001 3.877455e+001 2.768275e+001 2.309815e+001 2.860509e+001 7.229517e-003
<GCONST> 5.908448e+001
<MIXTURE> 2 5.634491e-001
<MEAN> 13
 3.150222e+000 -1.397044e+001 -1.380809e+001 -4.118335e+000 -1.841627e+000 -6.905393e+000 -8.842636e+000 -9.122238e+000 -9.009163e+000 -1.443533e+001 -1.116207e+001 -6.519317e+000 7.407290e-001
<VARIANCE> 13
 6.594513e+000 2.063116e+001 1.515470e+001 1.493796e+001 2.501502e+001 2.329350e+001 1.996780e+001 3.278724e+001 2.250404e+001 2.610590e+001 1.810212e+001 1.543076e+001 7.476478e-003
<GCONST> 5.419172e+001
<STATE> 4
<NUMMIXES> 2
<MIXTURE> 1 4.451091e-001
<MEAN> 13
 -2.259354e+000 -1.381557e+001 -1.400054e+001 -8.650298e+000 7.267939e-001 -1.700989e+000 -5.092049e+000 -5.751731e+000 -4.992741e+000 -8.149076e+000 -7.054236e+000 -4.013468e+000 4.567548e-001
<VARIANCE> 13
 3.883396e+000 6.590047e+001 2.050259e+001 1.169009e+001 1.536830e+001 2.637573e+001 1.864882e+001 1.982755e+001 2.286640e+001 2.145432e+001 2.174123e+001 2.194324e+001 1.695518e-002
<GCONST> 5.512024e+001
<MIXTURE> 2 5.548903e-001
<MEAN> 13
 -3.163568e+000 -1.185739e+001 -1.261975e+001 -5.853294e+000 2.129578e+000 -3.116365e+000 -9.555680e+000 -1.084342e+001 -8.948937e+000 -1.151489e+001 -8.073428e+000 -4.430576e+000 4.082825e-001
<VARIANCE> 13
 6.406648e+000 4.101297e+001 1.655874e+001 1.246216e+001 1.906815e+001 1.749063e+001 1.747839e+001 2.102608e+001 2.287132e+001 1.797763e+001 2.351888e+001 1.676070e+001 2.748231e-002
<GCONST> 5.491129e+001
<TRANSP> 5
 0.000000e+000 1.000000e+000 0.000000e+000 0.000000e+000 0.000000e+000
 0.000000e+000 9.647619e-001 3.523811e-002 0.000000e+000 0.000000e+000
 0.000000e+000 0.000000e+000 9.448996e-001 5.510044e-002 0.000000e+000
 0.000000e+000 0.000000e+000 0.000000e+000 9.573880e-001 4.261202e-002
 0.000000e+000 0.000000e+000 0.000000e+000 0.000000e+000 0.000000e+000
<ENDHMM>
~h "tin"
<BEGINHMM>
<NUMSTATES> 5
<STATE> 2
<NUMMIXES> 2
<MIXTURE> 1 2.553083e-001
<MEAN> 13
 -1.867906e+000 -5.372473e-001 2.197888e+001 -9.930186e+000 -2.790973e+001 -9.659800e+000 -1.179562e+001 -6.064600e+000 -5.614380e+000 -1.101982e+001 1.158267e+000 -5.230096e+000 9.244311e-001
<VARIANCE> 13
 8.759372e+000 1.331143e+001 2.161260e+001 5.709128e+001 4.167516e+001 3.654596e+001 5.054830e+001 4.119120e+001 2.242674e+001 3.887196e+001 1.588457e+002 2.992068e+001 3.223085e-003
<GCONST> 6.023830e+001
<MIXTURE> 2 7.446915e-001
<MEAN> 13
 -6.387295e+000 2.986036e+000 1.433726e+001 -2.885369e+001 -1.934537e+001 -6.406438e+000 -1.598653e+001 -9.552052e+000 -8.749399e+000 -5.034588e+000 -1.744806e+001 -2.499837e+000 8.878380e-001
<VARIANCE> 13
 1.859724e+001 1.728306e+001 1.982332e+001 4.757303e+001 3.846579e+001 2.860041e+001 5.831503e+001 4.529042e+001 3.975486e+001 4.624141e+001 2.978354e+001 1.870935e+001 5.182345e-003
<GCONST> 5.997350e+001
<STATE> 3
<NUMMIXES> 2
<MIXTURE> 1 3.858351e-001
<MEAN> 13
 4.780779e-001 5.615783e+000 9.771120e+000 -3.288133e+000 -1.403876e+001 -1.297711e+001 -1.432012e+001 -1.093963e+001 -4.591973e+000 -8.050211e+000 -5.839070e+000 -4.783898e+000 7.973853e-001
<VARIANCE> 13
 2.536742e+000 1.345723e+001 2.244150e+001 3.653342e+001 2.367906e+001 3.654967e+001 2.321371e+001 4.145214e+001 2.950086e+001 1.855525e+001 1.890802e+001 1.853236e+001 7.285149e-003
<GCONST> 5.500684e+001
<MIXTURE> 2 6.141648e-001
<MEAN> 13
 -9.457320e-001 3.387008e+000 6.726734e+000 -1.640129e+001 -1.680858e+001 -9.343801e+000 -1.735785e+001 -1.372107e+001 -5.499298e+000 -1.189666e+001 -1.301588e+001 -4.673190e+000 7.598870e-001
<VARIANCE> 13
 4.875073e+000 1.687943e+001 1.099900e+001 4.329506e+001 2.341348e+001 2.289151e+001 3.920587e+001 1.978017e+001 2.775758e+001 2.117083e+001 2.168458e+001 1.664311e+001 1.941307e-002
<GCONST> 5.572898e+001
<STATE> 4
<NUMMIXES> 2
<MIXTURE> 1 4.944909e-001
<MEAN> 13
 -5.254036e+000 3.096132e+000 2.656139e+000 -3.200930e+000 -8.611688e+000 -9.968573e+000 -1.045864e+001 -9.733356e+000 -7.091963e+000 -7.429957e+000 -4.490704e+000 -3.589216e+000 4.365015e-001
<VARIANCE> 13
 3.218034e+000 7.485621e+000 1.109165e+001 1.932645e+001 2.104606e+001 1.472376e+001 1.623173e+001 1.645207e+001 1.701399e+001 1.464947e+001 1.587405e+001 1.181319e+001 8.546486e-003
<GCONST> 4.975553e+001
<MIXTURE> 2 5.055093e-001
<MEAN> 13
 -4.577255e+000 3.885897e+000 2.953761e+000 -6.199181e+000 -1.054518e+001 -1.182054e+001 -1.376807e+001 -1.369333e+001 -1.093630e+001 -1.269100e+001 -1.012084e+001 -6.663882e+000 5.410770e-001
<VARIANCE> 13
 4.396650e+000 7.902165e+000 9.486343e+000 2.174580e+001 1.952067e+001 1.501343e+001 1.524536e+001 1.508667e+001 1.745667e+001 1.715798e+001 1.575369e+001 1.312053e+001 1.399591e-002
<GCONST> 5.065261e+001
<TRANSP> 5
 0.000000e+000 1.000000e+000 0.000000e+000 0.000000e+000 0.000000e+000
 0.000000e+000 9.662125e-001 3.378752e-002 0.000000e+000 0.000000e+000
 0.000000e+000 0.000000e+000 9.520950e-001 4.790490e-002 0.000000e+000
 0.000000e+000 0.000000e+000 0.000000e+000 9.632128e-001 3.678720e-002
 0.000000e+000 0.000000e+000 0.000000e+000 0.000000e+000 0.000000e+000
<ENDHMM>
~h "sat"
<BEGINHMM>
<NUMSTATES> 5
<STATE> 2
<NUMMIXES> 2
<MIXTURE> 1 3.802645e-001
<MEAN> 13
 1.996177e+000 -1.540853e+001 -1.406473e+001 -1.281476e+001 -5.175505e+000 -5.818220e+000 -8.352870e+000 -2.038594e+000 5.408930e+000 -9.181002e+000 -1.198577e+001 -6.073710e+000 9.434624e-001
<VARIANCE> 13
 1.370122e+001 3.049227e+001 2.761257e+001 2.367210e+001 5.369329e+001 3.975825e+001 7.661741e+001 6.350121e+001 1.009979e+002 4.966730e+001 3.029322e+001 7.679327e+001 1.831557e-003
<GCONST> 6.253582e+001
<MIXTURE> 2 6.197338e-001
<MEAN> 13
 -1.910285e+000 -2.188404e+001 -9.567636e+000 -1.493901e+001 4.208387e+000 -9.504312e+000 -2.788836e+000 -6.812102e+000 -6.291882e+000 -1.305084e+001 -1.429003e+001 4.253154e+000 9.193254e-001
<VARIANCE> 13
 9.851233e+000 3.173638e+001 1.508927e+001 2.937141e+001 5.727626e+001 1.843005e+001 3.564587e+001 3.287948e+001 2.993625e+001 3.053067e+001 3.857255e+001 2.135779e+001 4.845329e-003
<GCONST> 5.796184e+001
<STATE> 3
<NUMMIXES> 2
<MIXTURE> 1 4.091676e-001
<MEAN> 13
 2.721440e+000 -8.760638e+000 -1.856953e+001 -1.213431e+001 -2.048733e+000 -2.850189e+000 -5.939311e+000 -4.434238e+000 4.012852e+000 -5.462150e+000 -1.200656e+001 -8.668267e+000 6.772636e-001
<VARIANCE> 13
 5.219145e+000 1.733750e+001 8.850895e+000 9.804821e+000 1.764195e+001 3.542052e+001 3.220866e+001 2.965133e+001 3.184099e+001 2.515356e+001 1.556171e+001 2.029918e+001 7.622499e-003
<GCONST> 5.372481e+001
<MIXTURE> 2 5.908312e-001
<MEAN> 13
 1.664534e+000 -1.475486e+001 -1.590623e+001 -7.454041e+000 3.279003e-001 -7.245876e+000 -7.872367e+000 -5.821799e+000 -6.662335e+000 -1.517469e+001 -1.112971e+001 -1.692939e+000 7.059388e-001
<VARIANCE> 13
 5.116930e+000 3.998173e+001 1.170858e+001 1.298687e+001 2.269254e+001 1.530590e+001 1.807367e+001 2.177110e+001 2.103300e+001 3.123868e+001 2.466550e+001 1.933517e+001 5.258704e-003
<GCONST> 5.347017e+001
<STATE> 4
<NUMMIXES> 2
<MIXTURE> 1 3.898326e-001
<MEAN> 13
 -3.021961e+000 -6.528128e+000 -1.379012e+001 -1.080853e+001 -2.303697e+000 -9.372721e-001 -2.720772e+000 -4.444606e+000 -2.781916e+000 -8.877629e+000 -9.249099e+000 -6.382164e+000 4.352803e-001
<VARIANCE> 13
 5.025777e+000 1.692360e+001 1.521829e+001 1.327052e+001 1.481999e+001 2.578194e+001 2.597750e+001 1.940177e+001 3.180028e+001 2.697134e+001 2.313790e+001 2.511150e+001 9.001636e-003
<GCONST> 5.422068e+001
<MIXTURE> 2 6.101650e-001
<MEAN> 13
 -2.885013e+000 -1.273976e+001 -1.475200e+001 -5.741871e+000 2.494604e+000 -4.049892e+000 -8.409288e+000 -9.229763e+000 -9.163891e+000 -1.370175e+001 -7.714228e+000 -2.067234e+000 4.349039e-001
<VARIANCE> 13
 4.750552e+000 3.771241e+001 1.069594e+001 1.360966e+001 1.989368e+001 1.923833e+001 1.653378e+001 1.867555e+001 2.287948e+001 2.433852e+001 2.586783e+001 1.565465e+001 2.387910e-002
<GCONST> 5.433254e+001
<TRANSP> 5
 0.000000e+000 1.000000e+000 0.000000e+000 0.000000e+000 0.000000e+000
 0.000000e+000 9.623687e-001 3.763132e-002 0.000000e+000 0.000000e+000
 0.000000e+000 0.000000e+000 9.457495e-001 5.425050e-002 0.000000e+000
 0.000000e+000 0.000000e+000 0.000000e+000 9.602581e-001 3.974193e-002
 0.000000e+000 0.000000e+000 0.000000e+000 0.000000e+000 0.000000e+000
<ENDHMM>
