~o
<STREAMINFO> 1 13
<VECSIZE> 13<NULLD><MFCC_E><DIAGC>
~h "don"
<BEGINHMM>
<NUMSTATES> 5
<STATE> 2
<NUMMIXES> 2
<MIXTURE> 1 6.782330e-001
<MEAN> 13
 4.592036e+000 -4.473002e+000 -6.530365e+000 -2.099467e+001 -5.635365e+000 -6.737580e+000 -1.434832e+001 -7.895171e+000 -4.761891e+000 7.391868e-001 -1.293778e-001 8.428501e-002 9.126798e-001
<VARIANCE> 13
 1.004324e+001 3.724362e+001 5.923978e+001 9.228066e+001 6.510284e+001 1.051764e+002 2.996931e+001 3.290594e+001 7.089224e+001 5.866401e+001 1.102124e+002 6.104655e+001 5.061293e-003
<GCONST> 6.600954e+001
<MIXTURE> 2 3.217660e-001
<MEAN> 13
 4.468657e+000 -4.121903e+000 -1.037191e+001 -2.032181e+001 -5.911849e-001 -1.157604e+001 -1.510164e+001 -8.662143e+000 -1.095424e+001 -4.739688e+000 -9.620148e+000 -2.502148e+000 8.509535e-001
<VARIANCE> 13
 8.919441e+000 3.676737e+001 1.721019e+001 4.483545e+001 4.416098e+001 4.772602e+001 4.024859e+001 4.996976e+001 9.569389e+001 4.234676e+001 4.038400e+001 4.817055e+001 7.965797e-003
<GCONST> 6.264119e+001
<STATE> 3
<NUMMIXES> 2
<MIXTURE> 1 4.488260e-001
<MEAN> 13
 5.653170e+000 -1.698292e+000 -7.175364e+000 -1.129416e+001 -8.234082e+000 -8.053440e+000 -1.215982e+001 -1.304613e+001 -5.949527e+000 -1.706999e+000 -1.252435e-001 -1.805944e+000 7.509882e-001
<VARIANCE> 13
 4.684443e+000 1.999955e+001 3.070513e+001 6.414223e+001 2.752920e+001 3.799873e+001 2.598087e+001 2.276977e+001 3.267882e+001 4.482378e+001 6.833430e+001 2.589445e+001 1.409786e-002
<GCONST> 5.985966e+001
<MIXTURE> 2 5.511735e-001
<MEAN> 13
 4.733136e+000 -2.095309e+000 -1.131606e+001 -1.524871e+001 -4.450796e+000 -1.076712e+001 -1.512788e+001 -1.419109e+001 -9.879756e+000 -7.453470e+000 -6.410934e+000 -3.487751e+000 7.154662e-001
<VARIANCE> 13
 3.879682e+000 2.038925e+001 1.455697e+001 2.757230e+001 2.335521e+001 2.441216e+001 2.130845e+001 2.232432e+001 4.600850e+001 2.452173e+001 2.440132e+001 2.837855e+001 1.315508e-002
<GCONST> 5.600644e+001
<STATE> 4
<NUMMIXES> 2
<MIXTURE> 1 4.533261e-001
<MEAN> 13
 -2.956961e-002 2.634687e+000 -4.266293e+000 -1.027696e+001 -9.310241e+000 -9.618733e+000 -9.748190e+000 -1.089094e+001 -7.172524e+000 -4.303907e+000 -2.202838e-001 -1.090459e+000 5.292419e-001
<VARIANCE> 13
 1.009387e+001 1.111383e+001 2.303858e+001 2.846969e+001 1.633276e+001 2.483265e+001 2.028786e+001 2.241108e+001 2.925054e+001 2.454923e+001 2.720770e+001 2.238852e+001 2.309632e-002
<GCONST> 5.644398e+001
<MIXTURE> 2 5.466733e-001
<MEAN> 13
 -1.995603e-001 2.230375e+000 -6.289607e+000 -1.165108e+001 -8.488706e+000 -9.832867e+000 -1.210323e+001 -1.438412e+001 -1.195677e+001 -8.998408e+000 -4.089507e+000 -3.165646e+000 5.174016e-001
<VARIANCE> 13
 9.408426e+000 1.067691e+001 2.463383e+001 2.433936e+001 1.572987e+001 2.099287e+001 1.665396e+001 2.161714e+001 3.379862e+001 2.481494e+001 1.959038e+001 2.234455e+001 2.303629e-002
<GCONST> 5.562699e+001
<TRANSP> 5
 0.000000e+000 1.000000e+000 0.000000e+000 0.000000e+000 0.000000e+000
 0.000000e+000 9.672499e-001 3.275011e-002 0.000000e+000 0.000000e+000
 0.000000e+000 0.000000e+000 9.201671e-001 7.983289e-002 0.000000e+000
 0.000000e+000 0.000000e+000 0.000000e+000 9.687592e-001 3.124082e-002
 0.000000e+000 0.000000e+000 0.000000e+000 0.000000e+000 0.000000e+000
<ENDHMM>
~h "sil"
<BEGINHMM>
<NUMSTATES> 5
<STATE> 2
<NUMMIXES> 2
<MIXTURE> 1 4.940052e-001
<MEAN> 13
 -9.654022e+000 5.428383e-001 -3.381058e+000 -4.517140e+000 -5.608082e+000 -5.973872e+000 -5.110155e+000 -6.441989e+000 -4.787983e+000 -6.927752e+000 -4.490868e+000 -3.910993e+000 2.613914e-001
<VARIANCE> 13
 4.134122e+001 2.262239e+001 2.584184e+001 2.499826e+001 2.935909e+001 2.987786e+001 3.050327e+001 2.447049e+001 2.746179e+001 2.473494e+001 2.383506e+001 2.294855e+001 3.531172e-002
<GCONST> 6.007791e+001
<MIXTURE> 2 5.059924e-001
<MEAN> 13
 -7.870622e+000 -3.592262e-002 -3.339976e+000 -5.032738e+000 -5.708262e+000 -6.377365e+000 -7.341121e+000 -8.690858e+000 -7.707616e+000 -9.473656e+000 -6.815284e+000 -5.525245e+000 2.801054e-001
<VARIANCE> 13
 2.249611e+001 1.879866e+001 2.241448e+001 1.895389e+001 2.452622e+001 2.424349e+001 2.204165e+001 2.243787e+001 2.440507e+001 2.255095e+001 2.173914e+001 1.912791e+001 3.382254e-002
<GCONST> 5.753703e+001
<STATE> 3
<NUMMIXES> 2
<MIXTURE> 1 4.824037e-001
<MEAN> 13
 -5.696160e+000 -1.626222e+000 -2.247348e+000 -7.096174e+000 -8.791026e+000 -9.145334e+000 -5.527412e+000 -5.781334e+000 -2.709220e+000 -7.401125e+000 -6.626175e+000 -3.525070e+000 4.797713e-001
<VARIANCE> 13
 3.333416e+001 4.642044e+001 5.998096e+001 5.533965e+001 7.190407e+001 6.552068e+001 5.662578e+001 3.810485e+001 5.725234e+001 4.615303e+001 5.111934e+001 3.941076e+001 8.930010e-002
<GCONST> 6.855063e+001
<MIXTURE> 2 5.175957e-001
<MEAN> 13
 -5.304932e+000 3.372735e-002 -1.962570e+000 -6.297631e+000 -7.503645e+000 -8.040259e+000 -7.665814e+000 -8.854136e+000 -7.039115e+000 -1.083306e+001 -8.893989e+000 -5.347156e+000 4.331833e-001
<VARIANCE> 13
 2.503541e+001 3.650991e+001 5.007509e+001 3.189458e+001 4.917755e+001 4.413880e+001 3.519331e+001 3.131386e+001 3.359541e+001 3.699294e+001 3.903869e+001 2.942342e+001 8.056066e-002
<GCONST> 6.442664e+001
<STATE> 4
<NUMMIXES> 2
<MIXTURE> 1 4.969188e-001
<MEAN> 13
 -4.918338e+000 -4.640941e+000 -3.872138e+000 -8.893735e+000 -7.285731e+000 -8.783116e+000 -5.503435e+000 -5.242685e+000 -2.330510e+000 -7.374359e+000 -7.339429e+000 -3.167381e+000 5.112048e-001
<VARIANCE> 13
 2.461373e+001 5.226495e+001 5.693037e+001 6.459349e+001 7.813517e+001 7.450877e+001 5.685071e+001 4.292678e+001 6.379384e+001 4.968563e+001 5.368977e+001 4.372173e+001 1.062962e-001
<GCONST> 6.931217e+001
<MIXTURE> 2 5.030803e-001
<MEAN> 13
 -5.701006e+000 -2.561998e+000 -3.906072e+000 -7.276616e+000 -5.445386e+000 -7.560404e+000 -7.226709e+000 -7.973698e+000 -6.678705e+000 -1.064381e+001 -8.905474e+000 -4.510335e+000 4.019124e-001
<VARIANCE> 13
 1.610112e+001 3.946521e+001 4.295348e+001 3.909550e+001 5.187593e+001 4.559336e+001 3.438155e+001 3.068799e+001 3.445560e+001 3.775496e+001 3.894428e+001 2.969763e+001 8.512136e-002
<GCONST> 6.426315e+001
<TRANSP> 5
 0.000000e+000 1.000000e+000 0.000000e+000 0.000000e+000 0.000000e+000
 0.000000e+000 9.079173e-001 9.208269e-002 0.000000e+000 0.000000e+000
 0.000000e+000 0.000000e+000 5.359808e-001 4.640192e-001 0.000000e+000
 0.000000e+000 0.000000e+000 0.000000e+000 5.178603e-001 4.821397e-001
 0.000000e+000 0.000000e+000 0.000000e+000 0.000000e+000 0.000000e+000
<ENDHMM>
~h "nav"
<BEGINHMM>
<NUMSTATES> 5
<STATE> 2
<NUMMIXES> 2
<MIXTURE> 1 3.552569e-001
<MEAN> 13
 6.285758e+000 -8.033721e+000 -1.193686e+001 -1.865357e+001 -5.078056e+000 -3.251492e+000 -9.697226e+000 -6.913633e+000 -3.918815e+000 -4.455939e+000 -6.814783e+000 -6.577041e+000 9.303458e-001
<VARIANCE> 13
 8.860799e+000 3.007141e+001 2.394679e+001 5.481189e+001 4.839985e+001 2.647245e+001 3.815627e+001 4.304200e+001 6.033632e+001 4.824419e+001 5.262568e+001 2.994531e+001 3.248933e-003
<GCONST> 6.082618e+001
<MIXTURE> 2 6.447412e-001
<MEAN> 13
 3.921350e+000 -8.936378e+000 -1.115297e+001 -2.261314e+001 2.009142e+000 -3.984305e+000 -1.249713e+001 -4.423857e+000 -1.328839e+001 -1.165993e+001 -1.453186e+001 -8.602575e+000 9.138883e-001
<VARIANCE> 13
 9.837870e+000 2.435390e+001 2.185352e+001 3.177414e+001 4.522073e+001 3.177919e+001 3.420324e+001 5.574394e+001 4.572338e+001 3.154688e+001 3.021225e+001 3.261236e+001 4.448329e-003
<GCONST> 5.948960e+001
<STATE> 3
<NUMMIXES> 2
<MIXTURE> 1 4.173170e-001
<MEAN> 13
 6.345806e+000 1.754229e-001 -1.223418e+001 -1.648419e+001 -6.376300e+000 -2.304508e+000 -5.979527e+000 -1.005328e+001 -6.807758e+000 -6.269477e+000 -5.787772e+000 -6.295067e+000 8.232114e-001
<VARIANCE> 13
 6.714836e+000 1.602290e+001 1.522963e+001 1.851204e+001 2.846891e+001 1.771897e+001 1.828097e+001 2.116041e+001 3.165363e+001 3.330627e+001 3.115043e+001 1.939031e+001 9.131237e-003
<GCONST> 5.506199e+001
<MIXTURE> 2 5.826831e-001
<MEAN> 13
 4.795711e+000 -2.703904e+000 -1.372652e+001 -1.830955e+001 -3.637229e+000 -2.886435e+000 -8.495477e+000 -1.298046e+001 -1.260122e+001 -1.268822e+001 -1.168131e+001 -8.848238e+000 7.864041e-001
<VARIANCE> 13
 6.824895e+000 1.502759e+001 1.360751e+001 1.628646e+001 3.020135e+001 1.667651e+001 1.830992e+001 2.322881e+001 2.093199e+001 2.307273e+001 3.333492e+001 2.674216e+001 1.039121e-002
<GCONST> 5.460453e+001
<STATE> 4
<NUMMIXES> 2
<MIXTURE> 1 4.177599e-001
<MEAN> 13
 5.286953e-001 1.549353e+000 -7.346889e+000 -1.236078e+001 -6.292211e+000 -2.782514e+000 -4.099835e+000 -7.368255e+000 -7.201421e+000 -7.810709e+000 -5.076615e+000 -5.862249e+000 5.952648e-001
<VARIANCE> 13
 1.070173e+001 1.373517e+001 2.242179e+001 1.790405e+001 2.714563e+001 2.640582e+001 2.246421e+001 2.276624e+001 2.893996e+001 3.122608e+001 2.484620e+001 1.590480e+001 1.585206e-002
<GCONST> 5.633118e+001
<MIXTURE> 2 5.822404e-001
<MEAN> 13
 -4.740697e-001 -2.770799e-001 -8.725715e+000 -1.249756e+001 -6.233092e+000 -3.820493e+000 -6.928260e+000 -1.215553e+001 -1.359171e+001 -1.449787e+001 -9.943769e+000 -8.586502e+000 5.573912e-001
<VARIANCE> 13
 1.092614e+001 1.245593e+001 2.741644e+001 2.379257e+001 2.513707e+001 2.286850e+001 1.839413e+001 1.801761e+001 2.188412e+001 2.198990e+001 2.391019e+001 2.122640e+001 2.146476e-002
<GCONST> 5.600831e+001
<TRANSP> 5
 0.000000e+000 1.000000e+000 0.000000e+000 0.000000e+000 0.000000e+000
 0.000000e+000 9.609355e-001 3.906447e-002 0.000000e+000 0.000000e+000
 0.000000e+000 0.000000e+000 9.152495e-001 8.475046e-002 0.000000e+000
 0.000000e+000 0.000000e+000 0.000000e+000 9.613321e-001 3.866786e-002
 0.000000e+000 0.000000e+000 0.000000e+000 0.000000e+000 0.000000e+000
<ENDHMM>
~h "char"
<BEGINHMM>
<NUMSTATES> 5
<STATE> 2
<NUMMIXES> 2
<MIXTURE> 1 5.395005e-001
<MEAN> 13
 -5.110410e-001 -2.023586e+001 -8.690561e+000 -1.481015e+001 -2.345335e+000 -7.814279e+000 -2.662758e+000 -3.000223e+000 -5.192633e-001 -1.040130e+001 -1.151917e+001 -2.596548e+000 9.154251e-001
<VARIANCE> 13
 1.834833e+001 3.411759e+001 1.801559e+001 2.016484e+001 8.446799e+001 3.229386e+001 5.953011e+001 4.062525e+001 8.655852e+001 3.690760e+001 3.542694e+001 8.921806e+001 5.739223e-003
<GCONST> 6.289642e+001
<MIXTURE> 2 4.604984e-001
<MEAN> 13
 -6.655754e-001 -1.882804e+001 -8.798182e+000 -1.524972e+001 -7.176759e-001 -9.848547e+000 -2.605679e+000 -6.226908e+000 -5.185664e+000 -1.379267e+001 -1.395621e+001 -1.160170e+000 9.076846e-001
<VARIANCE> 13
 1.600571e+001 3.475061e+001 1.475767e+001 2.237524e+001 5.096436e+001 2.914980e+001 4.384103e+001 3.966112e+001 5.985738e+001 3.739832e+001 3.489191e+001 5.174415e+001 6.400473e-003
<GCONST> 6.093855e+001
<STATE> 3
<NUMMIXES> 2
<MIXTURE> 1 4.853675e-001
<MEAN> 13
 1.976723e+000 -1.439361e+001 -1.221414e+001 -1.066072e+001 -3.768001e+000 -5.989906e+000 -6.302266e+000 -3.124857e+000 -1.076212e+000 -9.712116e+000 -1.142631e+001 -4.948631e+000 7.376988e-001
<VARIANCE> 13
 7.230696e+000 3.480818e+001 1.183540e+001 1.455467e+001 2.914305e+001 2.545539e+001 2.946898e+001 3.130493e+001 7.354179e+001 5.155688e+001 2.394435e+001 4.843332e+001 1.079020e-002
<GCONST> 5.877320e+001
<MIXTURE> 2 5.146319e-001
<MEAN> 13
 1.541032e+000 -1.510281e+001 -1.220222e+001 -1.050216e+001 -2.783244e+000 -7.493678e+000 -7.391393e+000 -4.874063e+000 -6.879701e+000 -1.386972e+001 -1.216694e+001 -3.709249e+000 7.495909e-001
<VARIANCE> 13
 6.449562e+000 3.397665e+001 1.221817e+001 1.724413e+001 2.431036e+001 2.499183e+001 2.410023e+001 3.636744e+001 5.685461e+001 4.954976e+001 2.292710e+001 3.670512e+001 1.143371e-002
<GCONST> 5.802535e+001
<STATE> 4
<NUMMIXES> 2
<MIXTURE> 1 4.591387e-001
<MEAN> 13
 -1.462498e+000 -8.836785e+000 -1.330259e+001 -8.918150e+000 -1.348677e+000 -2.771234e+000 -4.135228e+000 -4.316287e+000 -3.797886e+000 -1.137929e+001 -1.007815e+001 -4.745599e+000 4.873130e-001
<VARIANCE> 13
 8.160183e+000 3.395858e+001 1.768410e+001 1.310742e+001 1.813046e+001 2.056339e+001 2.097152e+001 2.789128e+001 5.588092e+001 3.187951e+001 2.390647e+001 3.029665e+001 1.570404e-002
<GCONST> 5.717178e+001
<MIXTURE> 2 5.408596e-001
<MEAN> 13
 -1.845963e+000 -9.988005e+000 -1.299372e+001 -8.191082e+000 -1.262334e+000 -4.023246e+000 -5.860633e+000 -6.781802e+000 -8.002367e+000 -1.454203e+001 -1.015110e+001 -3.513907e+000 4.889255e-001
<VARIANCE> 13
 6.946690e+000 3.883214e+001 1.914533e+001 1.443749e+001 1.818634e+001 1.881938e+001 1.884798e+001 2.577523e+001 3.606212e+001 2.920235e+001 2.273283e+001 2.298734e+001 1.851889e-002
<GCONST> 5.636246e+001
<TRANSP> 5
 0.000000e+000 1.000000e+000 0.000000e+000 0.000000e+000 0.000000e+000
 0.000000e+000 9.655722e-001 3.442774e-002 0.000000e+000 0.000000e+000
 0.000000e+000 0.000000e+000 9.132527e-001 8.674729e-002 0.000000e+000
 0.000000e+000 0.000000e+000 0.000000e+000 9.666504e-001 3.334962e-002
 0.000000e+000 0.000000e+000 0.000000e+000 0.000000e+000 0.000000e+000
<ENDHMM>
~h "pach"
<BEGINHMM>
<NUMSTATES> 5
<STATE> 2
<NUMMIXES> 2
<MIXTURE> 1 5.056075e-001
<MEAN> 13
 2.443468e+000 -1.809222e+001 -1.096973e+001 -1.534198e+001 1.789385e+000 -3.432020e+000 -8.859493e+000 -5.902651e+000 -2.289676e+000 -9.563139e+000 -1.034503e+001 -5.967972e+000 8.918306e-001
<VARIANCE> 13
 1.654786e+001 3.495558e+001 2.861732e+001 3.773298e+001 7.142294e+001 5.565827e+001 6.417312e+001 5.637186e+001 5.642321e+001 4.240377e+001 5.619925e+001 5.197686e+001 6.987217e-003
<GCONST> 6.451483e+001
<MIXTURE> 2 4.943926e-001
<MEAN> 13
 1.535127e+000 -1.834949e+001 -1.085428e+001 -1.461506e+001 4.217900e+000 -7.779925e+000 -9.313945e+000 -5.902840e+000 -7.656483e+000 -1.232874e+001 -1.395941e+001 -5.124161e+000 8.721026e-001
<VARIANCE> 13
 1.582604e+001 3.451720e+001 2.967180e+001 4.288605e+001 6.219678e+001 4.571484e+001 3.737363e+001 4.688995e+001 5.292702e+001 4.670094e+001 2.858362e+001 3.903880e+001 8.126773e-003
<GCONST> 6.278323e+001
<STATE> 3
<NUMMIXES> 2
<MIXTURE> 1 3.287597e-001
<MEAN> 13
 -6.430126e-001 -9.824516e+000 -1.699601e+001 -8.760837e+000 1.241384e+000 -2.615474e+000 -8.295773e+000 -7.562847e+000 -4.564885e+000 -1.038793e+001 -9.400875e+000 -6.594990e+000 6.627001e-001
<VARIANCE> 13
 2.341472e+001 2.683867e+001 1.842387e+001 2.049927e+001 2.234636e+001 6.782273e+001 2.770914e+001 3.099776e+001 4.146186e+001 3.924091e+001 2.189503e+001 2.813495e+001 7.759933e-003
<GCONST> 5.930787e+001
<MIXTURE> 2 6.712413e-001
<MEAN> 13
 -1.615437e+000 -1.122643e+001 -1.720747e+001 -6.975317e+000 1.212862e+000 -6.811821e+000 -9.642709e+000 -6.937435e+000 -8.470098e+000 -1.381993e+001 -1.057451e+001 -5.839024e+000 6.675124e-001
<VARIANCE> 13
 2.123327e+001 2.638806e+001 1.696429e+001 2.494043e+001 1.952132e+001 4.256145e+001 2.195192e+001 3.008681e+001 3.846024e+001 3.878617e+001 1.812398e+001 2.579922e+001 1.178571e-002
<GCONST> 5.849828e+001
<STATE> 4
<NUMMIXES> 2
<MIXTURE> 1 3.948320e-001
<MEAN> 13
 -7.080424e+000 -1.898041e+000 -1.558732e+001 -5.887567e+000 3.871857e-001 -3.910161e+000 -3.973735e+000 -1.029207e+001 -3.927260e+000 -1.033654e+001 -6.674075e+000 -7.549871e+000 4.571568e-001
<VARIANCE> 13
 1.501305e+001 4.450358e+001 4.072363e+001 1.638047e+001 2.179746e+001 3.061439e+001 4.344324e+001 3.499166e+001 3.795554e+001 3.411799e+001 2.550645e+001 2.954360e+001 2.088457e-002
<GCONST> 6.065191e+001
<MIXTURE> 2 6.051667e-001
<MEAN> 13
 -5.087227e+000 -5.242477e+000 -1.512950e+001 -5.024832e+000 2.834967e-002 -4.896674e+000 -7.877306e+000 -9.765800e+000 -7.423410e+000 -1.391161e+001 -9.738533e+000 -7.536760e+000 4.660977e-001
<VARIANCE> 13
 1.080693e+001 3.115994e+001 3.432996e+001 1.746783e+001 2.238400e+001 2.242064e+001 2.726847e+001 2.638325e+001 2.814985e+001 3.683314e+001 2.289807e+001 2.452969e+001 2.474500e-002
<GCONST> 5.848064e+001
<TRANSP> 5
 0.000000e+000 1.000000e+000 0.000000e+000 0.000000e+000 0.000000e+000
 0.000000e+000 9.687437e-001 3.125625e-002 0.000000e+000 0.000000e+000
 0.000000e+000 0.000000e+000 8.846270e-001 1.153730e-001 0.000000e+000
 0.000000e+000 0.000000e+000 0.000000e+000 9.685413e-001 3.145868e-002
 0.000000e+000 0.000000e+000 0.000000e+000 0.000000e+000 0.000000e+000
<ENDHMM>
~h "eka"
<BEGINHMM>
<NUMSTATES> 5
<STATE> 2
<NUMMIXES> 2
<MIXTURE> 1 6.261550e-001
<MEAN> 13
 -3.715667e+000 -3.502185e+000 1.664727e+001 -2.241129e+001 -2.466708e+001 -1.087488e+001 -1.020388e+001 -7.076793e+000 -2.575343e+000 8.520259e-001 -3.765254e+000 -6.601145e-001 8.601390e-001
<VARIANCE> 13
 1.049211e+001 3.425324e+001 5.271124e+001 1.335665e+002 5.831515e+001 3.573359e+001 5.430841e+001 6.299707e+001 4.704806e+001 6.124685e+001 9.412020e+001 3.808549e+001 1.309062e-002
<GCONST> 6.623058e+001
<MIXTURE> 2 3.738454e-001
<MEAN> 13
 -4.537509e+000 -1.316135e+000 1.282214e+001 -2.717063e+001 -2.025843e+001 -1.124447e+001 -9.725423e+000 -1.116953e+001 -1.966976e+000 6.003421e-001 -1.054773e+001 -8.719103e-001 8.354802e-001
<VARIANCE> 13
 8.646253e+000 3.237743e+001 2.672659e+001 9.406245e+001 3.663755e+001 4.020514e+001 5.095745e+001 4.620470e+001 3.351597e+001 5.201731e+001 6.583929e+001 4.011245e+001 1.407120e-002
<GCONST> 6.349463e+001
<STATE> 3
<NUMMIXES> 2
<MIXTURE> 1 5.388635e-001
<MEAN> 13
 -2.638564e+000 -1.943501e+000 7.621018e+000 -1.338527e+001 -2.111821e+001 -1.588701e+001 -8.583703e+000 -7.419501e+000 -1.150179e+000 -4.719470e+000 -2.833702e+000 -7.772445e-001 6.838203e-001
<VARIANCE> 13
 5.013786e+000 3.075393e+001 3.826327e+001 7.963625e+001 4.352642e+001 6.130283e+001 4.013598e+001 3.507975e+001 5.328126e+001 3.464973e+001 5.989852e+001 3.107685e+001 6.640609e-003
<GCONST> 6.212710e+001
<MIXTURE> 2 4.611371e-001
<MEAN> 13
 -2.830372e+000 -1.727765e+000 6.210519e+000 -1.264406e+001 -1.903448e+001 -1.760079e+001 -8.803007e+000 -9.120693e+000 -2.379668e+000 -6.644970e+000 -6.269145e+000 -1.835585e+000 6.968765e-001
<VARIANCE> 13
 5.171514e+000 3.795921e+001 2.632602e+001 7.408984e+001 3.928832e+001 9.182655e+001 5.284054e+001 3.230682e+001 5.012541e+001 3.630920e+001 5.139257e+001 2.735842e+001 7.208216e-003
<GCONST> 6.220388e+001
<STATE> 4
<NUMMIXES> 2
<MIXTURE> 1 5.246918e-001
<MEAN> 13
 -3.696698e+000 -2.964161e-001 5.924359e-001 -7.387638e+000 -1.432320e+001 -1.721386e+001 -1.015899e+001 -5.612484e+000 -1.608639e+000 -5.063357e+000 -2.349817e+000 -1.460236e+000 5.107731e-001
<VARIANCE> 13
 4.990709e+000 1.656591e+001 1.710046e+001 4.627543e+001 2.765483e+001 3.371083e+001 2.412629e+001 2.188498e+001 2.991428e+001 2.788413e+001 2.625240e+001 2.068738e+001 1.589279e-002
<GCONST> 5.696955e+001
<MIXTURE> 2 4.753082e-001
<MEAN> 13
 -3.712546e+000 2.179031e-001 7.149374e-001 -7.525782e+000 -1.429406e+001 -1.735740e+001 -1.080645e+001 -6.800373e+000 -3.359033e+000 -6.947414e+000 -4.302606e+000 -3.202796e+000 5.201631e-001
<VARIANCE> 13
 4.838200e+000 1.677901e+001 1.449382e+001 3.861921e+001 2.439287e+001 3.273003e+001 2.375640e+001 2.141586e+001 2.903115e+001 2.909380e+001 2.455123e+001 1.868854e+001 1.677998e-002
<GCONST> 5.631111e+001
<TRANSP> 5
 0.000000e+000 1.000000e+000 0.000000e+000 0.000000e+000 0.000000e+000
 0.000000e+000 9.678024e-001 3.219764e-002 0.000000e+000 0.000000e+000
 0.000000e+000 0.000000e+000 8.979992e-001 1.020007e-001 0.000000e+000
 0.000000e+000 0.000000e+000 0.000000e+000 9.688122e-001 3.118786e-002
 0.000000e+000 0.000000e+000 0.000000e+000 0.000000e+000 0.000000e+000
<ENDHMM>
~h "dha"
<BEGINHMM>
<NUMSTATES> 5
<STATE> 2
<NUMMIXES> 2
<MIXTURE> 1 6.062502e-001
<MEAN> 13
 1.931391e+000 -1.846930e+001 -1.028579e+001 -1.166165e+001 2.969651e-001 -1.241454e+000 -5.078997e+000 -5.587412e+000 -6.959104e-002 -8.804166e+000 -1.035953e+001 -4.424641e+000 8.542168e-001
<VARIANCE> 13
 1.157685e+001 5.056292e+001 4.389289e+001 3.278804e+001 1.003334e+002 5.509507e+001 5.319710e+001 4.571003e+001 1.043277e+002 4.902827e+001 3.749821e+001 9.070551e+001 1.335165e-002
<GCONST> 6.630605e+001
<MIXTURE> 2 3.937496e-001
<MEAN> 13
 1.316526e+000 -1.606882e+001 -1.148526e+001 -1.074052e+001 3.333573e+000 -5.160215e+000 -6.773720e+000 -8.877435e+000 -5.613307e+000 -1.408949e+001 -1.447307e+001 -2.122506e+000 8.770078e-001
<VARIANCE> 13
 1.323548e+001 4.457957e+001 3.212781e+001 4.217021e+001 7.725705e+001 3.888861e+001 3.974931e+001 4.734843e+001 6.048767e+001 6.384545e+001 3.548626e+001 4.456834e+001 1.021323e-002
<GCONST> 6.407298e+001
<STATE> 3
<NUMMIXES> 2
<MIXTURE> 1 5.227943e-001
<MEAN> 13
 2.151828e+000 -1.261101e+001 -1.612723e+001 -8.724234e+000 3.106079e+000 4.789262e-001 -6.420037e+000 -6.378977e+000 -1.168191e+000 -7.944484e+000 -1.021451e+001 -6.302586e+000 6.537903e-001
<VARIANCE> 13
 6.362880e+000 4.957320e+001 1.530234e+001 1.717644e+001 4.624813e+001 3.521468e+001 2.994617e+001 3.280574e+001 3.906580e+001 4.149759e+001 2.732460e+001 3.488348e+001 9.612312e-003
<GCONST> 5.910934e+001
<MIXTURE> 2 4.772064e-001
<MEAN> 13
 1.367229e+000 -1.328363e+001 -1.628071e+001 -7.025735e+000 5.054759e+000 -1.645320e+000 -9.463680e+000 -9.363030e+000 -5.600933e+000 -1.223149e+001 -1.274801e+001 -5.540299e+000 6.607398e-001
<VARIANCE> 13
 6.104085e+000 4.024251e+001 1.619167e+001 2.284234e+001 4.273411e+001 1.957190e+001 2.306486e+001 3.196721e+001 3.311137e+001 3.763729e+001 2.192871e+001 2.419932e+001 1.291160e-002
<GCONST> 5.769387e+001
<STATE> 4
<NUMMIXES> 2
<MIXTURE> 1 4.477040e-001
<MEAN> 13
 -2.094575e+000 -7.189175e+000 -1.276223e+001 -8.031029e+000 1.886001e+000 6.197430e-001 -5.646892e+000 -7.515115e+000 -3.794892e+000 -7.493448e+000 -8.046335e+000 -7.380853e+000 4.229396e-001
<VARIANCE> 13
 6.502278e+000 2.496616e+001 1.820161e+001 1.149194e+001 3.266263e+001 2.688326e+001 3.405932e+001 3.007958e+001 2.992191e+001 2.975147e+001 2.153057e+001 2.854325e+001 1.997165e-002
<GCONST> 5.733384e+001
<MIXTURE> 2 5.522944e-001
<MEAN> 13
 -2.558767e+000 -8.584267e+000 -1.371918e+001 -6.921912e+000 3.522134e+000 -8.159178e-001 -9.150175e+000 -1.087380e+001 -6.912186e+000 -1.041945e+001 -9.647255e+000 -6.905103e+000 4.166835e-001
<VARIANCE> 13
 5.791636e+000 2.677640e+001 2.116928e+001 1.510640e+001 3.408585e+001 1.704990e+001 2.498136e+001 2.658489e+001 2.357327e+001 2.533487e+001 2.237828e+001 2.081466e+001 2.578750e-002
<GCONST> 5.644569e+001
<TRANSP> 5
 0.000000e+000 1.000000e+000 0.000000e+000 0.000000e+000 0.000000e+000
 0.000000e+000 9.594618e-001 4.053814e-002 0.000000e+000 0.000000e+000
 0.000000e+000 0.000000e+000 9.195769e-001 8.042304e-002 0.000000e+000
 0.000000e+000 0.000000e+000 0.000000e+000 9.595308e-001 4.046923e-002
 0.000000e+000 0.000000e+000 0.000000e+000 0.000000e+000 0.000000e+000
<ENDHMM>
~h "sa"
<BEGINHMM>
<NUMSTATES> 5
<STATE> 2
<NUMMIXES> 2
<MIXTURE> 1 5.286626e-001
<MEAN> 13
 1.888184e+000 -5.331102e+000 -1.190193e+001 -2.165815e+001 -3.527915e+000 -1.224888e+001 -1.108346e+001 -7.067126e+000 1.079058e+000 1.592089e+000 -9.432967e+000 -1.185729e+000 9.314242e-001
<VARIANCE> 13
 1.595879e+001 3.166776e+001 2.606020e+001 6.779950e+001 4.536071e+001 3.034348e+001 2.879824e+001 6.131743e+001 4.239371e+001 3.400219e+001 6.733454e+001 3.980516e+001 3.492272e-003
<GCONST> 6.180817e+001
<MIXTURE> 2 4.713367e-001
<MEAN> 13
 1.571238e+000 -7.598416e+000 -1.384582e+001 -2.548230e+001 2.085618e+000 -1.115882e+001 -1.288535e+001 -6.478163e+000 -2.149410e+000 -2.469793e+000 -1.423120e+001 -2.577990e+000 8.989924e-001
<VARIANCE> 13
 1.301863e+001 2.675931e+001 2.041673e+001 4.033887e+001 5.856026e+001 2.975314e+001 4.049204e+001 4.832238e+001 3.263673e+001 3.941755e+001 3.405627e+001 3.443260e+001 6.732817e-003
<GCONST> 6.072723e+001
<STATE> 3
<NUMMIXES> 2
<MIXTURE> 1 4.825914e-001
<MEAN> 13
 4.998094e+000 4.022619e-001 -1.288879e+001 -1.853536e+001 -7.900816e+000 -7.973771e+000 -1.120861e+001 -1.140316e+001 -2.124507e+000 -1.167779e+000 -2.726404e+000 -4.785735e+000 8.061627e-001
<VARIANCE> 13
 6.123461e+000 2.497558e+001 2.942012e+001 3.898808e+001 2.930020e+001 1.896254e+001 1.975055e+001 2.261481e+001 3.655180e+001 2.338083e+001 3.388225e+001 2.272478e+001 1.091759e-002
<GCONST> 5.726882e+001
<MIXTURE> 2 5.174090e-001
<MEAN> 13
 3.793583e+000 -4.009486e+000 -1.633635e+001 -2.000004e+001 -2.491392e+000 -6.387406e+000 -1.305873e+001 -1.136977e+001 -4.044072e+000 -3.777229e+000 -8.850842e+000 -8.484092e+000 7.400294e-001
<VARIANCE> 13
 5.912747e+000 2.047218e+001 2.016762e+001 2.749243e+001 4.074669e+001 1.977369e+001 2.554717e+001 2.286160e+001 2.360991e+001 2.788440e+001 2.821352e+001 2.105266e+001 1.311146e-002
<GCONST> 5.661057e+001
<STATE> 4
<NUMMIXES> 2
<MIXTURE> 1 5.897238e-001
<MEAN> 13
 -4.388027e-001 1.673648e+000 -7.992398e+000 -1.358325e+001 -1.117710e+001 -9.829971e+000 -8.959457e+000 -7.922116e+000 -3.380737e+000 -2.907976e+000 -1.757973e+000 -4.063561e+000 5.277241e-001
<VARIANCE> 13
 9.786523e+000 1.346435e+001 2.309955e+001 2.477213e+001 1.854039e+001 1.577907e+001 1.530938e+001 1.906359e+001 2.561261e+001 2.056165e+001 1.879663e+001 2.492094e+001 1.992905e-002
<GCONST> 5.497819e+001
<MIXTURE> 2 4.102747e-001
<MEAN> 13
 -3.974293e-001 -1.736995e+000 -1.174187e+001 -1.520952e+001 -7.797302e+000 -7.348435e+000 -1.026151e+001 -1.066448e+001 -5.352832e+000 -5.575264e+000 -6.439301e+000 -7.938545e+000 5.146582e-001
<VARIANCE> 13
 9.048827e+000 1.659513e+001 2.682602e+001 2.572618e+001 3.435137e+001 1.763513e+001 1.985839e+001 1.742438e+001 2.083990e+001 2.505581e+001 2.365348e+001 1.737079e+001 2.000462e-002
<GCONST> 5.605854e+001
<TRANSP> 5
 0.000000e+000 1.000000e+000 0.000000e+000 0.000000e+000 0.000000e+000
 0.000000e+000 9.579574e-001 4.204253e-002 0.000000e+000 0.000000e+000
 0.000000e+000 0.000000e+000 9.260545e-001 7.394554e-002 0.000000e+000
 0.000000e+000 0.000000e+000 0.000000e+000 9.637132e-001 3.628678e-002
 0.000000e+000 0.000000e+000 0.000000e+000 0.000000e+000 0.000000e+000
<ENDHMM>
~h "ath"
<BEGINHMM>
<NUMSTATES> 5
<STATE> 2
<NUMMIXES> 2
<MIXTURE> 1 5.447499e-001
<MEAN> 13
 9.917545e-001 -2.092167e+001 -1.081170e+001 -1.443834e+001 2.821706e+000 -1.203820e+000 -8.962251e+000 -5.639042e+000 -1.863162e+000 -8.355638e+000 -1.033794e+001 -3.566630e+000 8.878373e-001
<VARIANCE> 13
 2.174207e+001 4.636759e+001 2.927478e+001 3.692083e+001 1.136761e+002 4.084513e+001 5.357442e+001 3.594218e+001 7.943392e+001 4.444420e+001 3.972459e+001 5.965226e+001 9.946483e-003
<GCONST> 6.512901e+001
<MIXTURE> 2 4.552481e-001
<MEAN> 13
 1.297290e+000 -2.098381e+001 -1.006957e+001 -1.249462e+001 3.510252e+000 -3.844638e+000 -9.804133e+000 -7.779556e+000 -7.910202e+000 -1.138178e+001 -1.394320e+001 -3.845351e+000 8.897758e-001
<VARIANCE> 13
 1.951291e+001 3.366428e+001 2.621645e+001 4.275433e+001 8.516581e+001 3.175251e+001 3.432549e+001 3.747781e+001 4.707505e+001 3.404357e+001 3.533604e+001 3.671373e+001 9.364810e-003
<GCONST> 6.234063e+001
<STATE> 3
<NUMMIXES> 2
<MIXTURE> 1 4.494718e-001
<MEAN> 13
 1.415711e+000 -1.424757e+001 -1.406544e+001 -9.465246e+000 -1.211837e+000 -9.829280e-001 -5.660030e+000 -5.702289e+000 -2.376021e+000 -9.063854e+000 -9.820946e+000 -6.371629e+000 6.801773e-001
<VARIANCE> 13
 1.136473e+001 4.242068e+001 3.606919e+001 2.971354e+001 3.231784e+001 4.143660e+001 2.397806e+001 2.833534e+001 5.057860e+001 4.095152e+001 2.050074e+001 2.872923e+001 6.720073e-003
<GCONST> 5.978027e+001
<MIXTURE> 2 5.505289e-001
<MEAN> 13
 2.211107e+000 -1.497712e+001 -1.366321e+001 -6.213591e+000 -8.984026e-001 -5.836495e+000 -8.522026e+000 -8.466477e+000 -8.131007e+000 -1.360143e+001 -1.110188e+001 -6.177610e+000 7.143021e-001
<VARIANCE> 13
 1.050618e+001 3.107256e+001 2.076859e+001 2.703298e+001 2.710689e+001 3.064671e+001 2.060704e+001 3.430660e+001 3.104106e+001 3.284537e+001 2.050513e+001 1.763896e+001 7.503337e-003
<GCONST> 5.721997e+001
<STATE> 4
<NUMMIXES> 2
<MIXTURE> 1 4.346738e-001
<MEAN> 13
 -2.271393e+000 -1.088740e+001 -1.265559e+001 -7.522459e+000 -1.196978e-001 -1.461749e+000 -5.520399e+000 -6.504669e+000 -5.199890e+000 -9.112075e+000 -7.544851e+000 -4.726673e+000 4.569491e-001
<VARIANCE> 13
 5.513938e+000 4.870821e+001 2.996222e+001 1.580577e+001 2.175428e+001 2.551876e+001 2.185732e+001 2.466944e+001 3.144814e+001 2.237591e+001 2.273448e+001 2.260093e+001 1.948702e-002
<GCONST> 5.711536e+001
<MIXTURE> 2 5.653266e-001
<MEAN> 13
 -2.524297e+000 -1.075575e+001 -1.210991e+001 -6.004189e+000 3.624630e-001 -3.646741e+000 -8.579422e+000 -9.692257e+000 -8.407185e+000 -1.154366e+001 -8.789246e+000 -5.495115e+000 4.474825e-001
<VARIANCE> 13
 6.237140e+000 4.376379e+001 2.359808e+001 1.436022e+001 2.264884e+001 1.920586e+001 1.956941e+001 2.375247e+001 2.444593e+001 1.839347e+001 2.101697e+001 1.754400e+001 2.285505e-002
<GCONST> 5.578426e+001
<TRANSP> 5
 0.000000e+000 1.000000e+000 0.000000e+000 0.000000e+000 0.000000e+000
 0.000000e+000 9.687567e-001 3.124324e-002 0.000000e+000 0.000000e+000
 0.000000e+000 0.000000e+000 9.170664e-001 8.293362e-002 0.000000e+000
 0.000000e+000 0.000000e+000 0.000000e+000 9.652149e-001 3.478513e-002
 0.000000e+000 0.000000e+000 0.000000e+000 0.000000e+000 0.000000e+000
<ENDHMM>
~h "tin"
<BEGINHMM>
<NUMSTATES> 5
<STATE> 2
<NUMMIXES> 2
<MIXTURE> 1 3.575828e-001
<MEAN> 13
 -2.617322e+000 6.224841e-001 1.895131e+001 -1.520083e+001 -2.495689e+001 -9.123129e+000 -1.252882e+001 -7.535881e+000 -5.435697e+000 -8.241062e+000 -4.864254e+000 -3.904742e+000 9.011124e-001
<VARIANCE> 13
 1.422822e+001 1.624106e+001 3.838140e+001 1.373284e+002 5.475738e+001 3.547039e+001 5.262030e+001 4.703661e+001 2.918377e+001 5.011686e+001 1.774550e+002 3.013830e+001 5.272669e-003
<GCONST> 6.391803e+001
<MIXTURE> 2 6.424154e-001
<MEAN> 13
 -5.878616e+000 2.927801e+000 1.379366e+001 -2.744008e+001 -1.936663e+001 -6.361331e+000 -1.627016e+001 -1.028750e+001 -8.627415e+000 -6.057703e+000 -1.682488e+001 -2.942743e+000 8.830714e-001
<VARIANCE> 13
 2.148036e+001 1.725515e+001 2.103369e+001 6.123441e+001 3.717147e+001 2.867890e+001 5.883139e+001 4.577363e+001 3.947191e+001 4.608783e+001 3.642896e+001 1.778444e+001 6.716346e-003
<GCONST> 6.081519e+001
<STATE> 3
<NUMMIXES> 2
<MIXTURE> 1 3.906843e-001
<MEAN> 13
 5.004831e-001 4.018753e+000 9.628588e+000 -6.268604e+000 -1.532885e+001 -1.229626e+001 -1.436712e+001 -9.312544e+000 -2.930373e+000 -8.539165e+000 -7.376651e+000 -3.602504e+000 7.913182e-001
<VARIANCE> 13
 3.742561e+000 1.542447e+001 2.133475e+001 8.653309e+001 2.136723e+001 3.640928e+001 2.890252e+001 3.817774e+001 2.638900e+001 2.255972e+001 3.043921e+001 2.087590e+001 1.045652e-002
<GCONST> 5.741476e+001
<MIXTURE> 2 6.093173e-001
<MEAN> 13
 -6.610156e-001 3.765890e+000 7.506936e+000 -1.582431e+001 -1.635819e+001 -9.621833e+000 -1.779953e+001 -1.369951e+001 -5.479267e+000 -1.201660e+001 -1.286283e+001 -4.704345e+000 7.841005e-001
<VARIANCE> 13
 5.628376e+000 1.800116e+001 1.239258e+001 4.895285e+001 2.029831e+001 2.679925e+001 4.120242e+001 2.242109e+001 2.533266e+001 2.241408e+001 2.199923e+001 1.630496e+001 1.716560e-002
<GCONST> 5.620544e+001
<STATE> 4
<NUMMIXES> 2
<MIXTURE> 1 4.203397e-001
<MEAN> 13
 -4.129302e+000 3.913742e+000 3.463971e+000 -4.139816e+000 -9.490571e+000 -1.045685e+001 -1.163559e+001 -1.029997e+001 -7.015288e+000 -8.211357e+000 -5.364223e+000 -4.127331e+000 5.071675e-001
<VARIANCE> 13
 5.890235e+000 1.020014e+001 1.501660e+001 2.709206e+001 2.414472e+001 1.912741e+001 1.953064e+001 2.058017e+001 1.991008e+001 1.768832e+001 2.054169e+001 1.375939e+001 2.265867e-002
<GCONST> 5.384909e+001
<MIXTURE> 2 5.796580e-001
<MEAN> 13
 -4.065915e+000 3.660131e+000 3.176746e+000 -6.876747e+000 -1.121548e+001 -1.127515e+001 -1.381674e+001 -1.315367e+001 -9.530090e+000 -1.173773e+001 -9.418676e+000 -6.027220e+000 5.482553e-001
<VARIANCE> 13
 6.312678e+000 1.109646e+001 1.202917e+001 2.986242e+001 2.231048e+001 1.866744e+001 2.095161e+001 1.755365e+001 2.232160e+001 1.993358e+001 1.868698e+001 1.389813e+001 2.576040e-002
<GCONST> 5.396346e+001
<TRANSP> 5
 0.000000e+000 1.000000e+000 0.000000e+000 0.000000e+000 0.000000e+000
 0.000000e+000 9.700137e-001 2.998634e-002 0.000000e+000 0.000000e+000
 0.000000e+000 0.000000e+000 9.002501e-001 9.974994e-002 0.000000e+000
 0.000000e+000 0.000000e+000 0.000000e+000 9.723255e-001 2.767453e-002
 0.000000e+000 0.000000e+000 0.000000e+000 0.000000e+000 0.000000e+000
<ENDHMM>
~h "sat"
<BEGINHMM>
<NUMSTATES> 5
<STATE> 2
<NUMMIXES> 2
<MIXTURE> 1 5.493991e-001
<MEAN> 13
 2.544964e-001 -1.849097e+001 -1.199277e+001 -1.414092e+001 -4.588475e-001 -6.927729e+000 -5.028594e+000 -3.807627e+000 1.127401e+000 -9.735634e+000 -1.221697e+001 -1.550387e+000 9.138333e-001
<VARIANCE> 13
 1.754423e+001 4.926801e+001 2.703579e+001 2.693019e+001 8.743563e+001 3.592429e+001 6.809542e+001 5.176035e+001 1.048060e+002 4.555672e+001 3.064052e+001 9.085673e+001 6.040647e-003
<GCONST> 6.475809e+001
<MIXTURE> 2 4.506003e-001
<MEAN> 13
 -3.275733e-001 -1.939762e+001 -1.132599e+001 -1.356615e+001 1.543701e+000 -9.233076e+000 -5.440242e+000 -6.394930e+000 -5.165088e+000 -1.353234e+001 -1.507446e+001 1.707108e+000 9.116127e-001
<VARIANCE> 13
 1.310263e+001 4.008254e+001 2.277291e+001 2.747032e+001 5.575139e+001 2.014426e+001 4.337902e+001 4.116887e+001 4.468226e+001 3.244078e+001 3.398598e+001 3.516915e+001 6.376885e-003
<GCONST> 6.041635e+001
<STATE> 3
<NUMMIXES> 2
<MIXTURE> 1 4.797293e-001
<MEAN> 13
 1.779721e+000 -1.244300e+001 -1.761512e+001 -1.043683e+001 -8.408539e-001 -4.258787e+000 -5.755342e+000 -4.392544e+000 5.006772e-001 -8.397268e+000 -1.064591e+001 -5.228894e+000 6.979768e-001
<VARIANCE> 13
 6.087898e+000 4.172058e+001 1.259358e+001 1.280344e+001 2.286828e+001 3.413231e+001 2.784079e+001 2.815321e+001 5.506030e+001 4.771971e+001 2.057833e+001 3.912940e+001 8.348966e-003
<GCONST> 5.761603e+001
<MIXTURE> 2 5.202708e-001
<MEAN> 13
 1.666373e+000 -1.464676e+001 -1.623666e+001 -8.196030e+000 -1.985288e-001 -7.135872e+000 -7.994819e+000 -5.919337e+000 -5.389176e+000 -1.438298e+001 -1.184913e+001 -2.553683e+000 7.117478e-001
<VARIANCE> 13
 5.976810e+000 4.077448e+001 1.297560e+001 1.344414e+001 2.297026e+001 1.866417e+001 1.946375e+001 2.080799e+001 3.144076e+001 3.882164e+001 2.250207e+001 2.398532e+001 7.612024e-003
<GCONST> 5.513476e+001
<STATE> 4
<NUMMIXES> 2
<MIXTURE> 1 4.226933e-001
<MEAN> 13
 -2.143721e+000 -8.310485e+000 -1.476776e+001 -9.487634e+000 -5.075146e-001 -1.678288e+000 -3.985205e+000 -5.053286e+000 -3.207990e+000 -9.240955e+000 -8.727799e+000 -5.403667e+000 4.682748e-001
<VARIANCE> 13
 7.321353e+000 3.161107e+001 1.696350e+001 1.875840e+001 2.074619e+001 2.682335e+001 2.647796e+001 2.361586e+001 4.195018e+001 3.198708e+001 2.313288e+001 2.727723e+001 1.525860e-002
<GCONST> 5.732579e+001
<MIXTURE> 2 5.773051e-001
<MEAN> 13
 -2.310652e+000 -1.109886e+001 -1.469236e+001 -6.634023e+000 1.062736e+000 -4.282812e+000 -7.944193e+000 -8.390238e+000 -8.042298e+000 -1.361500e+001 -8.941597e+000 -3.400207e+000 4.716661e-001
<VARIANCE> 13
 6.199622e+000 3.586053e+001 1.297252e+001 1.647511e+001 2.127068e+001 2.022788e+001 1.900423e+001 1.967242e+001 2.694003e+001 2.485525e+001 2.525914e+001 1.860079e+001 2.050604e-002
<GCONST> 5.542152e+001
<TRANSP> 5
 0.000000e+000 1.000000e+000 0.000000e+000 0.000000e+000 0.000000e+000
 0.000000e+000 9.648328e-001 3.516719e-002 0.000000e+000 0.000000e+000
 0.000000e+000 0.000000e+000 9.201751e-001 7.982491e-002 0.000000e+000
 0.000000e+000 0.000000e+000 0.000000e+000 9.653351e-001 3.466487e-002
 0.000000e+000 0.000000e+000 0.000000e+000 0.000000e+000 0.000000e+000
<ENDHMM>
