~o
<STREAMINFO> 1 13
<VECSIZE> 13<NULLD><MFCC_E><DIAGC>
~h "sil"
<BEGINHMM>
<NUMSTATES> 5
<STATE> 2
<MEAN> 13
 -2.682622e+000 -5.140639e+000 -5.924170e+000 -1.081647e+001 -5.331549e+000 -6.848627e+000 -8.282929e+000 -7.916130e+000 -5.566795e+000 -8.426196e+000 -8.001865e+000 -4.241366e+000 5.848271e-001
<VARIANCE> 13
 3.519144e+001 8.173119e+001 8.957476e+001 7.412053e+001 8.370963e+001 4.673276e+001 4.328095e+001 3.765613e+001 5.029964e+001 4.814628e+001 4.911519e+001 3.559385e+001 8.024461e-002
<GCONST> 6.906133e+001
<STATE> 3
<MEAN> 13
 -2.682622e+000 -5.140639e+000 -5.924170e+000 -1.081647e+001 -5.331549e+000 -6.848627e+000 -8.282929e+000 -7.916130e+000 -5.566795e+000 -8.426196e+000 -8.001865e+000 -4.241366e+000 5.848271e-001
<VARIANCE> 13
 3.519144e+001 8.173119e+001 8.957476e+001 7.412053e+001 8.370963e+001 4.673276e+001 4.328095e+001 3.765613e+001 5.029964e+001 4.814628e+001 4.911519e+001 3.559385e+001 8.024461e-002
<GCONST> 6.906133e+001
<STATE> 4
<MEAN> 13
 -2.682622e+000 -5.140639e+000 -5.924170e+000 -1.081647e+001 -5.331549e+000 -6.848627e+000 -8.282929e+000 -7.916130e+000 -5.566795e+000 -8.426196e+000 -8.001865e+000 -4.241366e+000 5.848271e-001
<VARIANCE> 13
 3.519144e+001 8.173119e+001 8.957476e+001 7.412053e+001 8.370963e+001 4.673276e+001 4.328095e+001 3.765613e+001 5.029964e+001 4.814628e+001 4.911519e+001 3.559385e+001 8.024461e-002
<GCONST> 6.906133e+001
<TRANSP> 5
 0.000000e+000 1.000000e+000 0.000000e+000 0.000000e+000 0.000000e+000
 0.000000e+000 6.000000e-001 4.000000e-001 0.000000e+000 0.000000e+000
 0.000000e+000 0.000000e+000 6.000000e-001 4.000000e-001 0.000000e+000
 0.000000e+000 0.000000e+000 0.000000e+000 6.000000e-001 4.000000e-001
 0.000000e+000 0.000000e+000 0.000000e+000 0.000000e+000 0.000000e+000
<ENDHMM>
~o
<STREAMINFO> 1 13
<VECSIZE> 13<NULLD><MFCC_E><DIAGC>
~h "eka"
<BEGINHMM>
<NUMSTATES> 5
<STATE> 2
<MEAN> 13
 -2.682622e+000 -5.140639e+000 -5.924170e+000 -1.081647e+001 -5.331549e+000 -6.848627e+000 -8.282929e+000 -7.916130e+000 -5.566795e+000 -8.426196e+000 -8.001865e+000 -4.241366e+000 5.848271e-001
<VARIANCE> 13
 3.519144e+001 8.173119e+001 8.957476e+001 7.412053e+001 8.370963e+001 4.673276e+001 4.328095e+001 3.765613e+001 5.029964e+001 4.814628e+001 4.911519e+001 3.559385e+001 8.024461e-002
<GCONST> 6.906133e+001
<STATE> 3
<MEAN> 13
 -2.682622e+000 -5.140639e+000 -5.924170e+000 -1.081647e+001 -5.331549e+000 -6.848627e+000 -8.282929e+000 -7.916130e+000 -5.566795e+000 -8.426196e+000 -8.001865e+000 -4.241366e+000 5.848271e-001
<VARIANCE> 13
 3.519144e+001 8.173119e+001 8.957476e+001 7.412053e+001 8.370963e+001 4.673276e+001 4.328095e+001 3.765613e+001 5.029964e+001 4.814628e+001 4.911519e+001 3.559385e+001 8.024461e-002
<GCONST> 6.906133e+001
<STATE> 4
<MEAN> 13
 -2.682622e+000 -5.140639e+000 -5.924170e+000 -1.081647e+001 -5.331549e+000 -6.848627e+000 -8.282929e+000 -7.916130e+000 -5.566795e+000 -8.426196e+000 -8.001865e+000 -4.241366e+000 5.848271e-001
<VARIANCE> 13
 3.519144e+001 8.173119e+001 8.957476e+001 7.412053e+001 8.370963e+001 4.673276e+001 4.328095e+001 3.765613e+001 5.029964e+001 4.814628e+001 4.911519e+001 3.559385e+001 8.024461e-002
<GCONST> 6.906133e+001
<TRANSP> 5
 0.000000e+000 1.000000e+000 0.000000e+000 0.000000e+000 0.000000e+000
 0.000000e+000 6.000000e-001 4.000000e-001 0.000000e+000 0.000000e+000
 0.000000e+000 0.000000e+000 6.000000e-001 4.000000e-001 0.000000e+000
 0.000000e+000 0.000000e+000 0.000000e+000 6.000000e-001 4.000000e-001
 0.000000e+000 0.000000e+000 0.000000e+000 0.000000e+000 0.000000e+000
<ENDHMM>
~o
<STREAMINFO> 1 13
<VECSIZE> 13<NULLD><MFCC_E><DIAGC>
~h "don"
<BEGINHMM>
<NUMSTATES> 5
<STATE> 2
<MEAN> 13
 -2.682622e+000 -5.140639e+000 -5.924170e+000 -1.081647e+001 -5.331549e+000 -6.848627e+000 -8.282929e+000 -7.916130e+000 -5.566795e+000 -8.426196e+000 -8.001865e+000 -4.241366e+000 5.848271e-001
<VARIANCE> 13
 3.519144e+001 8.173119e+001 8.957476e+001 7.412053e+001 8.370963e+001 4.673276e+001 4.328095e+001 3.765613e+001 5.029964e+001 4.814628e+001 4.911519e+001 3.559385e+001 8.024461e-002
<GCONST> 6.906133e+001
<STATE> 3
<MEAN> 13
 -2.682622e+000 -5.140639e+000 -5.924170e+000 -1.081647e+001 -5.331549e+000 -6.848627e+000 -8.282929e+000 -7.916130e+000 -5.566795e+000 -8.426196e+000 -8.001865e+000 -4.241366e+000 5.848271e-001
<VARIANCE> 13
 3.519144e+001 8.173119e+001 8.957476e+001 7.412053e+001 8.370963e+001 4.673276e+001 4.328095e+001 3.765613e+001 5.029964e+001 4.814628e+001 4.911519e+001 3.559385e+001 8.024461e-002
<GCONST> 6.906133e+001
<STATE> 4
<MEAN> 13
 -2.682622e+000 -5.140639e+000 -5.924170e+000 -1.081647e+001 -5.331549e+000 -6.848627e+000 -8.282929e+000 -7.916130e+000 -5.566795e+000 -8.426196e+000 -8.001865e+000 -4.241366e+000 5.848271e-001
<VARIANCE> 13
 3.519144e+001 8.173119e+001 8.957476e+001 7.412053e+001 8.370963e+001 4.673276e+001 4.328095e+001 3.765613e+001 5.029964e+001 4.814628e+001 4.911519e+001 3.559385e+001 8.024461e-002
<GCONST> 6.906133e+001
<TRANSP> 5
 0.000000e+000 1.000000e+000 0.000000e+000 0.000000e+000 0.000000e+000
 0.000000e+000 6.000000e-001 4.000000e-001 0.000000e+000 0.000000e+000
 0.000000e+000 0.000000e+000 6.000000e-001 4.000000e-001 0.000000e+000
 0.000000e+000 0.000000e+000 0.000000e+000 6.000000e-001 4.000000e-001
 0.000000e+000 0.000000e+000 0.000000e+000 0.000000e+000 0.000000e+000
<ENDHMM>
~o
<STREAMINFO> 1 13
<VECSIZE> 13<NULLD><MFCC_E><DIAGC>
~h "tin"
<BEGINHMM>
<NUMSTATES> 5
<STATE> 2
<MEAN> 13
 -2.682622e+000 -5.140639e+000 -5.924170e+000 -1.081647e+001 -5.331549e+000 -6.848627e+000 -8.282929e+000 -7.916130e+000 -5.566795e+000 -8.426196e+000 -8.001865e+000 -4.241366e+000 5.848271e-001
<VARIANCE> 13
 3.519144e+001 8.173119e+001 8.957476e+001 7.412053e+001 8.370963e+001 4.673276e+001 4.328095e+001 3.765613e+001 5.029964e+001 4.814628e+001 4.911519e+001 3.559385e+001 8.024461e-002
<GCONST> 6.906133e+001
<STATE> 3
<MEAN> 13
 -2.682622e+000 -5.140639e+000 -5.924170e+000 -1.081647e+001 -5.331549e+000 -6.848627e+000 -8.282929e+000 -7.916130e+000 -5.566795e+000 -8.426196e+000 -8.001865e+000 -4.241366e+000 5.848271e-001
<VARIANCE> 13
 3.519144e+001 8.173119e+001 8.957476e+001 7.412053e+001 8.370963e+001 4.673276e+001 4.328095e+001 3.765613e+001 5.029964e+001 4.814628e+001 4.911519e+001 3.559385e+001 8.024461e-002
<GCONST> 6.906133e+001
<STATE> 4
<MEAN> 13
 -2.682622e+000 -5.140639e+000 -5.924170e+000 -1.081647e+001 -5.331549e+000 -6.848627e+000 -8.282929e+000 -7.916130e+000 -5.566795e+000 -8.426196e+000 -8.001865e+000 -4.241366e+000 5.848271e-001
<VARIANCE> 13
 3.519144e+001 8.173119e+001 8.957476e+001 7.412053e+001 8.370963e+001 4.673276e+001 4.328095e+001 3.765613e+001 5.029964e+001 4.814628e+001 4.911519e+001 3.559385e+001 8.024461e-002
<GCONST> 6.906133e+001
<TRANSP> 5
 0.000000e+000 1.000000e+000 0.000000e+000 0.000000e+000 0.000000e+000
 0.000000e+000 6.000000e-001 4.000000e-001 0.000000e+000 0.000000e+000
 0.000000e+000 0.000000e+000 6.000000e-001 4.000000e-001 0.000000e+000
 0.000000e+000 0.000000e+000 0.000000e+000 6.000000e-001 4.000000e-001
 0.000000e+000 0.000000e+000 0.000000e+000 0.000000e+000 0.000000e+000
<ENDHMM>
~o
<STREAMINFO> 1 13
<VECSIZE> 13<NULLD><MFCC_E><DIAGC>
~h "char"
<BEGINHMM>
<NUMSTATES> 5
<STATE> 2
<MEAN> 13
 -2.682622e+000 -5.140639e+000 -5.924170e+000 -1.081647e+001 -5.331549e+000 -6.848627e+000 -8.282929e+000 -7.916130e+000 -5.566795e+000 -8.426196e+000 -8.001865e+000 -4.241366e+000 5.848271e-001
<VARIANCE> 13
 3.519144e+001 8.173119e+001 8.957476e+001 7.412053e+001 8.370963e+001 4.673276e+001 4.328095e+001 3.765613e+001 5.029964e+001 4.814628e+001 4.911519e+001 3.559385e+001 8.024461e-002
<GCONST> 6.906133e+001
<STATE> 3
<MEAN> 13
 -2.682622e+000 -5.140639e+000 -5.924170e+000 -1.081647e+001 -5.331549e+000 -6.848627e+000 -8.282929e+000 -7.916130e+000 -5.566795e+000 -8.426196e+000 -8.001865e+000 -4.241366e+000 5.848271e-001
<VARIANCE> 13
 3.519144e+001 8.173119e+001 8.957476e+001 7.412053e+001 8.370963e+001 4.673276e+001 4.328095e+001 3.765613e+001 5.029964e+001 4.814628e+001 4.911519e+001 3.559385e+001 8.024461e-002
<GCONST> 6.906133e+001
<STATE> 4
<MEAN> 13
 -2.682622e+000 -5.140639e+000 -5.924170e+000 -1.081647e+001 -5.331549e+000 -6.848627e+000 -8.282929e+000 -7.916130e+000 -5.566795e+000 -8.426196e+000 -8.001865e+000 -4.241366e+000 5.848271e-001
<VARIANCE> 13
 3.519144e+001 8.173119e+001 8.957476e+001 7.412053e+001 8.370963e+001 4.673276e+001 4.328095e+001 3.765613e+001 5.029964e+001 4.814628e+001 4.911519e+001 3.559385e+001 8.024461e-002
<GCONST> 6.906133e+001
<TRANSP> 5
 0.000000e+000 1.000000e+000 0.000000e+000 0.000000e+000 0.000000e+000
 0.000000e+000 6.000000e-001 4.000000e-001 0.000000e+000 0.000000e+000
 0.000000e+000 0.000000e+000 6.000000e-001 4.000000e-001 0.000000e+000
 0.000000e+000 0.000000e+000 0.000000e+000 6.000000e-001 4.000000e-001
 0.000000e+000 0.000000e+000 0.000000e+000 0.000000e+000 0.000000e+000
<ENDHMM>
~o
<STREAMINFO> 1 13
<VECSIZE> 13<NULLD><MFCC_E><DIAGC>
~h "pach"
<BEGINHMM>
<NUMSTATES> 5
<STATE> 2
<MEAN> 13
 -2.682622e+000 -5.140639e+000 -5.924170e+000 -1.081647e+001 -5.331549e+000 -6.848627e+000 -8.282929e+000 -7.916130e+000 -5.566795e+000 -8.426196e+000 -8.001865e+000 -4.241366e+000 5.848271e-001
<VARIANCE> 13
 3.519144e+001 8.173119e+001 8.957476e+001 7.412053e+001 8.370963e+001 4.673276e+001 4.328095e+001 3.765613e+001 5.029964e+001 4.814628e+001 4.911519e+001 3.559385e+001 8.024461e-002
<GCONST> 6.906133e+001
<STATE> 3
<MEAN> 13
 -2.682622e+000 -5.140639e+000 -5.924170e+000 -1.081647e+001 -5.331549e+000 -6.848627e+000 -8.282929e+000 -7.916130e+000 -5.566795e+000 -8.426196e+000 -8.001865e+000 -4.241366e+000 5.848271e-001
<VARIANCE> 13
 3.519144e+001 8.173119e+001 8.957476e+001 7.412053e+001 8.370963e+001 4.673276e+001 4.328095e+001 3.765613e+001 5.029964e+001 4.814628e+001 4.911519e+001 3.559385e+001 8.024461e-002
<GCONST> 6.906133e+001
<STATE> 4
<MEAN> 13
 -2.682622e+000 -5.140639e+000 -5.924170e+000 -1.081647e+001 -5.331549e+000 -6.848627e+000 -8.282929e+000 -7.916130e+000 -5.566795e+000 -8.426196e+000 -8.001865e+000 -4.241366e+000 5.848271e-001
<VARIANCE> 13
 3.519144e+001 8.173119e+001 8.957476e+001 7.412053e+001 8.370963e+001 4.673276e+001 4.328095e+001 3.765613e+001 5.029964e+001 4.814628e+001 4.911519e+001 3.559385e+001 8.024461e-002
<GCONST> 6.906133e+001
<TRANSP> 5
 0.000000e+000 1.000000e+000 0.000000e+000 0.000000e+000 0.000000e+000
 0.000000e+000 6.000000e-001 4.000000e-001 0.000000e+000 0.000000e+000
 0.000000e+000 0.000000e+000 6.000000e-001 4.000000e-001 0.000000e+000
 0.000000e+000 0.000000e+000 0.000000e+000 6.000000e-001 4.000000e-001
 0.000000e+000 0.000000e+000 0.000000e+000 0.000000e+000 0.000000e+000
<ENDHMM>
~o
<STREAMINFO> 1 13
<VECSIZE> 13<NULLD><MFCC_E><DIAGC>
~h "sa"
<BEGINHMM>
<NUMSTATES> 5
<STATE> 2
<MEAN> 13
 -2.682622e+000 -5.140639e+000 -5.924170e+000 -1.081647e+001 -5.331549e+000 -6.848627e+000 -8.282929e+000 -7.916130e+000 -5.566795e+000 -8.426196e+000 -8.001865e+000 -4.241366e+000 5.848271e-001
<VARIANCE> 13
 3.519144e+001 8.173119e+001 8.957476e+001 7.412053e+001 8.370963e+001 4.673276e+001 4.328095e+001 3.765613e+001 5.029964e+001 4.814628e+001 4.911519e+001 3.559385e+001 8.024461e-002
<GCONST> 6.906133e+001
<STATE> 3
<MEAN> 13
 -2.682622e+000 -5.140639e+000 -5.924170e+000 -1.081647e+001 -5.331549e+000 -6.848627e+000 -8.282929e+000 -7.916130e+000 -5.566795e+000 -8.426196e+000 -8.001865e+000 -4.241366e+000 5.848271e-001
<VARIANCE> 13
 3.519144e+001 8.173119e+001 8.957476e+001 7.412053e+001 8.370963e+001 4.673276e+001 4.328095e+001 3.765613e+001 5.029964e+001 4.814628e+001 4.911519e+001 3.559385e+001 8.024461e-002
<GCONST> 6.906133e+001
<STATE> 4
<MEAN> 13
 -2.682622e+000 -5.140639e+000 -5.924170e+000 -1.081647e+001 -5.331549e+000 -6.848627e+000 -8.282929e+000 -7.916130e+000 -5.566795e+000 -8.426196e+000 -8.001865e+000 -4.241366e+000 5.848271e-001
<VARIANCE> 13
 3.519144e+001 8.173119e+001 8.957476e+001 7.412053e+001 8.370963e+001 4.673276e+001 4.328095e+001 3.765613e+001 5.029964e+001 4.814628e+001 4.911519e+001 3.559385e+001 8.024461e-002
<GCONST> 6.906133e+001
<TRANSP> 5
 0.000000e+000 1.000000e+000 0.000000e+000 0.000000e+000 0.000000e+000
 0.000000e+000 6.000000e-001 4.000000e-001 0.000000e+000 0.000000e+000
 0.000000e+000 0.000000e+000 6.000000e-001 4.000000e-001 0.000000e+000
 0.000000e+000 0.000000e+000 0.000000e+000 6.000000e-001 4.000000e-001
 0.000000e+000 0.000000e+000 0.000000e+000 0.000000e+000 0.000000e+000
<ENDHMM>
~o
<STREAMINFO> 1 13
<VECSIZE> 13<NULLD><MFCC_E><DIAGC>
~h "sat"
<BEGINHMM>
<NUMSTATES> 5
<STATE> 2
<MEAN> 13
 -2.682622e+000 -5.140639e+000 -5.924170e+000 -1.081647e+001 -5.331549e+000 -6.848627e+000 -8.282929e+000 -7.916130e+000 -5.566795e+000 -8.426196e+000 -8.001865e+000 -4.241366e+000 5.848271e-001
<VARIANCE> 13
 3.519144e+001 8.173119e+001 8.957476e+001 7.412053e+001 8.370963e+001 4.673276e+001 4.328095e+001 3.765613e+001 5.029964e+001 4.814628e+001 4.911519e+001 3.559385e+001 8.024461e-002
<GCONST> 6.906133e+001
<STATE> 3
<MEAN> 13
 -2.682622e+000 -5.140639e+000 -5.924170e+000 -1.081647e+001 -5.331549e+000 -6.848627e+000 -8.282929e+000 -7.916130e+000 -5.566795e+000 -8.426196e+000 -8.001865e+000 -4.241366e+000 5.848271e-001
<VARIANCE> 13
 3.519144e+001 8.173119e+001 8.957476e+001 7.412053e+001 8.370963e+001 4.673276e+001 4.328095e+001 3.765613e+001 5.029964e+001 4.814628e+001 4.911519e+001 3.559385e+001 8.024461e-002
<GCONST> 6.906133e+001
<STATE> 4
<MEAN> 13
 -2.682622e+000 -5.140639e+000 -5.924170e+000 -1.081647e+001 -5.331549e+000 -6.848627e+000 -8.282929e+000 -7.916130e+000 -5.566795e+000 -8.426196e+000 -8.001865e+000 -4.241366e+000 5.848271e-001
<VARIANCE> 13
 3.519144e+001 8.173119e+001 8.957476e+001 7.412053e+001 8.370963e+001 4.673276e+001 4.328095e+001 3.765613e+001 5.029964e+001 4.814628e+001 4.911519e+001 3.559385e+001 8.024461e-002
<GCONST> 6.906133e+001
<TRANSP> 5
 0.000000e+000 1.000000e+000 0.000000e+000 0.000000e+000 0.000000e+000
 0.000000e+000 6.000000e-001 4.000000e-001 0.000000e+000 0.000000e+000
 0.000000e+000 0.000000e+000 6.000000e-001 4.000000e-001 0.000000e+000
 0.000000e+000 0.000000e+000 0.000000e+000 6.000000e-001 4.000000e-001
 0.000000e+000 0.000000e+000 0.000000e+000 0.000000e+000 0.000000e+000
<ENDHMM>
~o
<STREAMINFO> 1 13
<VECSIZE> 13<NULLD><MFCC_E><DIAGC>
~h "ath"
<BEGINHMM>
<NUMSTATES> 5
<STATE> 2
<MEAN> 13
 -2.682622e+000 -5.140639e+000 -5.924170e+000 -1.081647e+001 -5.331549e+000 -6.848627e+000 -8.282929e+000 -7.916130e+000 -5.566795e+000 -8.426196e+000 -8.001865e+000 -4.241366e+000 5.848271e-001
<VARIANCE> 13
 3.519144e+001 8.173119e+001 8.957476e+001 7.412053e+001 8.370963e+001 4.673276e+001 4.328095e+001 3.765613e+001 5.029964e+001 4.814628e+001 4.911519e+001 3.559385e+001 8.024461e-002
<GCONST> 6.906133e+001
<STATE> 3
<MEAN> 13
 -2.682622e+000 -5.140639e+000 -5.924170e+000 -1.081647e+001 -5.331549e+000 -6.848627e+000 -8.282929e+000 -7.916130e+000 -5.566795e+000 -8.426196e+000 -8.001865e+000 -4.241366e+000 5.848271e-001
<VARIANCE> 13
 3.519144e+001 8.173119e+001 8.957476e+001 7.412053e+001 8.370963e+001 4.673276e+001 4.328095e+001 3.765613e+001 5.029964e+001 4.814628e+001 4.911519e+001 3.559385e+001 8.024461e-002
<GCONST> 6.906133e+001
<STATE> 4
<MEAN> 13
 -2.682622e+000 -5.140639e+000 -5.924170e+000 -1.081647e+001 -5.331549e+000 -6.848627e+000 -8.282929e+000 -7.916130e+000 -5.566795e+000 -8.426196e+000 -8.001865e+000 -4.241366e+000 5.848271e-001
<VARIANCE> 13
 3.519144e+001 8.173119e+001 8.957476e+001 7.412053e+001 8.370963e+001 4.673276e+001 4.328095e+001 3.765613e+001 5.029964e+001 4.814628e+001 4.911519e+001 3.559385e+001 8.024461e-002
<GCONST> 6.906133e+001
<TRANSP> 5
 0.000000e+000 1.000000e+000 0.000000e+000 0.000000e+000 0.000000e+000
 0.000000e+000 6.000000e-001 4.000000e-001 0.000000e+000 0.000000e+000
 0.000000e+000 0.000000e+000 6.000000e-001 4.000000e-001 0.000000e+000
 0.000000e+000 0.000000e+000 0.000000e+000 6.000000e-001 4.000000e-001
 0.000000e+000 0.000000e+000 0.000000e+000 0.000000e+000 0.000000e+000
<ENDHMM>
~o
<STREAMINFO> 1 13
<VECSIZE> 13<NULLD><MFCC_E><DIAGC>
~h "nav"
<BEGINHMM>
<NUMSTATES> 5
<STATE> 2
<MEAN> 13
 -2.682622e+000 -5.140639e+000 -5.924170e+000 -1.081647e+001 -5.331549e+000 -6.848627e+000 -8.282929e+000 -7.916130e+000 -5.566795e+000 -8.426196e+000 -8.001865e+000 -4.241366e+000 5.848271e-001
<VARIANCE> 13
 3.519144e+001 8.173119e+001 8.957476e+001 7.412053e+001 8.370963e+001 4.673276e+001 4.328095e+001 3.765613e+001 5.029964e+001 4.814628e+001 4.911519e+001 3.559385e+001 8.024461e-002
<GCONST> 6.906133e+001
<STATE> 3
<MEAN> 13
 -2.682622e+000 -5.140639e+000 -5.924170e+000 -1.081647e+001 -5.331549e+000 -6.848627e+000 -8.282929e+000 -7.916130e+000 -5.566795e+000 -8.426196e+000 -8.001865e+000 -4.241366e+000 5.848271e-001
<VARIANCE> 13
 3.519144e+001 8.173119e+001 8.957476e+001 7.412053e+001 8.370963e+001 4.673276e+001 4.328095e+001 3.765613e+001 5.029964e+001 4.814628e+001 4.911519e+001 3.559385e+001 8.024461e-002
<GCONST> 6.906133e+001
<STATE> 4
<MEAN> 13
 -2.682622e+000 -5.140639e+000 -5.924170e+000 -1.081647e+001 -5.331549e+000 -6.848627e+000 -8.282929e+000 -7.916130e+000 -5.566795e+000 -8.426196e+000 -8.001865e+000 -4.241366e+000 5.848271e-001
<VARIANCE> 13
 3.519144e+001 8.173119e+001 8.957476e+001 7.412053e+001 8.370963e+001 4.673276e+001 4.328095e+001 3.765613e+001 5.029964e+001 4.814628e+001 4.911519e+001 3.559385e+001 8.024461e-002
<GCONST> 6.906133e+001
<TRANSP> 5
 0.000000e+000 1.000000e+000 0.000000e+000 0.000000e+000 0.000000e+000
 0.000000e+000 6.000000e-001 4.000000e-001 0.000000e+000 0.000000e+000
 0.000000e+000 0.000000e+000 6.000000e-001 4.000000e-001 0.000000e+000
 0.000000e+000 0.000000e+000 0.000000e+000 6.000000e-001 4.000000e-001
 0.000000e+000 0.000000e+000 0.000000e+000 0.000000e+000 0.000000e+000
<ENDHMM>
~o
<STREAMINFO> 1 13
<VECSIZE> 13<NULLD><MFCC_E><DIAGC>
~h "dha"
<BEGINHMM>
<NUMSTATES> 5
<STATE> 2
<MEAN> 13
 -2.682622e+000 -5.140639e+000 -5.924170e+000 -1.081647e+001 -5.331549e+000 -6.848627e+000 -8.282929e+000 -7.916130e+000 -5.566795e+000 -8.426196e+000 -8.001865e+000 -4.241366e+000 5.848271e-001
<VARIANCE> 13
 3.519144e+001 8.173119e+001 8.957476e+001 7.412053e+001 8.370963e+001 4.673276e+001 4.328095e+001 3.765613e+001 5.029964e+001 4.814628e+001 4.911519e+001 3.559385e+001 8.024461e-002
<GCONST> 6.906133e+001
<STATE> 3
<MEAN> 13
 -2.682622e+000 -5.140639e+000 -5.924170e+000 -1.081647e+001 -5.331549e+000 -6.848627e+000 -8.282929e+000 -7.916130e+000 -5.566795e+000 -8.426196e+000 -8.001865e+000 -4.241366e+000 5.848271e-001
<VARIANCE> 13
 3.519144e+001 8.173119e+001 8.957476e+001 7.412053e+001 8.370963e+001 4.673276e+001 4.328095e+001 3.765613e+001 5.029964e+001 4.814628e+001 4.911519e+001 3.559385e+001 8.024461e-002
<GCONST> 6.906133e+001
<STATE> 4
<MEAN> 13
 -2.682622e+000 -5.140639e+000 -5.924170e+000 -1.081647e+001 -5.331549e+000 -6.848627e+000 -8.282929e+000 -7.916130e+000 -5.566795e+000 -8.426196e+000 -8.001865e+000 -4.241366e+000 5.848271e-001
<VARIANCE> 13
 3.519144e+001 8.173119e+001 8.957476e+001 7.412053e+001 8.370963e+001 4.673276e+001 4.328095e+001 3.765613e+001 5.029964e+001 4.814628e+001 4.911519e+001 3.559385e+001 8.024461e-002
<GCONST> 6.906133e+001
<TRANSP> 5
 0.000000e+000 1.000000e+000 0.000000e+000 0.000000e+000 0.000000e+000
 0.000000e+000 6.000000e-001 4.000000e-001 0.000000e+000 0.000000e+000
 0.000000e+000 0.000000e+000 6.000000e-001 4.000000e-001 0.000000e+000
 0.000000e+000 0.000000e+000 0.000000e+000 6.000000e-001 4.000000e-001
 0.000000e+000 0.000000e+000 0.000000e+000 0.000000e+000 0.000000e+000
<ENDHMM>
